%YAML:1.0
---
opencv_ml_dtree:
   format: 3
   is_classifier: 1
   var_all: 8
   var_count: 7
   ord_var_count: 7
   cat_var_count: 1
   training_params:
      use_surrogates: 0
      max_categories: 10
      regression_accuracy: 9.9999997764825821e-03
      max_depth: 10
      min_sample_count: 1
      cross_validation_folds: 0
   global_var_idx: 1
   var_idx: [ 0, 1, 2, 3, 4, 5, 6 ]
   var_type: [ 0, 0, 0, 0, 0, 0, 0, 1 ]
   cat_ofs: [ 0, 0, 0, 0, 0, 0, 0, 0, 0, 0, 0, 0, 0, 0 ]
   class_labels: [ 1, 2, 3, 4, 5, 10, 20 ]
   missing_subst: [ 0., 0., 0., 0., 0., 0., 0., 0. ]
   nodes:
      -
         depth: 0
         value: 3.
         norm_class_idx: 2
         splits:
            - { var:2, quality:4.0739023437500000e+03,
                le:-5.7169264554977417e-01 }
      -
         depth: 1
         value: 1.
         norm_class_idx: 0
         splits:
            - { var:6, quality:2.2022678222656250e+03,
                le:-1.2964448928833008e+00 }
      -
         depth: 2
         value: 1.
         norm_class_idx: 0
         splits:
            - { var:2, quality:1.6636367187500000e+03,
                le:-2.2291245460510254e+00 }
      -
         depth: 3
         value: 1.
         norm_class_idx: 0
         splits:
            - { var:1, quality:1.8504324340820312e+02,
                le:-1.6866047382354736e+00 }
      -
         depth: 4
         value: 1.
         norm_class_idx: 0
         splits:
            - { var:5, quality:185., le:-2.6515974998474121e+00 }
      -
         depth: 5
         value: 2.
         norm_class_idx: 1
      -
         depth: 5
         value: 1.
         norm_class_idx: 0
      -
         depth: 4
         value: 10.
         norm_class_idx: 5
      -
         depth: 3
         value: 1.
         norm_class_idx: 0
         splits:
            - { var:5, quality:1.5414003906250000e+03,
                le:-1.9953823089599609e+00 }
      -
         depth: 4
         value: 2.
         norm_class_idx: 1
         splits:
            - { var:0, quality:3.5056079101562500e+02,
                le:-1.7459511756896973e+00 }
      -
         depth: 5
         value: 1.
         norm_class_idx: 0
         splits:
            - { var:5, quality:1.3365922546386719e+02,
                le:-2.5182988643646240e+00 }
      -
         depth: 6
         value: 2.
         norm_class_idx: 1
      -
         depth: 6
         value: 1.
         norm_class_idx: 0
         splits:
            - { var:5, quality:1.2058972167968750e+02,
                le:-2.2417440414428711e+00 }
      -
         depth: 7
         value: 1.
         norm_class_idx: 0
         splits:
            - { var:4, quality:3.2041667938232422e+01,
                le:7.3693120479583740e-01 }
      -
         depth: 8
         value: 1.
         norm_class_idx: 0
      -
         depth: 8
         value: 2.
         norm_class_idx: 1
         splits:
            - { var:2, quality:2.9375000000000000e+01,
                le:-2.1853413581848145e+00 }
      -
         depth: 9
         value: 1.
         norm_class_idx: 0
         splits:
            - { var:6, quality:1.4500000000000000e+01,
                le:-2.3808770179748535e+00 }
      -
         depth: 10
         value: 1.
         norm_class_idx: 0
      -
         depth: 10
         value: 2.
         norm_class_idx: 1
      -
         depth: 9
         value: 2.
         norm_class_idx: 1
         splits:
            - { var:3, quality:2.2250000000000000e+01,
                le:1.0422490835189819e+00 }
      -
         depth: 10
         value: 2.
         norm_class_idx: 1
      -
         depth: 10
         value: 1.
         norm_class_idx: 0
      -
         depth: 7
         value: 1.
         norm_class_idx: 0
         splits:
            - { var:1, quality:9.6750000000000000e+01,
                le:-1.6050031185150146e+00 }
      -
         depth: 8
         value: 1.
         norm_class_idx: 0
         splits:
            - { var:6, quality:9.7686332702636719e+01,
                le:-2.1243410110473633e+00 }
      -
         depth: 9
         value: 1.
         norm_class_idx: 0
         splits:
            - { var:5, quality:8.3309852600097656e+01,
                le:-2.1826429367065430e+00 }
      -
         depth: 10
         value: 1.
         norm_class_idx: 0
      -
         depth: 10
         value: 1.
         norm_class_idx: 0
      -
         depth: 9
         value: 1.
         norm_class_idx: 0
         splits:
            - { var:4, quality:2.1454545974731445e+01,
                le:7.2855615615844727e-01 }
      -
         depth: 10
         value: 1.
         norm_class_idx: 0
      -
         depth: 10
         value: 2.
         norm_class_idx: 1
      -
         depth: 8
         value: 2.
         norm_class_idx: 1
      -
         depth: 5
         value: 2.
         norm_class_idx: 1
         splits:
            - { var:5, quality:2.5109780883789062e+02,
                le:-2.3079116344451904e+00 }
      -
         depth: 6
         value: 1.
         norm_class_idx: 0
         splits:
            - { var:2, quality:5.5041580200195312e+01,
                le:-2.0001857280731201e+00 }
      -
         depth: 7
         value: 2.
         norm_class_idx: 1
         splits:
            - { var:2, quality:2.9329999923706055e+01,
                le:-2.1004123687744141e+00 }
      -
         depth: 8
         value: 1.
         norm_class_idx: 0
         splits:
            - { var:1, quality:8., le:-1.8220632076263428e+00 }
      -
         depth: 9
         value: 1.
         norm_class_idx: 0
      -
         depth: 9
         value: 2.
         norm_class_idx: 1
      -
         depth: 8
         value: 2.
         norm_class_idx: 1
         splits:
            - { var:3, quality:25., le:6.0554981231689453e-01 }
      -
         depth: 9
         value: 1.
         norm_class_idx: 0
      -
         depth: 9
         value: 2.
         norm_class_idx: 1
      -
         depth: 7
         value: 1.
         norm_class_idx: 0
         splits:
            - { var:1, quality:3.7705127716064453e+01,
                le:-1.5805227756500244e+00 }
      -
         depth: 8
         value: 1.
         norm_class_idx: 0
         splits:
            - { var:0, quality:3.7052631378173828e+01,
                le:-1.7431950569152832e+00 }
      -
         depth: 9
         value: 2.
         norm_class_idx: 1
      -
         depth: 9
         value: 1.
         norm_class_idx: 0
         splits:
            - { var:0, quality:3.6500000000000000e+01,
                le:-1.5962016582489014e+00 }
      -
         depth: 10
         value: 1.
         norm_class_idx: 0
      -
         depth: 10
         value: 1.
         norm_class_idx: 0
      -
         depth: 8
         value: 2.
         norm_class_idx: 1
         splits:
            - { var:0, quality:4., le:-1.4877940416336060e+00 }
      -
         depth: 9
         value: 2.
         norm_class_idx: 1
      -
         depth: 9
         value: 1.
         norm_class_idx: 0
      -
         depth: 6
         value: 2.
         norm_class_idx: 1
         splits:
            - { var:3, quality:2.3086595153808594e+02,
                le:1.1705732345581055e+00 }
      -
         depth: 7
         value: 2.
         norm_class_idx: 1
         splits:
            - { var:1, quality:1.5580122375488281e+02,
                le:-1.6433559656143188e+00 }
      -
         depth: 8
         value: 2.
         norm_class_idx: 1
         splits:
            - { var:3, quality:1.3236231994628906e+02,
                le:1.5890274941921234e-01 }
      -
         depth: 9
         value: 1.
         norm_class_idx: 0
      -
         depth: 9
         value: 2.
         norm_class_idx: 1
         splits:
            - { var:1, quality:1.2923529052734375e+02,
                le:-2.0064826011657715e+00 }
      -
         depth: 10
         value: 1.
         norm_class_idx: 0
      -
         depth: 10
         value: 2.
         norm_class_idx: 1
      -
         depth: 8
         value: 2.
         norm_class_idx: 1
         splits:
            - { var:2, quality:3.8521739959716797e+01,
                le:-1.9115643501281738e+00 }
      -
         depth: 9
         value: 1.
         norm_class_idx: 0
      -
         depth: 9
         value: 2.
         norm_class_idx: 1
         splits:
            - { var:5, quality:3.5674419403076172e+01,
                le:-2.0342478752136230e+00 }
      -
         depth: 10
         value: 2.
         norm_class_idx: 1
      -
         depth: 10
         value: 1.
         norm_class_idx: 0
      -
         depth: 7
         value: 2.
         norm_class_idx: 1
         splits:
            - { var:3, quality:9.7263999938964844e+01,
                le:2.4637606143951416e+00 }
      -
         depth: 8
         value: 1.
         norm_class_idx: 0
         splits:
            - { var:5, quality:6.9410255432128906e+01,
                le:-2.1074817180633545e+00 }
      -
         depth: 9
         value: 2.
         norm_class_idx: 1
         splits:
            - { var:3, quality:3.9346153259277344e+01,
                le:1.9444962739944458e+00 }
      -
         depth: 10
         value: 1.
         norm_class_idx: 0
      -
         depth: 10
         value: 2.
         norm_class_idx: 1
      -
         depth: 9
         value: 1.
         norm_class_idx: 0
         splits:
            - { var:2, quality:4.1933013916015625e+01,
                le:-1.9379397630691528e+00 }
      -
         depth: 10
         value: 1.
         norm_class_idx: 0
      -
         depth: 10
         value: 2.
         norm_class_idx: 1
      -
         depth: 8
         value: 2.
         norm_class_idx: 1
      -
         depth: 4
         value: 1.
         norm_class_idx: 0
         splits:
            - { var:4, quality:1.2537385253906250e+03,
                le:2.6976923942565918e+00 }
      -
         depth: 5
         value: 1.
         norm_class_idx: 0
         splits:
            - { var:2, quality:1.2545375976562500e+03,
                le:-1.9632601737976074e+00 }
      -
         depth: 6
         value: 1.
         norm_class_idx: 0
         splits:
            - { var:4, quality:1.8211389160156250e+02,
                le:1.0985386371612549e+00 }
      -
         depth: 7
         value: 1.
         norm_class_idx: 0
         splits:
            - { var:0, quality:2.5284313201904297e+01,
                le:-1.6577551364898682e+00 }
      -
         depth: 8
         value: 1.
         norm_class_idx: 0
         splits:
            - { var:0, quality:1.5666666984558105e+01,
                le:-1.8019924163818359e+00 }
      -
         depth: 9
         value: 1.
         norm_class_idx: 0
         splits:
            - { var:0, quality:3., le:-1.8258788585662842e+00 }
      -
         depth: 10
         value: 1.
         norm_class_idx: 0
      -
         depth: 10
         value: 2.
         norm_class_idx: 1
      -
         depth: 9
         value: 1.
         norm_class_idx: 0
      -
         depth: 8
         value: 2.
         norm_class_idx: 1
         splits:
            - { var:5, quality:12., le:-1.7284636497497559e+00 }
      -
         depth: 9
         value: 2.
         norm_class_idx: 1
      -
         depth: 9
         value: 1.
         norm_class_idx: 0
      -
         depth: 7
         value: 1.
         norm_class_idx: 0
         splits:
            - { var:5, quality:1.7104624938964844e+02,
                le:-1.5318882465362549e+00 }
      -
         depth: 8
         value: 1.
         norm_class_idx: 0
         splits:
            - { var:6, quality:1.6926211547851562e+02,
                le:-1.9698925018310547e+00 }
      -
         depth: 9
         value: 1.
         norm_class_idx: 0
         splits:
            - { var:1, quality:1.6311111450195312e+02,
                le:-1.6686524152755737e+00 }
      -
         depth: 10
         value: 1.
         norm_class_idx: 0
      -
         depth: 10
         value: 1.
         norm_class_idx: 0
      -
         depth: 9
         value: 1.
         norm_class_idx: 0
         splits:
            - { var:3, quality:8., le:1.5386343002319336e+00 }
      -
         depth: 10
         value: 1.
         norm_class_idx: 0
      -
         depth: 10
         value: 2.
         norm_class_idx: 1
      -
         depth: 8
         value: 2.
         norm_class_idx: 1
      -
         depth: 6
         value: 1.
         norm_class_idx: 0
         splits:
            - { var:5, quality:1.1039061279296875e+03,
                le:-1.0446251630783081e+00 }
      -
         depth: 7
         value: 1.
         norm_class_idx: 0
         splits:
            - { var:0, quality:1.0043786621093750e+03,
                le:-1.0670251846313477e+00 }
      -
         depth: 8
         value: 1.
         norm_class_idx: 0
         splits:
            - { var:3, quality:9.6665881347656250e+02,
                le:2.4743650853633881e-01 }
      -
         depth: 9
         value: 1.
         norm_class_idx: 0
         splits:
            - { var:6, quality:2.1343133544921875e+02,
                le:-1.4314637184143066e+00 }
      -
         depth: 10
         value: 1.
         norm_class_idx: 0
      -
         depth: 10
         value: 1.
         norm_class_idx: 0
      -
         depth: 9
         value: 1.
         norm_class_idx: 0
         splits:
            - { var:6, quality:7.7163342285156250e+02,
                le:-1.6814131736755371e+00 }
      -
         depth: 10
         value: 1.
         norm_class_idx: 0
      -
         depth: 10
         value: 1.
         norm_class_idx: 0
      -
         depth: 8
         value: 2.
         norm_class_idx: 1
         splits:
            - { var:2, quality:5.1315120697021484e+01,
                le:-1.3808908462524414e+00 }
      -
         depth: 9
         value: 2.
         norm_class_idx: 1
         splits:
            - { var:1, quality:3.8142856597900391e+01,
                le:-9.4892740249633789e-01 }
      -
         depth: 10
         value: 2.
         norm_class_idx: 1
      -
         depth: 10
         value: 2.
         norm_class_idx: 1
      -
         depth: 9
         value: 2.
         norm_class_idx: 1
         splits:
            - { var:1, quality:1.7142856597900391e+01,
                le:-1.0884659290313721e+00 }
      -
         depth: 10
         value: 1.
         norm_class_idx: 0
      -
         depth: 10
         value: 2.
         norm_class_idx: 1
      -
         depth: 7
         value: 1.
         norm_class_idx: 0
         splits:
            - { var:4, quality:1.3699314880371094e+02,
                le:2.7285143733024597e-01 }
      -
         depth: 8
         value: 2.
         norm_class_idx: 1
         splits:
            - { var:0, quality:4., le:-1.1625709533691406e+00 }
      -
         depth: 9
         value: 2.
         norm_class_idx: 1
      -
         depth: 9
         value: 1.
         norm_class_idx: 0
      -
         depth: 8
         value: 1.
         norm_class_idx: 0
         splits:
            - { var:3, quality:1.3672636413574219e+02,
                le:1.7833452224731445e+00 }
      -
         depth: 9
         value: 1.
         norm_class_idx: 0
         splits:
            - { var:6, quality:1.3057142639160156e+02,
                le:-1.3237779140472412e+00 }
      -
         depth: 10
         value: 1.
         norm_class_idx: 0
      -
         depth: 10
         value: 1.
         norm_class_idx: 0
      -
         depth: 9
         value: 1.
         norm_class_idx: 0
         splits:
            - { var:1, quality:1.0399999618530273e+01,
                le:-9.6851176023483276e-01 }
      -
         depth: 10
         value: 1.
         norm_class_idx: 0
      -
         depth: 10
         value: 2.
         norm_class_idx: 1
      -
         depth: 5
         value: 2.
         norm_class_idx: 1
         splits:
            - { var:0, quality:4.3083332061767578e+01,
                le:-1.5190300941467285e+00 }
      -
         depth: 6
         value: 10.
         norm_class_idx: 5
         splits:
            - { var:5, quality:2.2500000000000000e+01,
                le:-1.7226819992065430e+00 }
      -
         depth: 7
         value: 1.
         norm_class_idx: 0
         splits:
            - { var:0, quality:4., le:-1.6660234928131104e+00 }
      -
         depth: 8
         value: 1.
         norm_class_idx: 0
      -
         depth: 8
         value: 2.
         norm_class_idx: 1
      -
         depth: 7
         value: 10.
         norm_class_idx: 5
      -
         depth: 6
         value: 2.
         norm_class_idx: 1
      -
         depth: 2
         value: 2.
         norm_class_idx: 1
         splits:
            - { var:4, quality:6.2923797607421875e+02,
                le:3.9256614446640015e-01 }
      -
         depth: 3
         value: 2.
         norm_class_idx: 1
         splits:
            - { var:5, quality:5.5901165771484375e+02,
                le:-9.3862855434417725e-01 }
      -
         depth: 4
         value: 2.
         norm_class_idx: 1
         splits:
            - { var:4, quality:2.3616609191894531e+02,
                le:-4.8287913203239441e-01 }
      -
         depth: 5
         value: 1.
         norm_class_idx: 0
         splits:
            - { var:0, quality:1.5142857551574707e+01,
                le:-8.7317776679992676e-01 }
      -
         depth: 6
         value: 1.
         norm_class_idx: 0
         splits:
            - { var:0, quality:14., le:-1.2470922470092773e+00 }
      -
         depth: 7
         value: 2.
         norm_class_idx: 1
      -
         depth: 7
         value: 1.
         norm_class_idx: 0
      -
         depth: 6
         value: 2.
         norm_class_idx: 1
      -
         depth: 5
         value: 2.
         norm_class_idx: 1
         splits:
            - { var:1, quality:2.3230232238769531e+02,
                le:-1.3022618293762207e+00 }
      -
         depth: 6
         value: 2.
         norm_class_idx: 1
         splits:
            - { var:0, quality:2.5803920745849609e+01,
                le:-1.2581167221069336e+00 }
      -
         depth: 7
         value: 2.
         norm_class_idx: 1
         splits:
            - { var:5, quality:1.5125000000000000e+01,
                le:-1.3410943746566772e+00 }
      -
         depth: 8
         value: 1.
         norm_class_idx: 0
      -
         depth: 8
         value: 2.
         norm_class_idx: 1
         splits:
            - { var:2, quality:1.4500000000000000e+01,
                le:-1.5792338848114014e+00 }
      -
         depth: 9
         value: 2.
         norm_class_idx: 1
         splits:
            - { var:1, quality:4., le:-1.3732550144195557e+00 }
      -
         depth: 10
         value: 2.
         norm_class_idx: 1
      -
         depth: 10
         value: 1.
         norm_class_idx: 0
      -
         depth: 9
         value: 2.
         norm_class_idx: 1
      -
         depth: 7
         value: 1.
         norm_class_idx: 0
         splits:
            - { var:5, quality:1.5111110687255859e+01,
                le:-1.0690363645553589e+00 }
      -
         depth: 8
         value: 2.
         norm_class_idx: 1
         splits:
            - { var:5, quality:1.1846154212951660e+01,
                le:-1.1046898365020752e+00 }
      -
         depth: 9
         value: 1.
         norm_class_idx: 0
         splits:
            - { var:2, quality:8.5555553436279297e+00,
                le:-1.4167613983154297e+00 }
      -
         depth: 10
         value: 2.
         norm_class_idx: 1
      -
         depth: 10
         value: 1.
         norm_class_idx: 0
      -
         depth: 9
         value: 2.
         norm_class_idx: 1
      -
         depth: 8
         value: 1.
         norm_class_idx: 0
      -
         depth: 6
         value: 2.
         norm_class_idx: 1
         splits:
            - { var:4, quality:2.1426829528808594e+02,
                le:3.7138205766677856e-01 }
      -
         depth: 7
         value: 2.
         norm_class_idx: 1
         splits:
            - { var:1, quality:2.1446400451660156e+02,
                le:-1.0305287837982178e+00 }
      -
         depth: 8
         value: 2.
         norm_class_idx: 1
         splits:
            - { var:6, quality:9.9986724853515625e+01,
                le:-9.5988559722900391e-01 }
      -
         depth: 9
         value: 2.
         norm_class_idx: 1
         splits:
            - { var:0, quality:9.6332023620605469e+01,
                le:-1.0532445907592773e+00 }
      -
         depth: 10
         value: 2.
         norm_class_idx: 1
      -
         depth: 10
         value: 2.
         norm_class_idx: 1
      -
         depth: 9
         value: 1.
         norm_class_idx: 0
         splits:
            - { var:3, quality:1.0399999618530273e+01,
                le:-3.1161850690841675e-01 }
      -
         depth: 10
         value: 1.
         norm_class_idx: 0
      -
         depth: 10
         value: 2.
         norm_class_idx: 1
      -
         depth: 8
         value: 2.
         norm_class_idx: 1
      -
         depth: 7
         value: 1.
         norm_class_idx: 0
      -
         depth: 4
         value: 2.
         norm_class_idx: 1
         splits:
            - { var:6, quality:3.8937899780273438e+02,
                le:-1.0224552154541016e+00 }
      -
         depth: 5
         value: 1.
         norm_class_idx: 0
         splits:
            - { var:0, quality:1.2346913146972656e+02,
                le:-1.0321142673492432e+00 }
      -
         depth: 6
         value: 2.
         norm_class_idx: 1
         splits:
            - { var:3, quality:2.8302564620971680e+01,
                le:3.3099624514579773e-01 }
      -
         depth: 7
         value: 2.
         norm_class_idx: 1
         splits:
            - { var:3, quality:2.0782608032226562e+01,
                le:-3.1261327862739563e-01 }
      -
         depth: 8
         value: 1.
         norm_class_idx: 0
      -
         depth: 8
         value: 2.
         norm_class_idx: 1
         splits:
            - { var:6, quality:2.0600000381469727e+01,
                le:-1.1956744194030762e+00 }
      -
         depth: 9
         value: 1.
         norm_class_idx: 0
         splits:
            - { var:1, quality:5., le:-1.1447708606719971e+00 }
      -
         depth: 10
         value: 2.
         norm_class_idx: 1
      -
         depth: 10
         value: 1.
         norm_class_idx: 0
      -
         depth: 9
         value: 2.
         norm_class_idx: 1
      -
         depth: 7
         value: 1.
         norm_class_idx: 0
         splits:
            - { var:2, quality:15., le:-1.2527062892913818e+00 }
      -
         depth: 8
         value: 1.
         norm_class_idx: 0
      -
         depth: 8
         value: 2.
         norm_class_idx: 1
      -
         depth: 6
         value: 1.
         norm_class_idx: 0
         splits:
            - { var:6, quality:1.0547040557861328e+02,
                le:-1.1825020313262939e+00 }
      -
         depth: 7
         value: 1.
         norm_class_idx: 0
         splits:
            - { var:5, quality:1.6153846740722656e+01,
                le:-8.8306081295013428e-01 }
      -
         depth: 8
         value: 2.
         norm_class_idx: 1
         splits:
            - { var:0, quality:6.2857141494750977e+00,
                le:-8.5939705371856689e-01 }
      -
         depth: 9
         value: 2.
         norm_class_idx: 1
         splits:
            - { var:2, quality:7., le:-1.2505961656570435e+00 }
      -
         depth: 10
         value: 1.
         norm_class_idx: 0
      -
         depth: 10
         value: 2.
         norm_class_idx: 1
      -
         depth: 9
         value: 1.
         norm_class_idx: 0
      -
         depth: 8
         value: 1.
         norm_class_idx: 0
         splits:
            - { var:1, quality:12., le:-1.0582733154296875e+00 }
      -
         depth: 9
         value: 1.
         norm_class_idx: 0
         splits:
            - { var:0, quality:2., le:-9.5678019523620605e-01 }
      -
         depth: 10
         value: 2.
         norm_class_idx: 1
      -
         depth: 10
         value: 1.
         norm_class_idx: 0
      -
         depth: 9
         value: 1.
         norm_class_idx: 0
      -
         depth: 7
         value: 1.
         norm_class_idx: 0
         splits:
            - { var:2, quality:9.5679244995117188e+01,
                le:-7.1728503704071045e-01 }
      -
         depth: 8
         value: 1.
         norm_class_idx: 0
         splits:
            - { var:4, quality:9.6476188659667969e+01,
                le:3.8714724779129028e-01 }
      -
         depth: 9
         value: 1.
         norm_class_idx: 0
         splits:
            - { var:6, quality:9.6586021423339844e+01,
                le:-1.0389208793640137e+00 }
      -
         depth: 10
         value: 1.
         norm_class_idx: 0
      -
         depth: 10
         value: 1.
         norm_class_idx: 0
      -
         depth: 9
         value: 2.
         norm_class_idx: 1
      -
         depth: 8
         value: 3.
         norm_class_idx: 2
      -
         depth: 5
         value: 2.
         norm_class_idx: 1
         splits:
            - { var:2, quality:2.9300466918945312e+02,
                le:-7.7372837066650391e-01 }
      -
         depth: 6
         value: 2.
         norm_class_idx: 1
         splits:
            - { var:6, quality:2.3048046875000000e+02,
                le:-9.4440770149230957e-01 }
      -
         depth: 7
         value: 2.
         norm_class_idx: 1
         splits:
            - { var:0, quality:4.8909523010253906e+01,
                le:-8.6766541004180908e-01 }
      -
         depth: 8
         value: 2.
         norm_class_idx: 1
         splits:
            - { var:3, quality:2.8068965911865234e+01,
                le:-5.2947080135345459e-01 }
      -
         depth: 9
         value: 1.
         norm_class_idx: 0
      -
         depth: 9
         value: 2.
         norm_class_idx: 1
         splits:
            - { var:5, quality:2.7666666030883789e+01,
                le:-6.1517834663391113e-01 }
      -
         depth: 10
         value: 2.
         norm_class_idx: 1
      -
         depth: 10
         value: 2.
         norm_class_idx: 1
      -
         depth: 8
         value: 1.
         norm_class_idx: 0
         splits:
            - { var:5, quality:2.6076923370361328e+01,
                le:-8.7760031223297119e-01 }
      -
         depth: 9
         value: 2.
         norm_class_idx: 1
      -
         depth: 9
         value: 1.
         norm_class_idx: 0
         splits:
            - { var:5, quality:2.4399999618530273e+01,
                le:-8.1625068187713623e-01 }
      -
         depth: 10
         value: 1.
         norm_class_idx: 0
      -
         depth: 10
         value: 1.
         norm_class_idx: 0
      -
         depth: 7
         value: 2.
         norm_class_idx: 1
         splits:
            - { var:0, quality:2.0760868835449219e+02,
                le:-8.8603961467742920e-01 }
      -
         depth: 8
         value: 2.
         norm_class_idx: 1
         splits:
            - { var:4, quality:3.9050846099853516e+01,
                le:-5.2229130268096924e-01 }
      -
         depth: 9
         value: 2.
         norm_class_idx: 1
      -
         depth: 9
         value: 1.
         norm_class_idx: 0
         splits:
            - { var:4, quality:2.7848484039306641e+01,
                le:-3.8385576009750366e-01 }
      -
         depth: 10
         value: 1.
         norm_class_idx: 0
      -
         depth: 10
         value: 4.
         norm_class_idx: 3
      -
         depth: 8
         value: 2.
         norm_class_idx: 1
         splits:
            - { var:5, quality:1.8216906738281250e+02,
                le:-1.4815104007720947e-01 }
      -
         depth: 9
         value: 2.
         norm_class_idx: 1
         splits:
            - { var:5, quality:1.8289009094238281e+02,
                le:-5.8755499124526978e-01 }
      -
         depth: 10
         value: 2.
         norm_class_idx: 1
      -
         depth: 10
         value: 2.
         norm_class_idx: 1
      -
         depth: 9
         value: 1.
         norm_class_idx: 0
         splits:
            - { var:0, quality:4., le:-6.5728110074996948e-01 }
      -
         depth: 10
         value: 3.
         norm_class_idx: 2
      -
         depth: 10
         value: 1.
         norm_class_idx: 0
      -
         depth: 6
         value: 1.
         norm_class_idx: 0
         splits:
            - { var:4, quality:7.3738151550292969e+01,
                le:-5.7352733612060547e-01 }
      -
         depth: 7
         value: 2.
         norm_class_idx: 1
         splits:
            - { var:0, quality:15., le:-5.9480893611907959e-01 }
      -
         depth: 8
         value: 2.
         norm_class_idx: 1
      -
         depth: 8
         value: 3.
         norm_class_idx: 2
      -
         depth: 7
         value: 1.
         norm_class_idx: 0
         splits:
            - { var:1, quality:7.5275131225585938e+01,
                le:-7.4900370836257935e-01 }
      -
         depth: 8
         value: 1.
         norm_class_idx: 0
         splits:
            - { var:5, quality:4.1791667938232422e+01,
                le:-1.3883617520332336e-01 }
      -
         depth: 9
         value: 1.
         norm_class_idx: 0
         splits:
            - { var:0, quality:3.9222221374511719e+01,
                le:-8.2448607683181763e-01 }
      -
         depth: 10
         value: 1.
         norm_class_idx: 0
      -
         depth: 10
         value: 1.
         norm_class_idx: 0
      -
         depth: 9
         value: 3.
         norm_class_idx: 2
      -
         depth: 8
         value: 2.
         norm_class_idx: 1
         splits:
            - { var:0, quality:4.8668823242187500e+01,
                le:-7.0229780673980713e-01 }
      -
         depth: 9
         value: 1.
         norm_class_idx: 0
         splits:
            - { var:1, quality:9., le:-5.4173612594604492e-01 }
      -
         depth: 10
         value: 1.
         norm_class_idx: 0
      -
         depth: 10
         value: 20.
         norm_class_idx: 6
      -
         depth: 9
         value: 2.
         norm_class_idx: 1
         splits:
            - { var:6, quality:4.6648277282714844e+01,
                le:-5.3572857379913330e-01 }
      -
         depth: 10
         value: 1.
         norm_class_idx: 0
      -
         depth: 10
         value: 2.
         norm_class_idx: 1
      -
         depth: 3
         value: 1.
         norm_class_idx: 0
         splits:
            - { var:6, quality:1.2520848846435547e+02,
                le:-7.0236158370971680e-01 }
      -
         depth: 4
         value: 1.
         norm_class_idx: 0
         splits:
            - { var:5, quality:1.1618898010253906e+02,
                le:-5.0147300958633423e-01 }
      -
         depth: 5
         value: 1.
         norm_class_idx: 0
         splits:
            - { var:2, quality:6.9732299804687500e+01,
                le:-1.2252757549285889e+00 }
      -
         depth: 6
         value: 1.
         norm_class_idx: 0
         splits:
            - { var:4, quality:44., le:1.7636213302612305e+00 }
      -
         depth: 7
         value: 1.
         norm_class_idx: 0
         splits:
            - { var:2, quality:4.1939998626708984e+01,
                le:-1.4447193145751953e+00 }
      -
         depth: 8
         value: 2.
         norm_class_idx: 1
         splits:
            - { var:1, quality:4., le:-1.2304524183273315e+00 }
      -
         depth: 9
         value: 2.
         norm_class_idx: 1
      -
         depth: 9
         value: 1.
         norm_class_idx: 0
      -
         depth: 8
         value: 1.
         norm_class_idx: 0
         splits:
            - { var:6, quality:4.1750679016113281e+01,
                le:-1.1271771192550659e+00 }
      -
         depth: 9
         value: 1.
         norm_class_idx: 0
         splits:
            - { var:0, quality:3.7799999237060547e+01,
                le:-1.2204496860504150e+00 }
      -
         depth: 10
         value: 1.
         norm_class_idx: 0
      -
         depth: 10
         value: 1.
         norm_class_idx: 0
      -
         depth: 9
         value: 1.
         norm_class_idx: 0
         splits:
            - { var:0, quality:9., le:-9.5861756801605225e-01 }
      -
         depth: 10
         value: 2.
         norm_class_idx: 1
      -
         depth: 10
         value: 1.
         norm_class_idx: 0
      -
         depth: 7
         value: 2.
         norm_class_idx: 1
      -
         depth: 6
         value: 2.
         norm_class_idx: 1
         splits:
            - { var:5, quality:3.6578571319580078e+01,
                le:-6.2031769752502441e-01 }
      -
         depth: 7
         value: 2.
         norm_class_idx: 1
         splits:
            - { var:4, quality:2.8500000000000000e+01,
                le:7.0490866899490356e-01 }
      -
         depth: 8
         value: 2.
         norm_class_idx: 1
         splits:
            - { var:0, quality:1.4666666984558105e+01,
                le:-9.9352854490280151e-01 }
      -
         depth: 9
         value: 2.
         norm_class_idx: 1
      -
         depth: 9
         value: 1.
         norm_class_idx: 0
         splits:
            - { var:6, quality:1.0222222328186035e+01,
                le:-1.0817317962646484e+00 }
      -
         depth: 10
         value: 1.
         norm_class_idx: 0
      -
         depth: 10
         value: 2.
         norm_class_idx: 1
      -
         depth: 8
         value: 2.
         norm_class_idx: 1
         splits:
            - { var:5, quality:20., le:-6.8712759017944336e-01 }
      -
         depth: 9
         value: 2.
         norm_class_idx: 1
      -
         depth: 9
         value: 20.
         norm_class_idx: 6
      -
         depth: 7
         value: 1.
         norm_class_idx: 0
         splits:
            - { var:4, quality:1.6142856597900391e+01,
                le:7.0244526863098145e-01 }
      -
         depth: 8
         value: 2.
         norm_class_idx: 1
         splits:
            - { var:0, quality:1.0666666984558105e+01,
                le:-8.5664093494415283e-01 }
      -
         depth: 9
         value: 1.
         norm_class_idx: 0
      -
         depth: 9
         value: 2.
         norm_class_idx: 1
         splits:
            - { var:6, quality:12., le:-8.1169402599334717e-01 }
      -
         depth: 10
         value: 2.
         norm_class_idx: 1
      -
         depth: 10
         value: 1.
         norm_class_idx: 0
      -
         depth: 8
         value: 1.
         norm_class_idx: 0
         splits:
            - { var:0, quality:1.2500000000000000e+01,
                le:-9.9352848529815674e-01 }
      -
         depth: 9
         value: 20.
         norm_class_idx: 6
         splits:
            - { var:0, quality:4., le:-1.1129608154296875e+00 }
      -
         depth: 10
         value: 10.
         norm_class_idx: 5
      -
         depth: 10
         value: 20.
         norm_class_idx: 6
      -
         depth: 9
         value: 1.
         norm_class_idx: 0
      -
         depth: 5
         value: 1.
         norm_class_idx: 0
         splits:
            - { var:0, quality:8.0051002502441406e+01,
                le:-9.9352860450744629e-01 }
      -
         depth: 6
         value: 10.
         norm_class_idx: 5
         splits:
            - { var:1, quality:2.1666666030883789e+01,
                le:-8.7875008583068848e-01 }
      -
         depth: 7
         value: 10.
         norm_class_idx: 5
      -
         depth: 7
         value: 20.
         norm_class_idx: 6
         splits:
            - { var:2, quality:3., le:-1.1250491142272949e+00 }
      -
         depth: 8
         value: 20.
         norm_class_idx: 6
      -
         depth: 8
         value: 1.
         norm_class_idx: 0
      -
         depth: 6
         value: 1.
         norm_class_idx: 0
         splits:
            - { var:0, quality:6.9895240783691406e+01,
                le:-6.6554939746856689e-01 }
      -
         depth: 7
         value: 1.
         norm_class_idx: 0
         splits:
            - { var:4, quality:6.4217506408691406e+01,
                le:7.2510755062103271e-01 }
      -
         depth: 8
         value: 1.
         norm_class_idx: 0
         splits:
            - { var:2, quality:5.2290000915527344e+01,
                le:-8.8345021009445190e-01 }
      -
         depth: 9
         value: 1.
         norm_class_idx: 0
         splits:
            - { var:0, quality:4.8666667938232422e+01,
                le:-7.3077774047851562e-01 }
      -
         depth: 10
         value: 1.
         norm_class_idx: 0
      -
         depth: 10
         value: 1.
         norm_class_idx: 0
      -
         depth: 9
         value: 1.
         norm_class_idx: 0
         splits:
            - { var:6, quality:8., le:-7.9687488079071045e-01 }
      -
         depth: 10
         value: 20.
         norm_class_idx: 6
      -
         depth: 10
         value: 1.
         norm_class_idx: 0
      -
         depth: 8
         value: 1.
         norm_class_idx: 0
         splits:
            - { var:3, quality:1.8909090042114258e+01,
                le:1.2103637456893921e+00 }
      -
         depth: 9
         value: 20.
         norm_class_idx: 6
         splits:
            - { var:1, quality:8., le:-8.2326108217239380e-01 }
      -
         depth: 10
         value: 1.
         norm_class_idx: 0
      -
         depth: 10
         value: 20.
         norm_class_idx: 6
      -
         depth: 9
         value: 1.
         norm_class_idx: 0
      -
         depth: 7
         value: 2.
         norm_class_idx: 1
         splits:
            - { var:4, quality:1.4909090995788574e+01,
                le:7.1722495555877686e-01 }
      -
         depth: 8
         value: 2.
         norm_class_idx: 1
      -
         depth: 8
         value: 1.
         norm_class_idx: 0
         splits:
            - { var:1, quality:11., le:-5.1970368623733521e-01 }
      -
         depth: 9
         value: 1.
         norm_class_idx: 0
      -
         depth: 9
         value: 20.
         norm_class_idx: 6
      -
         depth: 4
         value: 20.
         norm_class_idx: 6
         splits:
            - { var:5, quality:2.5027957916259766e+01,
                le:-2.6956534385681152e-01 }
      -
         depth: 5
         value: 2.
         norm_class_idx: 1
         splits:
            - { var:5, quality:7., le:-3.2320594787597656e-01 }
      -
         depth: 6
         value: 20.
         norm_class_idx: 6
         splits:
            - { var:4, quality:5., le:5.8617913722991943e-01 }
      -
         depth: 7
         value: 2.
         norm_class_idx: 1
         splits:
            - { var:2, quality:4., le:-8.3017182350158691e-01 }
      -
         depth: 8
         value: 4.
         norm_class_idx: 3
      -
         depth: 8
         value: 2.
         norm_class_idx: 1
      -
         depth: 7
         value: 20.
         norm_class_idx: 6
         splits:
            - { var:2, quality:4.5000000000000000e+00,
                le:-9.9369943141937256e-01 }
      -
         depth: 8
         value: 1.
         norm_class_idx: 0
         splits:
            - { var:0, quality:3., le:-7.9692488908767700e-01 }
      -
         depth: 9
         value: 2.
         norm_class_idx: 1
         splits:
            - { var:0, quality:2., le:-1.0155775547027588e+00 }
      -
         depth: 10
         value: 2.
         norm_class_idx: 1
      -
         depth: 10
         value: 20.
         norm_class_idx: 6
      -
         depth: 9
         value: 1.
         norm_class_idx: 0
      -
         depth: 8
         value: 20.
         norm_class_idx: 6
      -
         depth: 6
         value: 2.
         norm_class_idx: 1
      -
         depth: 5
         value: 20.
         norm_class_idx: 6
         splits:
            - { var:0, quality:2.4538461685180664e+01,
                le:-6.6279339790344238e-01 }
      -
         depth: 6
         value: 20.
         norm_class_idx: 6
      -
         depth: 6
         value: 1.
         norm_class_idx: 0
         splits:
            - { var:1, quality:13., le:-3.6547684669494629e-01 }
      -
         depth: 7
         value: 1.
         norm_class_idx: 0
      -
         depth: 7
         value: 20.
         norm_class_idx: 6
      -
         depth: 1
         value: 3.
         norm_class_idx: 2
         splits:
            - { var:4, quality:2.2163869628906250e+03,
                le:9.0677395928651094e-04 }
      -
         depth: 2
         value: 3.
         norm_class_idx: 2
         splits:
            - { var:0, quality:1.9932834472656250e+03,
                le:6.7576575279235840e-01 }
      -
         depth: 3
         value: 3.
         norm_class_idx: 2
         splits:
            - { var:2, quality:1.7513887939453125e+03,
                le:-2.5835260748863220e-01 }
      -
         depth: 4
         value: 3.
         norm_class_idx: 2
         splits:
            - { var:4, quality:1.0352203369140625e+02,
                le:-6.0505712032318115e-01 }
      -
         depth: 5
         value: 2.
         norm_class_idx: 1
         splits:
            - { var:0, quality:8.1075492858886719e+01,
                le:-5.3968620300292969e-01 }
      -
         depth: 6
         value: 4.
         norm_class_idx: 3
         splits:
            - { var:5, quality:3.6055557250976562e+01,
                le:-5.0340032577514648e-01 }
      -
         depth: 7
         value: 3.
         norm_class_idx: 2
         splits:
            - { var:0, quality:4., le:-6.4901268482208252e-01 }
      -
         depth: 8
         value: 3.
         norm_class_idx: 2
      -
         depth: 8
         value: 5.
         norm_class_idx: 4
      -
         depth: 7
         value: 4.
         norm_class_idx: 3
         splits:
            - { var:5, quality:36., le:-1.2695164978504181e-01 }
      -
         depth: 8
         value: 4.
         norm_class_idx: 3
      -
         depth: 8
         value: 2.
         norm_class_idx: 1
      -
         depth: 6
         value: 2.
         norm_class_idx: 1
         splits:
            - { var:5, quality:7.0023200988769531e+01,
                le:-3.2384845614433289e-01 }
      -
         depth: 7
         value: 5.
         norm_class_idx: 4
         splits:
            - { var:6, quality:4.6038459777832031e+01,
                le:4.6802160143852234e-01 }
      -
         depth: 8
         value: 5.
         norm_class_idx: 4
         splits:
            - { var:0, quality:3.3863636016845703e+01,
                le:-2.6499241590499878e-01 }
      -
         depth: 9
         value: 5.
         norm_class_idx: 4
         splits:
            - { var:2, quality:3.3280700683593750e+01,
                le:-4.4087058305740356e-01 }
      -
         depth: 10
         value: 2.
         norm_class_idx: 1
      -
         depth: 10
         value: 5.
         norm_class_idx: 4
      -
         depth: 9
         value: 3.
         norm_class_idx: 2
      -
         depth: 8
         value: 3.
         norm_class_idx: 2
         splits:
            - { var:0, quality:26., le:-2.6407369971275330e-01 }
      -
         depth: 9
         value: 3.
         norm_class_idx: 2
      -
         depth: 9
         value: 5.
         norm_class_idx: 4
      -
         depth: 7
         value: 2.
         norm_class_idx: 1
         splits:
            - { var:4, quality:5.9078018188476562e+01,
                le:-1.4563624858856201e+00 }
      -
         depth: 8
         value: 1.
         norm_class_idx: 0
         splits:
            - { var:0, quality:2.2500000000000000e+01,
                le:-2.4845564365386963e-01 }
      -
         depth: 9
         value: 5.
         norm_class_idx: 4
         splits:
            - { var:0, quality:3., le:-3.9636769890785217e-01 }
      -
         depth: 10
         value: 2.
         norm_class_idx: 1
      -
         depth: 10
         value: 5.
         norm_class_idx: 4
      -
         depth: 9
         value: 1.
         norm_class_idx: 0
      -
         depth: 8
         value: 2.
         norm_class_idx: 1
         splits:
            - { var:3, quality:5.1779762268066406e+01,
                le:-1.2645981311798096e+00 }
      -
         depth: 9
         value: 2.
         norm_class_idx: 1
         splits:
            - { var:4, quality:5.4470085144042969e+01,
                le:-1.3400961160659790e+00 }
      -
         depth: 10
         value: 5.
         norm_class_idx: 4
      -
         depth: 10
         value: 2.
         norm_class_idx: 1
      -
         depth: 9
         value: 20.
         norm_class_idx: 6
         splits:
            - { var:6, quality:9.8750000000000000e+00,
                le:7.4003529548645020e-01 }
      -
         depth: 10
         value: 20.
         norm_class_idx: 6
      -
         depth: 10
         value: 5.
         norm_class_idx: 4
      -
         depth: 5
         value: 3.
         norm_class_idx: 2
         splits:
            - { var:6, quality:6.8135803222656250e+01,
                le:-7.1553421020507812e-01 }
      -
         depth: 6
         value: 2.
         norm_class_idx: 1
      -
         depth: 6
         value: 3.
         norm_class_idx: 2
         splits:
            - { var:0, quality:6.1968421936035156e+01,
                le:-1.9425171613693237e-01 }
      -
         depth: 7
         value: 3.
         norm_class_idx: 2
         splits:
            - { var:2, quality:6.2823528289794922e+01,
                le:-5.5903244018554688e-01 }
      -
         depth: 8
         value: 1.
         norm_class_idx: 0
         splits:
            - { var:0, quality:4., le:-6.1685794591903687e-01 }
      -
         depth: 9
         value: 1.
         norm_class_idx: 0
         splits:
            - { var:6, quality:3., le:-4.1618749499320984e-01 }
      -
         depth: 10
         value: 2.
         norm_class_idx: 1
      -
         depth: 10
         value: 1.
         norm_class_idx: 0
      -
         depth: 9
         value: 3.
         norm_class_idx: 2
         splits:
            - { var:0, quality:4., le:-2.8612264990806580e-01 }
      -
         depth: 10
         value: 3.
         norm_class_idx: 2
      -
         depth: 10
         value: 1.
         norm_class_idx: 0
      -
         depth: 8
         value: 3.
         norm_class_idx: 2
         splits:
            - { var:3, quality:6.2208953857421875e+01,
                le:-8.2988810539245605e-01 }
      -
         depth: 9
         value: 20.
         norm_class_idx: 6
      -
         depth: 9
         value: 3.
         norm_class_idx: 2
         splits:
            - { var:0, quality:6.2555557250976562e+01,
                le:-3.1000909209251404e-01 }
      -
         depth: 10
         value: 3.
         norm_class_idx: 2
      -
         depth: 10
         value: 3.
         norm_class_idx: 2
      -
         depth: 7
         value: 2.
         norm_class_idx: 1
         splits:
            - { var:0, quality:5., le:-3.6233697086572647e-02 }
      -
         depth: 8
         value: 4.
         norm_class_idx: 3
      -
         depth: 8
         value: 2.
         norm_class_idx: 1
      -
         depth: 4
         value: 3.
         norm_class_idx: 2
         splits:
            - { var:4, quality:1.7453995361328125e+03,
                le:-5.4643142223358154e-01 }
      -
         depth: 5
         value: 3.
         norm_class_idx: 2
         splits:
            - { var:0, quality:1.3493937988281250e+03,
                le:5.0856065750122070e-01 }
      -
         depth: 6
         value: 3.
         norm_class_idx: 2
         splits:
            - { var:0, quality:1.2873614501953125e+03,
                le:1.4331883285194635e-03 }
      -
         depth: 7
         value: 3.
         norm_class_idx: 2
         splits:
            - { var:6, quality:3.1468356323242188e+02,
                le:5.5759525299072266e-01 }
      -
         depth: 8
         value: 3.
         norm_class_idx: 2
         splits:
            - { var:4, quality:2.3205062866210938e+02,
                le:-9.9770206212997437e-01 }
      -
         depth: 9
         value: 3.
         norm_class_idx: 2
         splits:
            - { var:4, quality:2.0536265563964844e+02,
                le:-1.5273046493530273e+00 }
      -
         depth: 10
         value: 5.
         norm_class_idx: 4
      -
         depth: 10
         value: 3.
         norm_class_idx: 2
      -
         depth: 9
         value: 3.
         norm_class_idx: 2
         splits:
            - { var:5, quality:4.5459865570068359e+01,
                le:-1.7100801691412926e-02 }
      -
         depth: 10
         value: 3.
         norm_class_idx: 2
      -
         depth: 10
         value: 1.
         norm_class_idx: 0
      -
         depth: 8
         value: 3.
         norm_class_idx: 2
         splits:
            - { var:5, quality:1.1496250152587891e+02,
                le:5.5206871032714844e-01 }
      -
         depth: 9
         value: 3.
         norm_class_idx: 2
         splits:
            - { var:4, quality:1.1503793334960938e+02,
                le:-8.5433989763259888e-01 }
      -
         depth: 10
         value: 3.
         norm_class_idx: 2
      -
         depth: 10
         value: 1.
         norm_class_idx: 0
      -
         depth: 9
         value: 2.
         norm_class_idx: 1
         splits:
            - { var:5, quality:2.8275861740112305e+01,
                le:7.2134202718734741e-01 }
      -
         depth: 10
         value: 2.
         norm_class_idx: 1
      -
         depth: 10
         value: 3.
         norm_class_idx: 2
      -
         depth: 7
         value: 3.
         norm_class_idx: 2
         splits:
            - { var:5, quality:1.0690454101562500e+03,
                le:-9.6758842468261719e-02 }
      -
         depth: 8
         value: 5.
         norm_class_idx: 4
         splits:
            - { var:6, quality:5.1125000000000000e+01,
                le:6.4914453029632568e-01 }
      -
         depth: 9
         value: 5.
         norm_class_idx: 4
         splits:
            - { var:5, quality:3.9294116973876953e+01,
                le:-3.7138634920120239e-01 }
      -
         depth: 10
         value: 5.
         norm_class_idx: 4
      -
         depth: 10
         value: 3.
         norm_class_idx: 2
      -
         depth: 9
         value: 5.
         norm_class_idx: 4
      -
         depth: 8
         value: 3.
         norm_class_idx: 2
         splits:
            - { var:6, quality:1.0641392822265625e+03,
                le:1.2112841606140137e+00 }
      -
         depth: 9
         value: 3.
         norm_class_idx: 2
         splits:
            - { var:4, quality:1.0526372070312500e+03,
                le:-8.3266323804855347e-01 }
      -
         depth: 10
         value: 3.
         norm_class_idx: 2
      -
         depth: 10
         value: 3.
         norm_class_idx: 2
      -
         depth: 9
         value: 1.
         norm_class_idx: 0
      -
         depth: 6
         value: 3.
         norm_class_idx: 2
         splits:
            - { var:5, quality:1.2881495666503906e+02,
                le:7.0656681060791016e-01 }
      -
         depth: 7
         value: 3.
         norm_class_idx: 2
         splits:
            - { var:1, quality:8.6516304016113281e+01,
                le:4.0892112255096436e-01 }
      -
         depth: 8
         value: 3.
         norm_class_idx: 2
         splits:
            - { var:6, quality:7.9854164123535156e+01,
                le:6.8997961282730103e-01 }
      -
         depth: 9
         value: 3.
         norm_class_idx: 2
         splits:
            - { var:2, quality:6.0700000762939453e+01,
                le:3.5250240564346313e-01 }
      -
         depth: 10
         value: 3.
         norm_class_idx: 2
      -
         depth: 10
         value: 3.
         norm_class_idx: 2
      -
         depth: 9
         value: 3.
         norm_class_idx: 2
      -
         depth: 8
         value: 3.
         norm_class_idx: 2
         splits:
            - { var:6, quality:1.3466666221618652e+01,
                le:7.4003529548645020e-01 }
      -
         depth: 9
         value: 1.
         norm_class_idx: 0
         splits:
            - { var:5, quality:9.5555553436279297e+00,
                le:4.1523671150207520e-01 }
      -
         depth: 10
         value: 3.
         norm_class_idx: 2
      -
         depth: 10
         value: 1.
         norm_class_idx: 0
      -
         depth: 9
         value: 3.
         norm_class_idx: 2
         splits:
            - { var:0, quality:10., le:5.5174005031585693e-01 }
      -
         depth: 10
         value: 5.
         norm_class_idx: 4
      -
         depth: 10
         value: 3.
         norm_class_idx: 2
      -
         depth: 7
         value: 2.
         norm_class_idx: 1
         splits:
            - { var:3, quality:6.0187500000000000e+01,
                le:-7.0753282308578491e-01 }
      -
         depth: 8
         value: 2.
         norm_class_idx: 1
         splits:
            - { var:4, quality:4.9769695281982422e+01,
                le:-6.5924906730651855e-01 }
      -
         depth: 9
         value: 2.
         norm_class_idx: 1
         splits:
            - { var:6, quality:5.1150943756103516e+01,
                le:6.6231715679168701e-01 }
      -
         depth: 10
         value: 3.
         norm_class_idx: 2
      -
         depth: 10
         value: 2.
         norm_class_idx: 1
      -
         depth: 9
         value: 1.
         norm_class_idx: 0
         splits:
            - { var:0, quality:4.6666665077209473e+00,
                le:6.1604952812194824e-01 }
      -
         depth: 10
         value: 3.
         norm_class_idx: 2
      -
         depth: 10
         value: 1.
         norm_class_idx: 0
      -
         depth: 8
         value: 3.
         norm_class_idx: 2
         splits:
            - { var:6, quality:2.0105262756347656e+01,
                le:7.1072638034820557e-01 }
      -
         depth: 9
         value: 3.
         norm_class_idx: 2
      -
         depth: 9
         value: 2.
         norm_class_idx: 1
         splits:
            - { var:1, quality:1.1833333015441895e+01,
                le:2.7672684192657471e-01 }
      -
         depth: 10
         value: 2.
         norm_class_idx: 1
      -
         depth: 10
         value: 3.
         norm_class_idx: 2
      -
         depth: 5
         value: 3.
         norm_class_idx: 2
         splits:
            - { var:6, quality:4.7429504394531250e+02,
                le:5.7142639160156250e-01 }
      -
         depth: 6
         value: 3.
         norm_class_idx: 2
         splits:
            - { var:5, quality:1.6663015747070312e+02,
                le:4.8424508422613144e-02 }
      -
         depth: 7
         value: 3.
         norm_class_idx: 2
         splits:
            - { var:6, quality:1.0619287872314453e+02,
                le:-1.6689646244049072e-01 }
      -
         depth: 8
         value: 2.
         norm_class_idx: 1
         splits:
            - { var:3, quality:1.2766666412353516e+01,
                le:-2.2606921195983887e-01 }
      -
         depth: 9
         value: 3.
         norm_class_idx: 2
         splits:
            - { var:0, quality:5., le:-6.2876433134078979e-02 }
      -
         depth: 10
         value: 3.
         norm_class_idx: 2
      -
         depth: 10
         value: 5.
         norm_class_idx: 4
      -
         depth: 9
         value: 2.
         norm_class_idx: 1
         splits:
            - { var:3, quality:12., le:4.4240942597389221e-01 }
      -
         depth: 10
         value: 2.
         norm_class_idx: 1
      -
         depth: 10
         value: 20.
         norm_class_idx: 6
      -
         depth: 8
         value: 3.
         norm_class_idx: 2
         splits:
            - { var:6, quality:1.0170848846435547e+02,
                le:2.4474650621414185e-01 }
      -
         depth: 9
         value: 3.
         norm_class_idx: 2
         splits:
            - { var:4, quality:7.0568763732910156e+01,
                le:-4.4051080942153931e-01 }
      -
         depth: 10
         value: 2.
         norm_class_idx: 1
      -
         depth: 10
         value: 3.
         norm_class_idx: 2
      -
         depth: 9
         value: 3.
         norm_class_idx: 2
         splits:
            - { var:4, quality:4.2740383148193359e+01,
                le:-3.5281842947006226e-01 }
      -
         depth: 10
         value: 3.
         norm_class_idx: 2
      -
         depth: 10
         value: 4.
         norm_class_idx: 3
      -
         depth: 7
         value: 2.
         norm_class_idx: 1
         splits:
            - { var:4, quality:8.8278251647949219e+01,
                le:-1.6659533977508545e-01 }
      -
         depth: 8
         value: 2.
         norm_class_idx: 1
         splits:
            - { var:5, quality:9.1966964721679688e+01,
                le:3.2658505439758301e-01 }
      -
         depth: 9
         value: 2.
         norm_class_idx: 1
         splits:
            - { var:6, quality:4.6285858154296875e+01,
                le:3.5012710094451904e-01 }
      -
         depth: 10
         value: 2.
         norm_class_idx: 1
      -
         depth: 10
         value: 20.
         norm_class_idx: 6
      -
         depth: 9
         value: 2.
         norm_class_idx: 1
         splits:
            - { var:6, quality:6.9054260253906250e+01,
                le:4.3206132948398590e-02 }
      -
         depth: 10
         value: 3.
         norm_class_idx: 2
      -
         depth: 10
         value: 2.
         norm_class_idx: 1
      -
         depth: 8
         value: 4.
         norm_class_idx: 3
         splits:
            - { var:6, quality:2.2720647811889648e+01,
                le:2.7767789363861084e-01 }
      -
         depth: 9
         value: 3.
         norm_class_idx: 2
         splits:
            - { var:0, quality:8.5555553436279297e+00,
                le:-1.6022168099880219e-02 }
      -
         depth: 10
         value: 3.
         norm_class_idx: 2
      -
         depth: 10
         value: 20.
         norm_class_idx: 6
      -
         depth: 9
         value: 4.
         norm_class_idx: 3
         splits:
            - { var:0, quality:19., le:2.6238474994897842e-02 }
      -
         depth: 10
         value: 3.
         norm_class_idx: 2
      -
         depth: 10
         value: 4.
         norm_class_idx: 3
      -
         depth: 6
         value: 3.
         norm_class_idx: 2
         splits:
            - { var:6, quality:3.9749649047851562e+02,
                le:8.7373685836791992e-01 }
      -
         depth: 7
         value: 3.
         norm_class_idx: 2
         splits:
            - { var:1, quality:2.8410498046875000e+02,
                le:6.7004591226577759e-01 }
      -
         depth: 8
         value: 3.
         norm_class_idx: 2
         splits:
            - { var:5, quality:2.7599169921875000e+02,
                le:8.4468364715576172e-01 }
      -
         depth: 9
         value: 3.
         norm_class_idx: 2
         splits:
            - { var:2, quality:2.4946363830566406e+02,
                le:2.4489057064056396e-01 }
      -
         depth: 10
         value: 1.
         norm_class_idx: 0
      -
         depth: 10
         value: 3.
         norm_class_idx: 2
      -
         depth: 9
         value: 3.
         norm_class_idx: 2
         splits:
            - { var:4, quality:4.5871795654296875e+01,
                le:-3.7597316503524780e-01 }
      -
         depth: 10
         value: 5.
         norm_class_idx: 4
      -
         depth: 10
         value: 3.
         norm_class_idx: 2
      -
         depth: 8
         value: 5.
         norm_class_idx: 4
         splits:
            - { var:4, quality:21., le:-2.5696821510791779e-02 }
      -
         depth: 9
         value: 5.
         norm_class_idx: 4
      -
         depth: 9
         value: 3.
         norm_class_idx: 2
      -
         depth: 7
         value: 3.
         norm_class_idx: 2
         splits:
            - { var:6, quality:1.6492166137695312e+02,
                le:1.2014046907424927e+00 }
      -
         depth: 8
         value: 3.
         norm_class_idx: 2
         splits:
            - { var:2, quality:1.1573207092285156e+02,
                le:5.1708501577377319e-01 }
      -
         depth: 9
         value: 3.
         norm_class_idx: 2
         splits:
            - { var:5, quality:8.5607040405273438e+01,
                le:6.7219823598861694e-01 }
      -
         depth: 10
         value: 4.
         norm_class_idx: 3
      -
         depth: 10
         value: 3.
         norm_class_idx: 2
      -
         depth: 9
         value: 5.
         norm_class_idx: 4
         splits:
            - { var:5, quality:6.8455558776855469e+01,
                le:3.8825589418411255e-01 }
      -
         depth: 10
         value: 3.
         norm_class_idx: 2
      -
         depth: 10
         value: 5.
         norm_class_idx: 4
      -
         depth: 8
         value: 3.
         norm_class_idx: 2
         splits:
            - { var:6, quality:8.1603775024414062e+01,
                le:1.4154591560363770e+00 }
      -
         depth: 9
         value: 3.
         norm_class_idx: 2
         splits:
            - { var:4, quality:7.8071708679199219e+01,
                le:-3.1045040488243103e-01 }
      -
         depth: 10
         value: 3.
         norm_class_idx: 2
      -
         depth: 10
         value: 3.
         norm_class_idx: 2
      -
         depth: 9
         value: 5.
         norm_class_idx: 4
      -
         depth: 3
         value: 3.
         norm_class_idx: 2
         splits:
            - { var:0, quality:3.4514706420898438e+02,
                le:1.0662169456481934e+00 }
      -
         depth: 4
         value: 3.
         norm_class_idx: 2
         splits:
            - { var:3, quality:3.0264071655273438e+02,
                le:-4.7276943922042847e-01 }
      -
         depth: 5
         value: 1.
         norm_class_idx: 0
         splits:
            - { var:5, quality:1.1896617126464844e+02,
                le:8.7905222177505493e-01 }
      -
         depth: 6
         value: 1.
         norm_class_idx: 0
         splits:
            - { var:5, quality:8.7980072021484375e+01,
                le:7.2198438644409180e-01 }
      -
         depth: 7
         value: 1.
         norm_class_idx: 0
         splits:
            - { var:6, quality:6.6099998474121094e+01,
                le:7.4859750270843506e-01 }
      -
         depth: 8
         value: 1.
         norm_class_idx: 0
         splits:
            - { var:5, quality:6.1869792938232422e+01,
                le:4.3001216650009155e-01 }
      -
         depth: 9
         value: 3.
         norm_class_idx: 2
         splits:
            - { var:1, quality:12., le:3.7301647663116455e-01 }
      -
         depth: 10
         value: 1.
         norm_class_idx: 0
      -
         depth: 10
         value: 3.
         norm_class_idx: 2
      -
         depth: 9
         value: 1.
         norm_class_idx: 0
         splits:
            - { var:3, quality:5.9139343261718750e+01,
                le:-5.2449691295623779e-01 }
      -
         depth: 10
         value: 1.
         norm_class_idx: 0
      -
         depth: 10
         value: 1.
         norm_class_idx: 0
      -
         depth: 8
         value: 3.
         norm_class_idx: 2
      -
         depth: 7
         value: 5.
         norm_class_idx: 4
         splits:
            - { var:3, quality:5.5687728881835938e+01,
                le:-6.5680015087127686e-01 }
      -
         depth: 8
         value: 1.
         norm_class_idx: 0
         splits:
            - { var:6, quality:3.2193550109863281e+01,
                le:7.2521620988845825e-01 }
      -
         depth: 9
         value: 2.
         norm_class_idx: 1
         splits:
            - { var:5, quality:7.4000000953674316e+00,
                le:7.8108572959899902e-01 }
      -
         depth: 10
         value: 1.
         norm_class_idx: 0
      -
         depth: 10
         value: 2.
         norm_class_idx: 1
      -
         depth: 9
         value: 1.
         norm_class_idx: 0
         splits:
            - { var:6, quality:2.7857143402099609e+01,
                le:8.0589830875396729e-01 }
      -
         depth: 10
         value: 1.
         norm_class_idx: 0
      -
         depth: 10
         value: 1.
         norm_class_idx: 0
      -
         depth: 8
         value: 5.
         norm_class_idx: 4
         splits:
            - { var:0, quality:4.3485321044921875e+01,
                le:8.4297060966491699e-01 }
      -
         depth: 9
         value: 3.
         norm_class_idx: 2
         splits:
            - { var:2, quality:2.2471111297607422e+01,
                le:5.2446997165679932e-01 }
      -
         depth: 10
         value: 3.
         norm_class_idx: 2
      -
         depth: 10
         value: 3.
         norm_class_idx: 2
      -
         depth: 9
         value: 5.
         norm_class_idx: 4
         splits:
            - { var:1, quality:3.8401214599609375e+01,
                le:6.2598109245300293e-01 }
      -
         depth: 10
         value: 5.
         norm_class_idx: 4
      -
         depth: 10
         value: 3.
         norm_class_idx: 2
      -
         depth: 6
         value: 2.
         norm_class_idx: 1
         splits:
            - { var:5, quality:5.0857143402099609e+01,
                le:1.0653491020202637e+00 }
      -
         depth: 7
         value: 2.
         norm_class_idx: 1
         splits:
            - { var:6, quality:4.8144145965576172e+01,
                le:9.2972040176391602e-01 }
      -
         depth: 8
         value: 2.
         norm_class_idx: 1
         splits:
            - { var:4, quality:4.2581817626953125e+01,
                le:-5.8633637428283691e-01 }
      -
         depth: 9
         value: 2.
         norm_class_idx: 1
      -
         depth: 9
         value: 2.
         norm_class_idx: 1
         splits:
            - { var:2, quality:2.7711111068725586e+01,
                le:5.8038604259490967e-01 }
      -
         depth: 10
         value: 2.
         norm_class_idx: 1
      -
         depth: 10
         value: 2.
         norm_class_idx: 1
      -
         depth: 8
         value: 3.
         norm_class_idx: 2
         splits:
            - { var:0, quality:1.8933332443237305e+01,
                le:8.4756422042846680e-01 }
      -
         depth: 9
         value: 3.
         norm_class_idx: 2
         splits:
            - { var:1, quality:1.1571428298950195e+01,
                le:5.2969133853912354e-01 }
      -
         depth: 10
         value: 3.
         norm_class_idx: 2
      -
         depth: 10
         value: 2.
         norm_class_idx: 1
      -
         depth: 9
         value: 2.
         norm_class_idx: 1
      -
         depth: 7
         value: 4.
         norm_class_idx: 3
      -
         depth: 5
         value: 3.
         norm_class_idx: 2
         splits:
            - { var:6, quality:2.4496484375000000e+02,
                le:1.3423513174057007e+00 }
      -
         depth: 6
         value: 3.
         norm_class_idx: 2
         splits:
            - { var:5, quality:2.3500590515136719e+02,
                le:6.6063499450683594e-01 }
      -
         depth: 7
         value: 5.
         norm_class_idx: 4
         splits:
            - { var:4, quality:2.8334640502929688e+01,
                le:-2.8089100122451782e-01 }
      -
         depth: 8
         value: 1.
         norm_class_idx: 0
         splits:
            - { var:6, quality:9.9428567886352539e+00,
                le:6.4321684837341309e-01 }
      -
         depth: 9
         value: 1.
         norm_class_idx: 0
         splits:
            - { var:0, quality:8.5000000000000000e+00,
                le:8.1265330314636230e-01 }
      -
         depth: 10
         value: 4.
         norm_class_idx: 3
      -
         depth: 10
         value: 1.
         norm_class_idx: 0
      -
         depth: 9
         value: 3.
         norm_class_idx: 2
         splits:
            - { var:0, quality:7., le:8.5123902559280396e-01 }
      -
         depth: 10
         value: 4.
         norm_class_idx: 3
      -
         depth: 10
         value: 3.
         norm_class_idx: 2
      -
         depth: 8
         value: 5.
         norm_class_idx: 4
         splits:
            - { var:6, quality:2.8450592041015625e+01,
                le:8.7999391555786133e-01 }
      -
         depth: 9
         value: 5.
         norm_class_idx: 4
         splits:
            - { var:0, quality:23., le:6.9505858421325684e-01 }
      -
         depth: 10
         value: 3.
         norm_class_idx: 2
      -
         depth: 10
         value: 5.
         norm_class_idx: 4
      -
         depth: 9
         value: 5.
         norm_class_idx: 4
         splits:
            - { var:5, quality:1.4533333778381348e+01,
                le:5.3408157825469971e-01 }
      -
         depth: 10
         value: 3.
         norm_class_idx: 2
      -
         depth: 10
         value: 5.
         norm_class_idx: 4
      -
         depth: 7
         value: 3.
         norm_class_idx: 2
         splits:
            - { var:5, quality:2.3593797302246094e+02,
                le:1.3483278751373291e+00 }
      -
         depth: 8
         value: 3.
         norm_class_idx: 2
         splits:
            - { var:0, quality:2.2941236877441406e+02,
                le:9.4862234592437744e-01 }
      -
         depth: 9
         value: 3.
         norm_class_idx: 2
         splits:
            - { var:2, quality:2.0500573730468750e+02,
                le:8.2831501960754395e-01 }
      -
         depth: 10
         value: 3.
         norm_class_idx: 2
      -
         depth: 10
         value: 1.
         norm_class_idx: 0
      -
         depth: 9
         value: 3.
         norm_class_idx: 2
         splits:
            - { var:5, quality:5.7943820953369141e+01,
                le:1.0113872289657593e+00 }
      -
         depth: 10
         value: 3.
         norm_class_idx: 2
      -
         depth: 10
         value: 2.
         norm_class_idx: 1
      -
         depth: 8
         value: 4.
         norm_class_idx: 3
         splits:
            - { var:2, quality:25., le:6.5951228141784668e-01 }
      -
         depth: 9
         value: 3.
         norm_class_idx: 2
      -
         depth: 9
         value: 4.
         norm_class_idx: 3
      -
         depth: 6
         value: 5.
         norm_class_idx: 4
         splits:
            - { var:5, quality:34., le:6.4264762401580811e-01 }
      -
         depth: 7
         value: 3.
         norm_class_idx: 2
      -
         depth: 7
         value: 5.
         norm_class_idx: 4
      -
         depth: 4
         value: 2.
         norm_class_idx: 1
         splits:
            - { var:5, quality:1.3816035461425781e+02,
                le:7.5217753648757935e-01 }
      -
         depth: 5
         value: 1.
         norm_class_idx: 0
         splits:
            - { var:6, quality:3.4658824920654297e+01,
                le:7.3937672376632690e-01 }
      -
         depth: 6
         value: 1.
         norm_class_idx: 0
         splits:
            - { var:0, quality:34., le:1.3767406940460205e+00 }
      -
         depth: 7
         value: 1.
         norm_class_idx: 0
      -
         depth: 7
         value: 2.
         norm_class_idx: 1
      -
         depth: 6
         value: 3.
         norm_class_idx: 2
         splits:
            - { var:1, quality:5., le:1.0046120882034302e+00 }
      -
         depth: 7
         value: 3.
         norm_class_idx: 2
      -
         depth: 7
         value: 5.
         norm_class_idx: 4
      -
         depth: 5
         value: 2.
         norm_class_idx: 1
         splits:
            - { var:5, quality:1.1836900329589844e+02,
                le:9.6995210647583008e-01 }
      -
         depth: 6
         value: 2.
         norm_class_idx: 1
         splits:
            - { var:6, quality:5.6641723632812500e+01,
                le:7.3344910144805908e-01 }
      -
         depth: 7
         value: 2.
         norm_class_idx: 1
         splits:
            - { var:1, quality:4.3375000000000000e+01,
                le:7.8102409839630127e-01 }
      -
         depth: 8
         value: 3.
         norm_class_idx: 2
      -
         depth: 8
         value: 2.
         norm_class_idx: 1
         splits:
            - { var:5, quality:4.4250000000000000e+01,
                le:7.8847324848175049e-01 }
      -
         depth: 9
         value: 2.
         norm_class_idx: 1
         splits:
            - { var:0, quality:8., le:1.2168852090835571e+00 }
      -
         depth: 10
         value: 1.
         norm_class_idx: 0
      -
         depth: 10
         value: 2.
         norm_class_idx: 1
      -
         depth: 9
         value: 2.
         norm_class_idx: 1
      -
         depth: 7
         value: 3.
         norm_class_idx: 2
         splits:
            - { var:5, quality:2.1466667175292969e+01,
                le:9.2883837223052979e-01 }
      -
         depth: 8
         value: 3.
         norm_class_idx: 2
         splits:
            - { var:1, quality:2.1022727966308594e+01,
                le:8.1366455554962158e-01 }
      -
         depth: 9
         value: 1.
         norm_class_idx: 0
         splits:
            - { var:6, quality:5.5000000000000000e+00,
                le:7.7988243103027344e-01 }
      -
         depth: 10
         value: 3.
         norm_class_idx: 2
      -
         depth: 10
         value: 1.
         norm_class_idx: 0
      -
         depth: 9
         value: 3.
         norm_class_idx: 2
         splits:
            - { var:1, quality:2.0095237731933594e+01,
                le:9.7033953666687012e-01 }
      -
         depth: 10
         value: 3.
         norm_class_idx: 2
      -
         depth: 10
         value: 2.
         norm_class_idx: 1
      -
         depth: 8
         value: 4.
         norm_class_idx: 3
         splits:
            - { var:1, quality:6., le:8.8384175300598145e-01 }
      -
         depth: 9
         value: 4.
         norm_class_idx: 3
      -
         depth: 9
         value: 2.
         norm_class_idx: 1
      -
         depth: 6
         value: 2.
         norm_class_idx: 1
         splits:
            - { var:0, quality:8.5766990661621094e+01,
                le:1.4630992412567139e+00 }
      -
         depth: 7
         value: 2.
         norm_class_idx: 1
         splits:
            - { var:6, quality:8.6370368957519531e+01,
                le:8.6023491621017456e-01 }
      -
         depth: 8
         value: 2.
         norm_class_idx: 1
      -
         depth: 8
         value: 2.
         norm_class_idx: 1
         splits:
            - { var:5, quality:5.0245452880859375e+01,
                le:1.0733791589736938e+00 }
      -
         depth: 9
         value: 4.
         norm_class_idx: 3
         splits:
            - { var:0, quality:10., le:1.2977317571640015e+00 }
      -
         depth: 10
         value: 4.
         norm_class_idx: 3
      -
         depth: 10
         value: 2.
         norm_class_idx: 1
      -
         depth: 9
         value: 2.
         norm_class_idx: 1
         splits:
            - { var:0, quality:43., le:1.3014065027236938e+00 }
      -
         depth: 10
         value: 2.
         norm_class_idx: 1
      -
         depth: 10
         value: 2.
         norm_class_idx: 1
      -
         depth: 7
         value: 3.
         norm_class_idx: 2
      -
         depth: 2
         value: 3.
         norm_class_idx: 2
         splits:
            - { var:6, quality:4.7472079467773438e+02,
                le:6.6824483871459961e-01 }
      -
         depth: 3
         value: 20.
         norm_class_idx: 6
         splits:
            - { var:5, quality:2.2725833129882812e+02,
                le:1.3932456076145172e-01 }
      -
         depth: 4
         value: 3.
         norm_class_idx: 2
         splits:
            - { var:6, quality:6.2761562347412109e+01,
                le:4.8804320394992828e-02 }
      -
         depth: 5
         value: 2.
         norm_class_idx: 1
         splits:
            - { var:5, quality:4.0681709289550781e+01,
                le:-4.2309981584548950e-01 }
      -
         depth: 6
         value: 2.
         norm_class_idx: 1
         splits:
            - { var:6, quality:3.2200000762939453e+01,
                le:-4.8172104358673096e-01 }
      -
         depth: 7
         value: 2.
         norm_class_idx: 1
      -
         depth: 7
         value: 3.
         norm_class_idx: 2
         splits:
            - { var:0, quality:10., le:-3.1368386745452881e-01 }
      -
         depth: 8
         value: 3.
         norm_class_idx: 2
      -
         depth: 8
         value: 4.
         norm_class_idx: 3
      -
         depth: 6
         value: 20.
         norm_class_idx: 6
         splits:
            - { var:1, quality:3.0851350784301758e+01,
                le:-3.0427566170692444e-01 }
      -
         depth: 7
         value: 1.
         norm_class_idx: 0
         splits:
            - { var:6, quality:1.7293104171752930e+01,
                le:-2.9598763585090637e-01 }
      -
         depth: 8
         value: 1.
         norm_class_idx: 0
         splits:
            - { var:0, quality:1.8520000457763672e+01,
                le:-6.2420749664306641e-01 }
      -
         depth: 9
         value: 3.
         norm_class_idx: 2
         splits:
            - { var:0, quality:4., le:-7.3261523246765137e-01 }
      -
         depth: 10
         value: 3.
         norm_class_idx: 2
      -
         depth: 10
         value: 20.
         norm_class_idx: 6
      -
         depth: 9
         value: 1.
         norm_class_idx: 0
         splits:
            - { var:4, quality:1.8421052932739258e+01,
                le:9.0077184140682220e-02 }
      -
         depth: 10
         value: 1.
         norm_class_idx: 0
      -
         depth: 10
         value: 1.
         norm_class_idx: 0
      -
         depth: 8
         value: 20.
         norm_class_idx: 6
         splits:
            - { var:2, quality:5., le:-4.5775085687637329e-01 }
      -
         depth: 9
         value: 20.
         norm_class_idx: 6
      -
         depth: 9
         value: 1.
         norm_class_idx: 0
         splits:
            - { var:0, quality:2., le:-4.3770962953567505e-01 }
      -
         depth: 10
         value: 1.
         norm_class_idx: 0
      -
         depth: 10
         value: 2.
         norm_class_idx: 1
      -
         depth: 7
         value: 20.
         norm_class_idx: 6
         splits:
            - { var:3, quality:2.3354839324951172e+01,
                le:8.2306295633316040e-02 }
      -
         depth: 8
         value: 2.
         norm_class_idx: 1
      -
         depth: 8
         value: 20.
         norm_class_idx: 6
         splits:
            - { var:2, quality:2.2323076248168945e+01,
                le:1.3938879966735840e-01 }
      -
         depth: 9
         value: 20.
         norm_class_idx: 6
         splits:
            - { var:5, quality:2.2333333969116211e+01,
                le:-3.3123618364334106e-01 }
      -
         depth: 10
         value: 4.
         norm_class_idx: 3
      -
         depth: 10
         value: 20.
         norm_class_idx: 6
      -
         depth: 9
         value: 4.
         norm_class_idx: 3
         splits:
            - { var:0, quality:5., le:2.9817628860473633e-01 }
      -
         depth: 10
         value: 4.
         norm_class_idx: 3
      -
         depth: 10
         value: 20.
         norm_class_idx: 6
      -
         depth: 5
         value: 3.
         norm_class_idx: 2
         splits:
            - { var:5, quality:3.7285713195800781e+01,
                le:-2.7213501930236816e-01 }
      -
         depth: 6
         value: 3.
         norm_class_idx: 2
         splits:
            - { var:2, quality:7., le:-1.2647543847560883e-01 }
      -
         depth: 7
         value: 3.
         norm_class_idx: 2
      -
         depth: 7
         value: 4.
         norm_class_idx: 3
      -
         depth: 6
         value: 3.
         norm_class_idx: 2
      -
         depth: 4
         value: 20.
         norm_class_idx: 6
         splits:
            - { var:2, quality:2.2209313964843750e+02,
                le:7.2386842966079712e-01 }
      -
         depth: 5
         value: 20.
         norm_class_idx: 6
         splits:
            - { var:6, quality:2.0677922058105469e+02,
                le:3.1653696298599243e-01 }
      -
         depth: 6
         value: 20.
         norm_class_idx: 6
         splits:
            - { var:4, quality:1.3794801330566406e+02,
                le:6.2411355972290039e-01 }
      -
         depth: 7
         value: 20.
         norm_class_idx: 6
         splits:
            - { var:4, quality:8.3893020629882812e+01,
                le:3.2436843961477280e-02 }
      -
         depth: 8
         value: 3.
         norm_class_idx: 2
         splits:
            - { var:0, quality:3.6666667461395264e+00,
                le:-1.4280396699905396e-01 }
      -
         depth: 9
         value: 3.
         norm_class_idx: 2
      -
         depth: 9
         value: 20.
         norm_class_idx: 6
         splits:
            - { var:0, quality:3., le:5.1962219178676605e-02 }
      -
         depth: 10
         value: 20.
         norm_class_idx: 6
      -
         depth: 10
         value: 2.
         norm_class_idx: 1
      -
         depth: 8
         value: 20.
         norm_class_idx: 6
         splits:
            - { var:0, quality:8.4023529052734375e+01,
                le:5.5817091464996338e-01 }
      -
         depth: 9
         value: 20.
         norm_class_idx: 6
         splits:
            - { var:2, quality:8.3666664123535156e+01,
                le:-4.3032038211822510e-01 }
      -
         depth: 10
         value: 20.
         norm_class_idx: 6
      -
         depth: 10
         value: 20.
         norm_class_idx: 6
      -
         depth: 9
         value: 2.
         norm_class_idx: 1
      -
         depth: 7
         value: 20.
         norm_class_idx: 6
         splits:
            - { var:2, quality:6.6677001953125000e+01,
                le:1.4255391061306000e-01 }
      -
         depth: 8
         value: 20.
         norm_class_idx: 6
         splits:
            - { var:4, quality:5.4315788269042969e+01,
                le:1.0335085391998291e+00 }
      -
         depth: 9
         value: 20.
         norm_class_idx: 6
      -
         depth: 9
         value: 20.
         norm_class_idx: 6
         splits:
            - { var:6, quality:3.1215909957885742e+01,
                le:-3.8556116819381714e-01 }
      -
         depth: 10
         value: 20.
         norm_class_idx: 6
      -
         depth: 10
         value: 1.
         norm_class_idx: 0
      -
         depth: 8
         value: 4.
         norm_class_idx: 3
         splits:
            - { var:1, quality:3.4826087951660156e+01,
                le:1.8206909298896790e-01 }
      -
         depth: 9
         value: 4.
         norm_class_idx: 3
      -
         depth: 9
         value: 20.
         norm_class_idx: 6
         splits:
            - { var:1, quality:1.8311111450195312e+01,
                le:4.6114611625671387e-01 }
      -
         depth: 10
         value: 1.
         norm_class_idx: 0
      -
         depth: 10
         value: 20.
         norm_class_idx: 6
      -
         depth: 6
         value: 20.
         norm_class_idx: 6
         splits:
            - { var:3, quality:8.3420242309570312e+01,
                le:1.5989737212657928e-01 }
      -
         depth: 7
         value: 3.
         norm_class_idx: 2
         splits:
            - { var:0, quality:1.7863636016845703e+01,
                le:2.8072080016136169e-01 }
      -
         depth: 8
         value: 20.
         norm_class_idx: 6
         splits:
            - { var:4, quality:9.5000000000000000e+00,
                le:3.6349976062774658e-01 }
      -
         depth: 9
         value: 20.
         norm_class_idx: 6
      -
         depth: 9
         value: 3.
         norm_class_idx: 2
         splits:
            - { var:0, quality:4., le:1.5210154652595520e-01 }
      -
         depth: 10
         value: 3.
         norm_class_idx: 2
      -
         depth: 10
         value: 1.
         norm_class_idx: 0
      -
         depth: 8
         value: 3.
         norm_class_idx: 2
         splits:
            - { var:4, quality:1.4666666984558105e+01,
                le:5.9039849787950516e-02 }
      -
         depth: 9
         value: 4.
         norm_class_idx: 3
         splits:
            - { var:2, quality:3., le:4.7699433565139771e-01 }
      -
         depth: 10
         value: 3.
         norm_class_idx: 2
      -
         depth: 10
         value: 4.
         norm_class_idx: 3
      -
         depth: 9
         value: 3.
         norm_class_idx: 2
      -
         depth: 7
         value: 20.
         norm_class_idx: 6
         splits:
            - { var:5, quality:8.3729064941406250e+01,
                le:9.6320706605911255e-01 }
      -
         depth: 8
         value: 20.
         norm_class_idx: 6
         splits:
            - { var:0, quality:7.1701324462890625e+01,
                le:4.0290910005569458e-01 }
      -
         depth: 9
         value: 20.
         norm_class_idx: 6
         splits:
            - { var:3, quality:57., le:1.4898910522460938e+00 }
      -
         depth: 10
         value: 20.
         norm_class_idx: 6
      -
         depth: 10
         value: 3.
         norm_class_idx: 2
      -
         depth: 9
         value: 20.
         norm_class_idx: 6
         splits:
            - { var:3, quality:2.9364103317260742e+01,
                le:6.1649250984191895e-01 }
      -
         depth: 10
         value: 3.
         norm_class_idx: 2
      -
         depth: 10
         value: 20.
         norm_class_idx: 6
      -
         depth: 8
         value: 3.
         norm_class_idx: 2
         splits:
            - { var:3, quality:2.3782608032226562e+01,
                le:5.5780136585235596e-01 }
      -
         depth: 9
         value: 20.
         norm_class_idx: 6
      -
         depth: 9
         value: 3.
         norm_class_idx: 2
         splits:
            - { var:0, quality:23., le:4.6170637011528015e-01 }
      -
         depth: 10
         value: 3.
         norm_class_idx: 2
      -
         depth: 10
         value: 20.
         norm_class_idx: 6
      -
         depth: 5
         value: 1.
         norm_class_idx: 0
         splits:
            - { var:3, quality:4.0972602844238281e+01,
                le:1.8377169966697693e-01 }
      -
         depth: 6
         value: 2.
         norm_class_idx: 1
      -
         depth: 6
         value: 1.
         norm_class_idx: 0
         splits:
            - { var:5, quality:4.1697803497314453e+01,
                le:6.9693088531494141e-01 }
      -
         depth: 7
         value: 3.
         norm_class_idx: 2
         splits:
            - { var:5, quality:1.5875000000000000e+01,
                le:3.3557885885238647e-01 }
      -
         depth: 8
         value: 20.
         norm_class_idx: 6
      -
         depth: 8
         value: 3.
         norm_class_idx: 2
         splits:
            - { var:1, quality:1.3142857551574707e+01,
                le:6.7331004142761230e-01 }
      -
         depth: 9
         value: 1.
         norm_class_idx: 0
         splits:
            - { var:0, quality:2., le:5.3979671001434326e-01 }
      -
         depth: 10
         value: 1.
         norm_class_idx: 0
      -
         depth: 10
         value: 20.
         norm_class_idx: 6
      -
         depth: 9
         value: 3.
         norm_class_idx: 2
         splits:
            - { var:5, quality:13., le:4.3450894951820374e-01 }
      -
         depth: 10
         value: 3.
         norm_class_idx: 2
      -
         depth: 10
         value: 3.
         norm_class_idx: 2
      -
         depth: 7
         value: 1.
         norm_class_idx: 0
         splits:
            - { var:4, quality:3.7202899932861328e+01,
                le:1.3645716905593872e+00 }
      -
         depth: 8
         value: 1.
         norm_class_idx: 0
         splits:
            - { var:0, quality:3.6954544067382812e+01,
                le:1.4098142385482788e+00 }
      -
         depth: 9
         value: 1.
         norm_class_idx: 0
         splits:
            - { var:6, quality:3.6744186401367188e+01,
                le:6.3926506042480469e-01 }
      -
         depth: 10
         value: 1.
         norm_class_idx: 0
      -
         depth: 10
         value: 5.
         norm_class_idx: 4
      -
         depth: 9
         value: 20.
         norm_class_idx: 6
      -
         depth: 8
         value: 20.
         norm_class_idx: 6
         splits:
            - { var:3, quality:6., le:2.0668516159057617e+00 }
      -
         depth: 9
         value: 20.
         norm_class_idx: 6
      -
         depth: 9
         value: 3.
         norm_class_idx: 2
      -
         depth: 3
         value: 4.
         norm_class_idx: 3
         splits:
            - { var:5, quality:3.5034271240234375e+02,
                le:9.9982404708862305e-01 }
      -
         depth: 4
         value: 3.
         norm_class_idx: 2
         splits:
            - { var:6, quality:2.0557563781738281e+02,
                le:1.2257740497589111e+00 }
      -
         depth: 5
         value: 3.
         norm_class_idx: 2
         splits:
            - { var:2, quality:1.6814108276367188e+02,
                le:1.2766973972320557e+00 }
      -
         depth: 6
         value: 3.
         norm_class_idx: 2
         splits:
            - { var:1, quality:1.7641773986816406e+02,
                le:5.5743587017059326e-01 }
      -
         depth: 7
         value: 4.
         norm_class_idx: 3
         splits:
            - { var:5, quality:4.0024391174316406e+01,
                le:5.4821431636810303e-01 }
      -
         depth: 8
         value: 3.
         norm_class_idx: 2
      -
         depth: 8
         value: 4.
         norm_class_idx: 3
         splits:
            - { var:4, quality:3.5877193450927734e+01,
                le:1.7924728989601135e-01 }
      -
         depth: 9
         value: 4.
         norm_class_idx: 3
         splits:
            - { var:2, quality:38., le:4.9598449468612671e-01 }
      -
         depth: 10
         value: 3.
         norm_class_idx: 2
      -
         depth: 10
         value: 4.
         norm_class_idx: 3
      -
         depth: 9
         value: 3.
         norm_class_idx: 2
         splits:
            - { var:0, quality:3., le:4.0750259160995483e-01 }
      -
         depth: 10
         value: 20.
         norm_class_idx: 6
      -
         depth: 10
         value: 3.
         norm_class_idx: 2
      -
         depth: 7
         value: 3.
         norm_class_idx: 2
         splits:
            - { var:2, quality:1.5925450134277344e+02,
                le:1.1638104915618896e+00 }
      -
         depth: 8
         value: 3.
         norm_class_idx: 2
         splits:
            - { var:3, quality:1.5191072082519531e+02,
                le:2.9584184288978577e-02 }
      -
         depth: 9
         value: 3.
         norm_class_idx: 2
         splits:
            - { var:0, quality:1.1944444656372070e+01,
                le:8.8523143529891968e-01 }
      -
         depth: 10
         value: 3.
         norm_class_idx: 2
      -
         depth: 10
         value: 5.
         norm_class_idx: 4
      -
         depth: 9
         value: 3.
         norm_class_idx: 2
         splits:
            - { var:2, quality:1.4642024230957031e+02,
                le:5.3080016374588013e-01 }
      -
         depth: 10
         value: 20.
         norm_class_idx: 6
      -
         depth: 10
         value: 3.
         norm_class_idx: 2
      -
         depth: 8
         value: 1.
         norm_class_idx: 0
         splits:
            - { var:3, quality:20., le:2.8722667694091797e-01 }
      -
         depth: 9
         value: 1.
         norm_class_idx: 0
      -
         depth: 9
         value: 3.
         norm_class_idx: 2
      -
         depth: 6
         value: 5.
         norm_class_idx: 4
         splits:
            - { var:6, quality:2.8666666030883789e+01,
                le:8.2466912269592285e-01 }
      -
         depth: 7
         value: 5.
         norm_class_idx: 4
      -
         depth: 7
         value: 1.
         norm_class_idx: 0
         splits:
            - { var:0, quality:3., le:1.3179433345794678e+00 }
      -
         depth: 8
         value: 1.
         norm_class_idx: 0
      -
         depth: 8
         value: 3.
         norm_class_idx: 2
      -
         depth: 5
         value: 5.
         norm_class_idx: 4
         splits:
            - { var:5, quality:74., le:5.9478861093521118e-01 }
      -
         depth: 6
         value: 3.
         norm_class_idx: 2
      -
         depth: 6
         value: 5.
         norm_class_idx: 4
      -
         depth: 4
         value: 4.
         norm_class_idx: 3
         splits:
            - { var:6, quality:2.5540197753906250e+02,
                le:1.2119429111480713e+00 }
      -
         depth: 5
         value: 1.
         norm_class_idx: 0
         splits:
            - { var:5, quality:1.5965621948242188e+02,
                le:1.1668488979339600e+00 }
      -
         depth: 6
         value: 4.
         norm_class_idx: 3
         splits:
            - { var:6, quality:7.6676055908203125e+01,
                le:9.7516584396362305e-01 }
      -
         depth: 7
         value: 3.
         norm_class_idx: 2
         splits:
            - { var:1, quality:3.0793104171752930e+01,
                le:1.2216720581054688e+00 }
      -
         depth: 8
         value: 3.
         norm_class_idx: 2
         splits:
            - { var:0, quality:2.4977777481079102e+01,
                le:1.0000698566436768e+00 }
      -
         depth: 9
         value: 4.
         norm_class_idx: 3
         splits:
            - { var:1, quality:2.0306722640991211e+01,
                le:7.3532700538635254e-01 }
      -
         depth: 10
         value: 4.
         norm_class_idx: 3
      -
         depth: 10
         value: 1.
         norm_class_idx: 0
      -
         depth: 9
         value: 3.
         norm_class_idx: 2
      -
         depth: 8
         value: 5.
         norm_class_idx: 4
         splits:
            - { var:4, quality:2.3142856597900391e+01,
                le:1.0916419029235840e+00 }
      -
         depth: 9
         value: 5.
         norm_class_idx: 4
      -
         depth: 9
         value: 20.
         norm_class_idx: 6
         splits:
            - { var:3, quality:7., le:2.0947051048278809e+00 }
      -
         depth: 10
         value: 20.
         norm_class_idx: 6
      -
         depth: 10
         value: 3.
         norm_class_idx: 2
      -
         depth: 7
         value: 4.
         norm_class_idx: 3
         splits:
            - { var:1, quality:6.3843135833740234e+01,
                le:1.1988236904144287e+00 }
      -
         depth: 8
         value: 4.
         norm_class_idx: 3
         splits:
            - { var:0, quality:6.4089553833007812e+01,
                le:6.6565990447998047e-01 }
      -
         depth: 9
         value: 5.
         norm_class_idx: 4
      -
         depth: 9
         value: 4.
         norm_class_idx: 3
         splits:
            - { var:3, quality:6.5030303955078125e+01,
                le:5.2696382999420166e-01 }
      -
         depth: 10
         value: 4.
         norm_class_idx: 3
      -
         depth: 10
         value: 3.
         norm_class_idx: 2
      -
         depth: 8
         value: 1.
         norm_class_idx: 0
         splits:
            - { var:0, quality:3., le:2.7897150516510010e+00 }
      -
         depth: 9
         value: 1.
         norm_class_idx: 0
      -
         depth: 9
         value: 20.
         norm_class_idx: 6
      -
         depth: 6
         value: 1.
         norm_class_idx: 0
         splits:
            - { var:5, quality:1.3583280944824219e+02,
                le:1.3865509033203125e+00 }
      -
         depth: 7
         value: 1.
         norm_class_idx: 0
         splits:
            - { var:0, quality:1.0826008605957031e+02,
                le:1.2977317571640015e+00 }
      -
         depth: 8
         value: 1.
         norm_class_idx: 0
         splits:
            - { var:1, quality:1.0713623809814453e+02,
                le:9.1158628463745117e-01 }
      -
         depth: 9
         value: 1.
         norm_class_idx: 0
         splits:
            - { var:4, quality:4.2255943298339844e+01,
                le:3.6054393649101257e-01 }
      -
         depth: 10
         value: 1.
         norm_class_idx: 0
      -
         depth: 10
         value: 3.
         norm_class_idx: 2
      -
         depth: 9
         value: 1.
         norm_class_idx: 0
         splits:
            - { var:3, quality:9.1090911865234375e+01,
                le:3.0712193250656128e-01 }
      -
         depth: 10
         value: 1.
         norm_class_idx: 0
      -
         depth: 10
         value: 1.
         norm_class_idx: 0
      -
         depth: 8
         value: 3.
         norm_class_idx: 2
      -
         depth: 7
         value: 5.
         norm_class_idx: 4
         splits:
            - { var:4, quality:5.4981586456298828e+01,
                le:7.2855615615844727e-01 }
      -
         depth: 8
         value: 5.
         norm_class_idx: 4
         splits:
            - { var:4, quality:5.4549041748046875e+01,
                le:5.1129567623138428e-01 }
      -
         depth: 9
         value: 4.
         norm_class_idx: 3
         splits:
            - { var:0, quality:4.2483306884765625e+01,
                le:9.9272024631500244e-01 }
      -
         depth: 10
         value: 5.
         norm_class_idx: 4
      -
         depth: 10
         value: 4.
         norm_class_idx: 3
      -
         depth: 9
         value: 5.
         norm_class_idx: 4
         splits:
            - { var:0, quality:3.0941177368164062e+01,
                le:1.2683329582214355e+00 }
      -
         depth: 10
         value: 5.
         norm_class_idx: 4
      -
         depth: 10
         value: 4.
         norm_class_idx: 3
      -
         depth: 8
         value: 3.
         norm_class_idx: 2
         splits:
            - { var:1, quality:25., le:1.4207795858383179e+00 }
      -
         depth: 9
         value: 3.
         norm_class_idx: 2
      -
         depth: 9
         value: 1.
         norm_class_idx: 0
      -
         depth: 5
         value: 4.
         norm_class_idx: 3
         splits:
            - { var:3, quality:1.4157855224609375e+02,
                le:3.6879715323448181e-01 }
      -
         depth: 6
         value: 4.
         norm_class_idx: 3
         splits:
            - { var:0, quality:9.8079208374023438e+01,
                le:7.3088812828063965e-01 }
      -
         depth: 7
         value: 4.
         norm_class_idx: 3
         splits:
            - { var:0, quality:2., le:7.2078233957290649e-01 }
      -
         depth: 8
         value: 4.
         norm_class_idx: 3
      -
         depth: 8
