%YAML:1.0
---
opencv_ml_dtree:
   format: 3
   is_classifier: 1
   var_all: 8
   var_count: 7
   ord_var_count: 7
   cat_var_count: 1
   training_params:
      use_surrogates: 0
      max_categories: 10
      regression_accuracy: 9.9999997764825821e-03
      max_depth: 10
      min_sample_count: 1
      cross_validation_folds: 0
   global_var_idx: 1
   var_idx: [ 0, 1, 2, 3, 4, 5, 6 ]
   var_type: [ 0, 0, 0, 0, 0, 0, 0, 1 ]
   cat_ofs: [ 0, 0, 0, 0, 0, 0, 0, 0, 0, 0, 0, 0, 0, 0 ]
   class_labels: [ 1, 2, 3, 4, 5, 10, 20 ]
   missing_subst: [ 0., 0., 0., 0., 0., 0., 0., 0. ]
   nodes:
      -
         depth: 0
         value: 3.
         norm_class_idx: 2
         splits:
            - { var:5, quality:4.6444248046875000e+03,
                le:-8.0931091308593750e-01 }
      -
         depth: 1
         value: 2.
         norm_class_idx: 1
         splits:
            - { var:2, quality:2.2369204101562500e+03,
                le:-6.5845960378646851e-01 }
      -
         depth: 2
         value: 2.
         norm_class_idx: 1
         splits:
            - { var:0, quality:2.2283789062500000e+03,
                le:-6.1512076854705811e-01 }
      -
         depth: 3
         value: 2.
         norm_class_idx: 1
         splits:
            - { var:3, quality:2.1905537109375000e+03,
                le:2.1133213043212891e+00 }
      -
         depth: 4
         value: 2.
         norm_class_idx: 1
         splits:
            - { var:1, quality:2.1925463867187500e+03,
                le:2.3604321479797363e-01 }
      -
         depth: 5
         value: 2.
         norm_class_idx: 1
         splits:
            - { var:4, quality:2.1953366699218750e+03,
                le:-5.1553821563720703e-01 }
      -
         depth: 6
         value: 20.
         norm_class_idx: 6
         splits:
            - { var:5, quality:8.3333330154418945e+00,
                le:-1.1121935844421387e+00 }
      -
         depth: 7
         value: 20.
         norm_class_idx: 6
      -
         depth: 7
         value: 2.
         norm_class_idx: 1
         splits:
            - { var:6, quality:6., le:-3.9726415276527405e-01 }
      -
         depth: 8
         value: 2.
         norm_class_idx: 1
      -
         depth: 8
         value: 4.
         norm_class_idx: 3
      -
         depth: 6
         value: 2.
         norm_class_idx: 1
         splits:
            - { var:6, quality:2.1944433593750000e+03,
                le:-9.8666465282440186e-01 }
      -
         depth: 7
         value: 2.
         norm_class_idx: 1
         splits:
            - { var:1, quality:2.1056181640625000e+03,
                le:1.4912935905158520e-02 }
      -
         depth: 8
         value: 2.
         norm_class_idx: 1
         splits:
            - { var:5, quality:2.0960842285156250e+03,
                le:-8.5471749305725098e-01 }
      -
         depth: 9
         value: 2.
         norm_class_idx: 1
         splits:
            - { var:2, quality:2.0740832519531250e+03,
                le:-7.6617145538330078e-01 }
      -
         depth: 10
         value: 2.
         norm_class_idx: 1
      -
         depth: 10
         value: 2.
         norm_class_idx: 1
      -
         depth: 9
         value: 2.
         norm_class_idx: 1
         splits:
            - { var:0, quality:24., le:-9.8419570922851562e-01 }
      -
         depth: 10
         value: 1.
         norm_class_idx: 0
      -
         depth: 10
         value: 2.
         norm_class_idx: 1
      -
         depth: 8
         value: 2.
         norm_class_idx: 1
         splits:
            - { var:5, quality:13., le:-9.2489129304885864e-01 }
      -
         depth: 9
         value: 2.
         norm_class_idx: 1
      -
         depth: 9
         value: 1.
         norm_class_idx: 0
      -
         depth: 7
         value: 2.
         norm_class_idx: 1
         splits:
            - { var:4, quality:1.0670868682861328e+02,
                le:5.6433236598968506e-01 }
      -
         depth: 8
         value: 2.
         norm_class_idx: 1
         splits:
            - { var:2, quality:9.7620620727539062e+01,
                le:-6.8394869565963745e-01 }
      -
         depth: 9
         value: 2.
         norm_class_idx: 1
         splits:
            - { var:0, quality:9.5250000000000000e+01,
                le:-6.7944091558456421e-01 }
      -
         depth: 10
         value: 2.
         norm_class_idx: 1
      -
         depth: 10
         value: 2.
         norm_class_idx: 1
      -
         depth: 9
         value: 2.
         norm_class_idx: 1
         splits:
            - { var:1, quality:5., le:-7.4421155452728271e-01 }
      -
         depth: 10
         value: 4.
         norm_class_idx: 3
      -
         depth: 10
         value: 2.
         norm_class_idx: 1
      -
         depth: 8
         value: 3.
         norm_class_idx: 2
         splits:
            - { var:5, quality:14., le:-8.8258063793182373e-01 }
      -
         depth: 9
         value: 3.
         norm_class_idx: 2
      -
         depth: 9
         value: 2.
         norm_class_idx: 1
      -
         depth: 5
         value: 1.
         norm_class_idx: 0
         splits:
            - { var:4, quality:7., le:1.3975656032562256e+00 }
      -
         depth: 6
         value: 2.
         norm_class_idx: 1
      -
         depth: 6
         value: 1.
         norm_class_idx: 0
      -
         depth: 4
         value: 5.
         norm_class_idx: 4
      -
         depth: 3
         value: 2.
         norm_class_idx: 1
         splits:
            - { var:6, quality:6.9195236206054688e+01,
                le:-1.0371978282928467e+00 }
      -
         depth: 4
         value: 2.
         norm_class_idx: 1
         splits:
            - { var:4, quality:5.2625335693359375e+01,
                le:1.4070088863372803e+00 }
      -
         depth: 5
         value: 2.
         norm_class_idx: 1
         splits:
            - { var:2, quality:5.0599998474121094e+01,
                le:-1.0325732231140137e+00 }
      -
         depth: 6
         value: 3.
         norm_class_idx: 2
         splits:
            - { var:3, quality:5., le:8.1311452388763428e-01 }
      -
         depth: 7
         value: 2.
         norm_class_idx: 1
      -
         depth: 7
         value: 3.
         norm_class_idx: 2
      -
         depth: 6
         value: 2.
         norm_class_idx: 1
      -
         depth: 5
         value: 5.
         norm_class_idx: 4
         splits:
            - { var:1, quality:7., le:3.8975578546524048e-01 }
      -
         depth: 6
         value: 5.
         norm_class_idx: 4
      -
         depth: 6
         value: 1.
         norm_class_idx: 0
      -
         depth: 4
         value: 3.
         norm_class_idx: 2
         splits:
            - { var:3, quality:3.1489736557006836e+01,
                le:4.6887582540512085e-01 }
      -
         depth: 5
         value: 2.
         norm_class_idx: 1
         splits:
            - { var:5, quality:11., le:-9.0683192014694214e-01 }
      -
         depth: 6
         value: 2.
         norm_class_idx: 1
      -
         depth: 6
         value: 3.
         norm_class_idx: 2
      -
         depth: 5
         value: 3.
         norm_class_idx: 2
         splits:
            - { var:1, quality:2.7266666412353516e+01,
                le:-5.9724074602127075e-01 }
      -
         depth: 6
         value: 2.
         norm_class_idx: 1
      -
         depth: 6
         value: 3.
         norm_class_idx: 2
         splits:
            - { var:1, quality:2.8068965911865234e+01,
                le:-6.5988376736640930e-02 }
      -
         depth: 7
         value: 3.
         norm_class_idx: 2
         splits:
            - { var:1, quality:2.7666666030883789e+01,
                le:-2.4127468466758728e-01 }
      -
         depth: 8
         value: 3.
         norm_class_idx: 2
      -
         depth: 8
         value: 3.
         norm_class_idx: 2
         splits:
            - { var:0, quality:3., le:-4.7269773483276367e-01 }
      -
         depth: 9
         value: 2.
         norm_class_idx: 1
      -
         depth: 9
         value: 3.
         norm_class_idx: 2
      -
         depth: 7
         value: 2.
         norm_class_idx: 1
      -
         depth: 2
         value: 3.
         norm_class_idx: 2
         splits:
            - { var:4, quality:6.7764938354492188e+01,
                le:1.1692596673965454e+00 }
      -
         depth: 3
         value: 3.
         norm_class_idx: 2
         splits:
            - { var:6, quality:4.8129032135009766e+01,
                le:-8.5481905937194824e-01 }
      -
         depth: 4
         value: 2.
         norm_class_idx: 1
         splits:
            - { var:6, quality:1.9952381134033203e+01,
                le:-1.0156064033508301e+00 }
      -
         depth: 5
         value: 2.
         norm_class_idx: 1
      -
         depth: 5
         value: 4.
         norm_class_idx: 3
         splits:
            - { var:1, quality:1.2444444656372070e+01,
                le:-1.0475914478302002e+00 }
      -
         depth: 6
         value: 2.
         norm_class_idx: 1
      -
         depth: 6
         value: 4.
         norm_class_idx: 3
         splits:
            - { var:1, quality:1.2888889312744141e+01,
                le:-6.5656828880310059e-01 }
      -
         depth: 7
         value: 4.
         norm_class_idx: 3
      -
         depth: 7
         value: 2.
         norm_class_idx: 1
         splits:
            - { var:0, quality:6.1999998092651367e+00,
                le:-5.4314351081848145e-01 }
      -
         depth: 8
         value: 2.
         norm_class_idx: 1
      -
         depth: 8
         value: 4.
         norm_class_idx: 3
         splits:
            - { var:0, quality:4., le:-3.7468612194061279e-01 }
      -
         depth: 9
         value: 4.
         norm_class_idx: 3
      -
         depth: 9
         value: 2.
         norm_class_idx: 1
         splits:
            - { var:0, quality:2., le:-3.0730313062667847e-01 }
      -
         depth: 10
         value: 2.
         norm_class_idx: 1
      -
         depth: 10
         value: 3.
         norm_class_idx: 2
      -
         depth: 4
         value: 3.
         norm_class_idx: 2
         splits:
            - { var:6, quality:4.7792907714843750e+01,
                le:-3.1365472078323364e-01 }
      -
         depth: 5
         value: 3.
         norm_class_idx: 2
         splits:
            - { var:5, quality:3.6813854217529297e+01,
                le:-8.5213762521743774e-01 }
      -
         depth: 6
         value: 3.
         norm_class_idx: 2
         splits:
            - { var:0, quality:2.9571428298950195e+01,
                le:-7.3763531446456909e-01 }
      -
         depth: 7
         value: 3.
         norm_class_idx: 2
         splits:
            - { var:1, quality:14., le:-1.2956891059875488e+00 }
      -
         depth: 8
         value: 3.
         norm_class_idx: 2
      -
         depth: 8
         value: 2.
         norm_class_idx: 1
      -
         depth: 7
         value: 3.
         norm_class_idx: 2
      -
         depth: 6
         value: 3.
         norm_class_idx: 2
         splits:
            - { var:2, quality:9.5555553436279297e+00,
                le:-4.8003616929054260e-01 }
      -
         depth: 7
         value: 3.
         norm_class_idx: 2
      -
         depth: 7
         value: 4.
         norm_class_idx: 3
         splits:
            - { var:2, quality:9., le:-3.7479108572006226e-01 }
      -
         depth: 8
         value: 4.
         norm_class_idx: 3
      -
         depth: 8
         value: 3.
         norm_class_idx: 2
      -
         depth: 5
         value: 4.
         norm_class_idx: 3
         splits:
            - { var:0, quality:15., le:-5.5233216285705566e-01 }
      -
         depth: 6
         value: 4.
         norm_class_idx: 3
      -
         depth: 6
         value: 3.
         norm_class_idx: 2
      -
         depth: 3
         value: 1.
         norm_class_idx: 0
         splits:
            - { var:5, quality:43., le:-9.5791423320770264e-01 }
      -
         depth: 4
         value: 1.
         norm_class_idx: 0
      -
         depth: 4
         value: 2.
         norm_class_idx: 1
      -
         depth: 1
         value: 3.
         norm_class_idx: 2
         splits:
            - { var:4, quality:4.3381787109375000e+03,
                le:6.8487340211868286e-01 }
      -
         depth: 2
         value: 3.
         norm_class_idx: 2
         splits:
            - { var:0, quality:2.3335617675781250e+03,
                le:-4.4053772091865540e-01 }
      -
         depth: 3
         value: 1.
         norm_class_idx: 0
         splits:
            - { var:6, quality:3.8369360351562500e+02,
                le:-5.6861758232116699e-01 }
      -
         depth: 4
         value: 2.
         norm_class_idx: 1
         splits:
            - { var:1, quality:1.0258837127685547e+02,
                le:-2.6824188232421875e-01 }
      -
         depth: 5
         value: 2.
         norm_class_idx: 1
         splits:
            - { var:5, quality:9.1125000000000000e+01,
                le:-5.9775733947753906e-01 }
      -
         depth: 6
         value: 2.
         norm_class_idx: 1
         splits:
            - { var:3, quality:7.0129631042480469e+01,
                le:-7.4216735363006592e-01 }
      -
         depth: 7
         value: 1.
         norm_class_idx: 0
      -
         depth: 7
         value: 2.
         norm_class_idx: 1
         splits:
            - { var:2, quality:7.0021141052246094e+01,
                le:-3.8794672489166260e-01 }
      -
         depth: 8
         value: 2.
         norm_class_idx: 1
         splits:
            - { var:0, quality:6.3693477630615234e+01,
                le:-7.1160101890563965e-01 }
      -
         depth: 9
         value: 2.
         norm_class_idx: 1
         splits:
            - { var:6, quality:2.9500000000000000e+01,
                le:-8.7135720252990723e-01 }
      -
         depth: 10
         value: 4.
         norm_class_idx: 3
      -
         depth: 10
         value: 2.
         norm_class_idx: 1
      -
         depth: 9
         value: 2.
         norm_class_idx: 1
         splits:
            - { var:1, quality:4.4400001525878906e+01,
                le:-8.9657568931579590e-01 }
      -
         depth: 10
         value: 2.
         norm_class_idx: 1
      -
         depth: 10
         value: 2.
         norm_class_idx: 1
      -
         depth: 8
         value: 2.
         norm_class_idx: 1
         splits:
            - { var:3, quality:2.0166666030883789e+01,
                le:-9.3192696571350098e-02 }
      -
         depth: 9
         value: 2.
         norm_class_idx: 1
         splits:
            - { var:2, quality:12., le:-3.6656880378723145e-01 }
      -
         depth: 10
         value: 3.
         norm_class_idx: 2
      -
         depth: 10
         value: 2.
         norm_class_idx: 1
      -
         depth: 9
         value: 4.
         norm_class_idx: 3
      -
         depth: 6
         value: 2.
         norm_class_idx: 1
         splits:
            - { var:2, quality:4.3661262512207031e+01,
                le:-3.9945781230926514e-01 }
      -
         depth: 7
         value: 3.
         norm_class_idx: 2
         splits:
            - { var:1, quality:2.3846666336059570e+01,
                le:-6.8623220920562744e-01 }
      -
         depth: 8
         value: 3.
         norm_class_idx: 2
         splits:
            - { var:1, quality:2.1272727966308594e+01,
                le:-1.1096159219741821e+00 }
      -
         depth: 9
         value: 2.
         norm_class_idx: 1
      -
         depth: 9
         value: 3.
         norm_class_idx: 2
         splits:
            - { var:0, quality:2.0095237731933594e+01,
                le:-4.7882342338562012e-01 }
      -
         depth: 10
         value: 3.
         norm_class_idx: 2
      -
         depth: 10
         value: 2.
         norm_class_idx: 1
      -
         depth: 8
         value: 1.
         norm_class_idx: 0
         splits:
            - { var:6, quality:1.0199999809265137e+01,
                le:-8.1668949127197266e-01 }
      -
         depth: 9
         value: 2.
         norm_class_idx: 1
      -
         depth: 9
         value: 1.
         norm_class_idx: 0
         splits:
            - { var:0, quality:9., le:-6.1665225028991699e-01 }
      -
         depth: 10
         value: 1.
         norm_class_idx: 0
      -
         depth: 10
         value: 1.
         norm_class_idx: 0
      -
         depth: 7
         value: 2.
         norm_class_idx: 1
         splits:
            - { var:0, quality:2.8399999618530273e+01,
                le:-5.3395497798919678e-01 }
      -
         depth: 8
         value: 2.
         norm_class_idx: 1
      -
         depth: 8
         value: 2.
         norm_class_idx: 1
         splits:
            - { var:0, quality:5., le:-5.1557779312133789e-01 }
      -
         depth: 9
         value: 3.
         norm_class_idx: 2
      -
         depth: 9
         value: 2.
         norm_class_idx: 1
      -
         depth: 5
         value: 1.
         norm_class_idx: 0
         splits:
            - { var:6, quality:2.4649999618530273e+01,
                le:-8.4746873378753662e-01 }
      -
         depth: 6
         value: 1.
         norm_class_idx: 0
         splits:
            - { var:4, quality:1.7333333969116211e+01,
                le:4.9434071779251099e-01 }
      -
         depth: 7
         value: 1.
         norm_class_idx: 0
      -
         depth: 7
         value: 1.
         norm_class_idx: 0
         splits:
            - { var:0, quality:6., le:-5.1864063739776611e-01 }
      -
         depth: 8
         value: 1.
         norm_class_idx: 0
      -
         depth: 8
         value: 2.
         norm_class_idx: 1
      -
         depth: 6
         value: 4.
         norm_class_idx: 3
         splits:
            - { var:5, quality:1.4133333206176758e+01,
                le:-5.1416790485382080e-01 }
      -
         depth: 7
         value: 4.
         norm_class_idx: 3
         splits:
            - { var:0, quality:1.1833333015441895e+01,
                le:-6.8097233772277832e-01 }
      -
         depth: 8
         value: 2.
         norm_class_idx: 1
         splits:
            - { var:0, quality:3., le:-7.1466380357742310e-01 }
      -
         depth: 9
         value: 1.
         norm_class_idx: 0
      -
         depth: 9
         value: 2.
         norm_class_idx: 1
      -
         depth: 8
         value: 4.
         norm_class_idx: 3
         splits:
            - { var:4, quality:12., le:2.2175066173076630e-02 }
      -
         depth: 9
         value: 20.
         norm_class_idx: 6
      -
         depth: 9
         value: 4.
         norm_class_idx: 3
      -
         depth: 7
         value: 1.
         norm_class_idx: 0
         splits:
            - { var:5, quality:7.2500000000000000e+00,
                le:-6.9905616343021393e-02 }
      -
         depth: 8
         value: 1.
         norm_class_idx: 0
         splits:
            - { var:6, quality:8., le:-7.7672231197357178e-01 }
      -
         depth: 9
         value: 2.
         norm_class_idx: 1
      -
         depth: 9
         value: 1.
         norm_class_idx: 0
      -
         depth: 8
         value: 20.
         norm_class_idx: 6
      -
         depth: 4
         value: 1.
         norm_class_idx: 0
         splits:
            - { var:4, quality:3.6469973754882812e+02,
                le:-1.5326384305953979e+00 }
      -
         depth: 5
         value: 3.
         norm_class_idx: 2
         splits:
            - { var:6, quality:94., le:4.6547478437423706e-01 }
      -
         depth: 6
         value: 3.
         norm_class_idx: 2
      -
         depth: 6
         value: 4.
         norm_class_idx: 3
      -
         depth: 5
         value: 1.
         norm_class_idx: 0
         splits:
            - { var:6, quality:3.5828207397460938e+02,
                le:1.5722247958183289e-01 }
      -
         depth: 6
         value: 1.
         norm_class_idx: 0
         splits:
            - { var:1, quality:2.1873970031738281e+02,
                le:-4.0712255239486694e-01 }
      -
         depth: 7
         value: 1.
         norm_class_idx: 0
         splits:
            - { var:0, quality:1.3652757263183594e+02,
                le:-6.6412657499313354e-01 }
      -
         depth: 8
         value: 1.
         norm_class_idx: 0
         splits:
            - { var:5, quality:8.1783218383789062e+01,
                le:-6.6328728199005127e-01 }
      -
         depth: 9
         value: 3.
         norm_class_idx: 2
      -
         depth: 9
         value: 1.
         norm_class_idx: 0
         splits:
            - { var:4, quality:8.2508132934570312e+01,
                le:-1.6141402721405029e-01 }
      -
         depth: 10
         value: 1.
         norm_class_idx: 0
      -
         depth: 10
         value: 3.
         norm_class_idx: 2
      -
         depth: 8
         value: 3.
         norm_class_idx: 2
         splits:
            - { var:2, quality:7.8101882934570312e+01,
                le:-1.9554539024829865e-01 }
      -
         depth: 9
         value: 3.
         norm_class_idx: 2
         splits:
            - { var:4, quality:4.7181819915771484e+01,
                le:-5.4609012603759766e-01 }
      -
         depth: 10
         value: 3.
         norm_class_idx: 2
      -
         depth: 10
         value: 1.
         norm_class_idx: 0
      -
         depth: 9
         value: 1.
         norm_class_idx: 0
         splits:
            - { var:3, quality:5.0534107208251953e+01,
                le:-4.5548975467681885e-01 }
      -
         depth: 10
         value: 1.
         norm_class_idx: 0
      -
         depth: 10
         value: 3.
         norm_class_idx: 2
      -
         depth: 7
         value: 1.
         norm_class_idx: 0
         splits:
            - { var:0, quality:1.2218128967285156e+02,
                le:-8.7240123748779297e-01 }
      -
         depth: 8
         value: 4.
         norm_class_idx: 3
         splits:
            - { var:6, quality:18., le:-4.7398275136947632e-01 }
      -
         depth: 9
         value: 1.
         norm_class_idx: 0
      -
         depth: 9
         value: 4.
         norm_class_idx: 3
      -
         depth: 8
         value: 1.
         norm_class_idx: 0
         splits:
            - { var:2, quality:1.2622856903076172e+02,
                le:6.1517119407653809e-01 }
      -
         depth: 9
         value: 1.
         norm_class_idx: 0
         splits:
            - { var:1, quality:1.1653968048095703e+02,
                le:1.6323196887969971e-01 }
      -
         depth: 10
         value: 1.
         norm_class_idx: 0
      -
         depth: 10
         value: 1.
         norm_class_idx: 0
      -
         depth: 9
         value: 4.
         norm_class_idx: 3
      -
         depth: 6
         value: 4.
         norm_class_idx: 3
         splits:
            - { var:5, quality:2.1369741821289062e+02,
                le:-2.6562985032796860e-02 }
      -
         depth: 7
         value: 4.
         norm_class_idx: 3
         splits:
            - { var:0, quality:1.4554782104492188e+02,
                le:-5.4620635509490967e-01 }
      -
         depth: 8
         value: 4.
         norm_class_idx: 3
         splits:
            - { var:4, quality:1.2277769470214844e+02,
                le:-1.3523823022842407e+00 }
      -
         depth: 9
         value: 4.
         norm_class_idx: 3
         splits:
            - { var:4, quality:11., le:-1.3548818826675415e+00 }
      -
         depth: 10
         value: 4.
         norm_class_idx: 3
      -
         depth: 10
         value: 1.
         norm_class_idx: 0
      -
         depth: 9
         value: 4.
         norm_class_idx: 3
         splits:
            - { var:6, quality:1.1530357360839844e+02,
                le:1.7605754733085632e-01 }
      -
         depth: 10
         value: 4.
         norm_class_idx: 3
      -
         depth: 10
         value: 4.
         norm_class_idx: 3
      -
         depth: 8
         value: 4.
         norm_class_idx: 3
         splits:
            - { var:6, quality:3.2521739959716797e+01,
                le:3.7083995342254639e-01 }
      -
         depth: 9
         value: 3.
         norm_class_idx: 2
         splits:
            - { var:2, quality:1.7947368621826172e+01,
                le:-1.5361180901527405e-01 }
      -
         depth: 10
         value: 4.
         norm_class_idx: 3
      -
         depth: 10
         value: 3.
         norm_class_idx: 2
      -
         depth: 9
         value: 4.
         norm_class_idx: 3
         splits:
            - { var:1, quality:2.1090909957885742e+01,
                le:-1.1999558210372925e+00 }
      -
         depth: 10
         value: 5.
         norm_class_idx: 4
      -
         depth: 10
         value: 4.
         norm_class_idx: 3
      -
         depth: 7
         value: 1.
         norm_class_idx: 0
         splits:
            - { var:5, quality:8.5500175476074219e+01,
                le:3.7951657176017761e-01 }
      -
         depth: 8
         value: 1.
         norm_class_idx: 0
         splits:
            - { var:4, quality:6.2894214630126953e+01,
                le:-7.2551298141479492e-01 }
      -
         depth: 9
         value: 4.
         norm_class_idx: 3
         splits:
            - { var:2, quality:4.2877193450927734e+01,
                le:1.4732363820075989e-01 }
      -
         depth: 10
         value: 1.
         norm_class_idx: 0
      -
         depth: 10
         value: 4.
         norm_class_idx: 3
      -
         depth: 9
         value: 1.
         norm_class_idx: 0
         splits:
            - { var:5, quality:28., le:2.8482256457209587e-03 }
      -
         depth: 10
         value: 4.
         norm_class_idx: 3
      -
         depth: 10
         value: 1.
         norm_class_idx: 0
      -
         depth: 8
         value: 1.
         norm_class_idx: 0
         splits:
            - { var:2, quality:4.6489795684814453e+01,
                le:6.4230465888977051e-01 }
      -
         depth: 9
         value: 1.
         norm_class_idx: 0
         splits:
            - { var:3, quality:4.5710144042968750e+01,
                le:-1.1953210830688477e+00 }
      -
         depth: 10
         value: 4.
         norm_class_idx: 3
      -
         depth: 10
         value: 1.
         norm_class_idx: 0
      -
         depth: 9
         value: 4.
         norm_class_idx: 3
      -
         depth: 3
         value: 3.
         norm_class_idx: 2
         splits:
            - { var:6, quality:2.1765278320312500e+03,
                le:7.7969932556152344e-01 }
      -
         depth: 4
         value: 3.
         norm_class_idx: 2
         splits:
            - { var:4, quality:1.5090845947265625e+03,
                le:-5.8330786228179932e-01 }
      -
         depth: 5
         value: 3.
         norm_class_idx: 2
         splits:
            - { var:4, quality:1.3458166503906250e+03,
                le:-1.0718603134155273e+00 }
      -
         depth: 6
         value: 3.
         norm_class_idx: 2
         splits:
            - { var:4, quality:1.1034864501953125e+03,
                le:-1.1899017095565796e+00 }
      -
         depth: 7
         value: 3.
         norm_class_idx: 2
         splits:
            - { var:1, quality:9.9543591308593750e+02,
                le:-1.2795088291168213e+00 }
      -
         depth: 8
         value: 3.
         norm_class_idx: 2
         splits:
            - { var:1, quality:5., le:-1.2902956008911133e+00 }
      -
         depth: 9
         value: 3.
         norm_class_idx: 2
      -
         depth: 9
         value: 4.
         norm_class_idx: 3
      -
         depth: 8
         value: 3.
         norm_class_idx: 2
         splits:
            - { var:0, quality:9.9228082275390625e+02,
                le:-3.9459469914436340e-01 }
      -
         depth: 9
         value: 3.
         norm_class_idx: 2
         splits:
            - { var:6, quality:4.7159999847412109e+01,
                le:5.6102836132049561e-01 }
      -
         depth: 10
         value: 3.
         norm_class_idx: 2
      -
         depth: 10
         value: 1.
         norm_class_idx: 0
      -
         depth: 9
         value: 3.
         norm_class_idx: 2
         splits:
            - { var:6, quality:9.4706280517578125e+02,
                le:7.2916615009307861e-01 }
      -
         depth: 10
         value: 3.
         norm_class_idx: 2
      -
         depth: 10
         value: 3.
         norm_class_idx: 2
      -
         depth: 7
         value: 3.
         norm_class_idx: 2
         splits:
            - { var:6, quality:1.1320640563964844e+02,
                le:6.6025733947753906e-01 }
      -
         depth: 8
         value: 3.
         norm_class_idx: 2
         splits:
            - { var:3, quality:1.0438359832763672e+02,
                le:-1.2596541643142700e+00 }
      -
         depth: 9
         value: 3.
         norm_class_idx: 2
         splits:
            - { var:0, quality:5.6666665077209473e+00,
                le:-3.0730313062667847e-01 }
      -
         depth: 10
         value: 4.
         norm_class_idx: 3
      -
         depth: 10
         value: 3.
         norm_class_idx: 2
      -
         depth: 9
         value: 3.
         norm_class_idx: 2
         splits:
            - { var:6, quality:1.0074747467041016e+02,
                le:5.2887105941772461e-01 }
      -
         depth: 10
         value: 3.
         norm_class_idx: 2
      -
         depth: 10
         value: 3.
         norm_class_idx: 2
      -
         depth: 8
         value: 3.
         norm_class_idx: 2
         splits:
            - { var:5, quality:19., le:-1.4730332791805267e-01 }
      -
         depth: 9
         value: 4.
         norm_class_idx: 3
      -
         depth: 9
         value: 3.
         norm_class_idx: 2
      -
         depth: 6
         value: 3.
         norm_class_idx: 2
         splits:
            - { var:5, quality:2.6504208374023438e+02,
                le:1.4267991483211517e-01 }
      -
         depth: 7
         value: 3.
         norm_class_idx: 2
         splits:
            - { var:6, quality:2.3047769165039062e+02,
                le:3.2765716314315796e-01 }
      -
         depth: 8
         value: 3.
         norm_class_idx: 2
         splits:
            - { var:6, quality:2.0988063049316406e+02,
                le:-1.8778112530708313e-01 }
      -
         depth: 9
         value: 3.
         norm_class_idx: 2
         splits:
            - { var:5, quality:4.3252281188964844e+01,
                le:-4.2387074232101440e-01 }
      -
         depth: 10
         value: 3.
         norm_class_idx: 2
      -
         depth: 10
         value: 20.
         norm_class_idx: 6
      -
         depth: 9
         value: 3.
         norm_class_idx: 2
         splits:
            - { var:0, quality:1.7530435180664062e+02,
                le:-2.9505169391632080e-01 }
      -
         depth: 10
         value: 3.
         norm_class_idx: 2
      -
         depth: 10
         value: 3.
         norm_class_idx: 2
      -
         depth: 8
         value: 3.
         norm_class_idx: 2
         splits:
            - { var:2, quality:3.3406593322753906e+01,
                le:1.6589408740401268e-02 }
      -
         depth: 9
         value: 4.
         norm_class_idx: 3
         splits:
            - { var:0, quality:9.1999998092651367e+00,
                le:-1.6947439312934875e-01 }
      -
         depth: 10
         value: 4.
         norm_class_idx: 3
      -
         depth: 10
         value: 3.
         norm_class_idx: 2
      -
         depth: 9
         value: 3.
         norm_class_idx: 2
         splits:
            - { var:3, quality:3.1447368621826172e+01,
                le:-6.5638983249664307e-01 }
      -
         depth: 10
         value: 3.
         norm_class_idx: 2
      -
         depth: 10
         value: 2.
         norm_class_idx: 1
      -
         depth: 7
         value: 3.
         norm_class_idx: 2
         splits:
            - { var:0, quality:5.7213184356689453e+01,
                le:-1.4037716388702393e-01 }
      -
         depth: 8
         value: 4.
         norm_class_idx: 3
         splits:
            - { var:5, quality:3.1087301254272461e+01,
                le:3.5010534524917603e-01 }
      -
         depth: 9
         value: 4.
         norm_class_idx: 3
         splits:
            - { var:2, quality:2.0166666030883789e+01,
                le:4.1454765200614929e-01 }
      -
         depth: 10
         value: 4.
         norm_class_idx: 3
      -
         depth: 10
         value: 4.
         norm_class_idx: 3
      -
         depth: 9
         value: 1.
         norm_class_idx: 0
         splits:
            - { var:2, quality:18., le:1.1690117418766022e-01 }
      -
         depth: 10
         value: 3.
         norm_class_idx: 2
      -
         depth: 10
         value: 1.
         norm_class_idx: 0
      -
         depth: 8
         value: 3.
         norm_class_idx: 2
         splits:
            - { var:0, quality:5.2821430206298828e+01,
                le:6.3758987188339233e-01 }
      -
         depth: 9
         value: 3.
         norm_class_idx: 2
         splits:
            - { var:6, quality:4.5043479919433594e+01,
                le:7.5121694803237915e-01 }
      -
         depth: 10
         value: 3.
         norm_class_idx: 2
      -
         depth: 10
         value: 4.
         norm_class_idx: 3
      -
         depth: 9
         value: 4.
         norm_class_idx: 3
         splits:
            - { var:1, quality:14., le:5.9875082969665527e-01 }
      -
         depth: 10
         value: 4.
         norm_class_idx: 3
      -
         depth: 10
         value: 3.
         norm_class_idx: 2
      -
         depth: 5
         value: 3.
         norm_class_idx: 2
         splits:
            - { var:0, quality:2.4512306213378906e+02,
                le:1.0312038660049438e-01 }
      -
         depth: 6
         value: 3.
         norm_class_idx: 2
         splits:
            - { var:5, quality:1.3129031372070312e+02,
                le:-2.4499014019966125e-02 }
      -
         depth: 7
         value: 2.
         norm_class_idx: 1
         splits:
            - { var:0, quality:8.5438232421875000e+01,
                le:-1.3118854165077209e-01 }
      -
         depth: 8
         value: 2.
         norm_class_idx: 1
         splits:
            - { var:5, quality:6.4842674255371094e+01,
                le:-7.4016904830932617e-01 }
      -
         depth: 9
         value: 3.
         norm_class_idx: 2
         splits:
            - { var:6, quality:1.8215909957885742e+01,
                le:-7.5099647045135498e-01 }
      -
         depth: 10
         value: 4.
         norm_class_idx: 3
      -
         depth: 10
         value: 3.
         norm_class_idx: 2
      -
         depth: 9
         value: 2.
         norm_class_idx: 1
         splits:
            - { var:2, quality:6.0177883148193359e+01,
                le:-6.0172593593597412e-01 }
      -
         depth: 10
         value: 3.
         norm_class_idx: 2
      -
         depth: 10
         value: 2.
         norm_class_idx: 1
      -
         depth: 8
         value: 3.
         norm_class_idx: 2
         splits:
            - { var:6, quality:4.3049999237060547e+01,
                le:-7.0781350135803223e-01 }
      -
         depth: 9
         value: 2.
         norm_class_idx: 1
      -
         depth: 9
         value: 3.
         norm_class_idx: 2
         splits:
            - { var:2, quality:40., le:3.2739150524139404e-01 }
      -
         depth: 10
         value: 3.
         norm_class_idx: 2
      -
         depth: 10
         value: 2.
         norm_class_idx: 1
      -
         depth: 7
         value: 1.
         norm_class_idx: 0
         splits:
            - { var:1, quality:9.3374198913574219e+01,
                le:-9.8348870873451233e-02 }
      -
         depth: 8
         value: 3.
         norm_class_idx: 2
         splits:
            - { var:5, quality:3.5996318817138672e+01,
                le:3.3462589979171753e-01 }
      -
         depth: 9
         value: 5.
         norm_class_idx: 4
         splits:
            - { var:2, quality:2.0728937149047852e+01,
                le:2.9203569889068604e-01 }
      -
         depth: 10
         value: 5.
         norm_class_idx: 4
      -
         depth: 10
         value: 2.
         norm_class_idx: 1
      -
         depth: 9
         value: 3.
         norm_class_idx: 2
         splits:
            - { var:1, quality:2.8701389312744141e+01,
                le:-3.1138917803764343e-01 }
      -
         depth: 10
         value: 3.
         norm_class_idx: 2
      -
         depth: 10
         value: 1.
         norm_class_idx: 0
      -
         depth: 8
         value: 1.
         norm_class_idx: 0
         splits:
            - { var:2, quality:1.0165306091308594e+02,
                le:1.1525669693946838e-01 }
      -
         depth: 9
         value: 10.
         norm_class_idx: 5
         splits:
            - { var:6, quality:28., le:5.3859148174524307e-02 }
      -
         depth: 10
         value: 20.
         norm_class_idx: 6
      -
         depth: 10
         value: 10.
         norm_class_idx: 5
      -
         depth: 9
         value: 1.
         norm_class_idx: 0
         splits:
            - { var:0, quality:8.8391754150390625e+01,
                le:-4.2369192838668823e-01 }
      -
         depth: 10
         value: 4.
         norm_class_idx: 3
      -
         depth: 10
         value: 1.
         norm_class_idx: 0
      -
         depth: 6
         value: 20.
         norm_class_idx: 6
         splits:
            - { var:4, quality:1.9182679748535156e+02,
                le:-9.5866382122039795e-02 }
      -
         depth: 7
         value: 3.
         norm_class_idx: 2
         splits:
            - { var:5, quality:9.9818595886230469e+01,
                le:9.0736848115921021e-01 }
      -
         depth: 8
         value: 3.
         norm_class_idx: 2
         splits:
            - { var:6, quality:9.4774543762207031e+01,
                le:5.3484320640563965e-01 }
      -
         depth: 9
         value: 3.
         norm_class_idx: 2
         splits:
            - { var:4, quality:9.3507446289062500e+01,
                le:-4.3415907025337219e-01 }
      -
         depth: 10
         value: 20.
         norm_class_idx: 6
      -
         depth: 10
         value: 3.
         norm_class_idx: 2
      -
         depth: 9
         value: 5.
         norm_class_idx: 4
         splits:
            - { var:5, quality:1.2304761886596680e+01,
                le:5.4721140861511230e-01 }
      -
         depth: 10
         value: 5.
         norm_class_idx: 4
      -
         depth: 10
         value: 3.
         norm_class_idx: 2
      -
         depth: 8
         value: 20.
         norm_class_idx: 6
         splits:
            - { var:2, quality:17., le:4.4332560896873474e-01 }
      -
         depth: 9
         value: 20.
         norm_class_idx: 6
      -
         depth: 9
         value: 3.
         norm_class_idx: 2
         splits:
            - { var:0, quality:2., le:6.6668701171875000e-01 }
      -
         depth: 10
         value: 3.
         norm_class_idx: 2
      -
         depth: 10
         value: 20.
         norm_class_idx: 6
      -
         depth: 7
         value: 20.
         norm_class_idx: 6
         splits:
            - { var:5, quality:1.2437059020996094e+02,
                le:8.8501513004302979e-02 }
      -
         depth: 8
         value: 3.
         norm_class_idx: 2
         splits:
            - { var:4, quality:1.6333333969116211e+01,
                le:1.3854993879795074e-01 }
      -
         depth: 9
         value: 20.
         norm_class_idx: 6
      -
         depth: 9
         value: 3.
         norm_class_idx: 2
         splits:
            - { var:1, quality:17., le:1.3626500964164734e-01 }
      -
         depth: 10
         value: 2.
         norm_class_idx: 1
      -
         depth: 10
         value: 3.
         norm_class_idx: 2
      -
         depth: 8
         value: 20.
         norm_class_idx: 6
         splits:
            - { var:0, quality:1.1524824523925781e+02,
                le:9.1018456220626831e-01 }
      -
         depth: 9
         value: 20.
         norm_class_idx: 6
         splits:
            - { var:2, quality:9.7754013061523438e+01,
                le:1.5883477032184601e-01 }
      -
         depth: 10
         value: 20.
         norm_class_idx: 6
      -
         depth: 10
         value: 20.
         norm_class_idx: 6
      -
         depth: 9
         value: 20.
         norm_class_idx: 6
         splits:
            - { var:2, quality:2.8894737243652344e+01,
                le:3.4383594989776611e-01 }
      -
         depth: 10
         value: 3.
         norm_class_idx: 2
      -
         depth: 10
         value: 20.
         norm_class_idx: 6
      -
         depth: 4
         value: 3.
         norm_class_idx: 2
         splits:
            - { var:2, quality:1.1457633056640625e+03,
                le:1.8666018247604370e+00 }
      -
         depth: 5
         value: 5.
         norm_class_idx: 4
         splits:
            - { var:4, quality:5.3182000732421875e+02,
                le:-5.0498390197753906e-01 }
      -
         depth: 6
         value: 5.
         norm_class_idx: 4
         splits:
            - { var:5, quality:4.7907806396484375e+02,
                le:1.7829937934875488e+00 }
      -
         depth: 7
         value: 5.
         norm_class_idx: 4
         splits:
            - { var:6, quality:4.9236489868164062e+02,
                le:1.7003216743469238e+00 }
      -
         depth: 8
         value: 3.
         norm_class_idx: 2
         splits:
            - { var:2, quality:2.5321275329589844e+02,
                le:1.0698630809783936e+00 }
      -
         depth: 9
         value: 5.
         norm_class_idx: 4
         splits:
            - { var:3, quality:2.3035012817382812e+02,
                le:-1.1055932044982910e+00 }
      -
         depth: 10
         value: 3.
         norm_class_idx: 2
      -
         depth: 10
         value: 5.
         norm_class_idx: 4
      -
         depth: 9
         value: 4.
         norm_class_idx: 3
         splits:
            - { var:5, quality:7.3104614257812500e+01,
                le:7.1439033746719360e-01 }
      -
         depth: 10
         value: 20.
         norm_class_idx: 6
      -
         depth: 10
         value: 4.
         norm_class_idx: 3
      -
         depth: 8
         value: 5.
         norm_class_idx: 4
         splits:
            - { var:5, quality:3.0156930541992188e+02,
                le:1.0776431560516357e+00 }
      -
         depth: 9
         value: 3.
         norm_class_idx: 2
         splits:
            - { var:0, quality:4.6704433441162109e+01,
                le:1.2180023193359375e+00 }
      -
         depth: 10
         value: 5.
         norm_class_idx: 4
      -
         depth: 10
         value: 3.
         norm_class_idx: 2
      -
         depth: 9
         value: 5.
         norm_class_idx: 4
         splits:
            - { var:2, quality:2.9303897094726562e+02,
                le:1.7284675836563110e+00 }
      -
         depth: 10
         value: 5.
         norm_class_idx: 4
      -
         depth: 10
         value: 3.
         norm_class_idx: 2
      -
         depth: 7
         value: 4.
         norm_class_idx: 3
         splits:
            - { var:4, quality:1.0725000000000000e+02,
                le:-8.4883153438568115e-01 }
      -
         depth: 8
         value: 4.
         norm_class_idx: 3
      -
         depth: 8
         value: 3.
         norm_class_idx: 2
         splits:
            - { var:5, quality:3.0064516067504883e+01,
                le:1.7958929538726807e+00 }
      -
         depth: 9
         value: 5.
         norm_class_idx: 4
      -
         depth: 9
         value: 3.
         norm_class_idx: 2
         splits:
            - { var:1, quality:30., le:1.6086695194244385e+00 }
      -
         depth: 10
         value: 3.
         norm_class_idx: 2
      -
         depth: 10
         value: 3.
         norm_class_idx: 2
      -
         depth: 6
         value: 3.
         norm_class_idx: 2
         splits:
            - { var:4, quality:1.2347444152832031e+02,
                le:1.2882891297340393e-01 }
      -
         depth: 7
         value: 3.
         norm_class_idx: 2
         splits:
            - { var:6, quality:1.0207749938964844e+02,
                le:1.6226844787597656e+00 }
      -
         depth: 8
         value: 20.
         norm_class_idx: 6
         splits:
            - { var:5, quality:7.9803878784179688e+01,
                le:1.2535938024520874e+00 }
      -
         depth: 9
         value: 3.
         norm_class_idx: 2
         splits:
            - { var:0, quality:4.5005950927734375e+01,
                le:7.5244718790054321e-01 }
      -
         depth: 10
         value: 20.
         norm_class_idx: 6
      -
         depth: 10
         value: 3.
         norm_class_idx: 2
      -
         depth: 9
         value: 20.
         norm_class_idx: 6
         splits:
            - { var:3, quality:5.2252525329589844e+01,
                le:-2.4951091408729553e-01 }
      -
         depth: 10
         value: 3.
         norm_class_idx: 2
      -
         depth: 10
         value: 20.
         norm_class_idx: 6
      -
         depth: 8
         value: 3.
         norm_class_idx: 2
         splits:
            - { var:5, quality:4.7506668090820312e+01,
                le:1.2819730043411255e+00 }
      -
         depth: 9
         value: 5.
         norm_class_idx: 4
         splits:
            - { var:5, quality:1.0222222328186035e+01,
                le:1.1189217567443848e+00 }
      -
         depth: 10
         value: 3.
         norm_class_idx: 2
      -
         depth: 10
         value: 5.
         norm_class_idx: 4
      -
         depth: 9
         value: 3.
         norm_class_idx: 2
         splits:
            - { var:3, quality:4.3250000000000000e+01,
                le:-4.9386399984359741e-01 }
      -
         depth: 10
         value: 3.
         norm_class_idx: 2
      -
         depth: 10
         value: 3.
         norm_class_idx: 2
      -
         depth: 7
         value: 20.
         norm_class_idx: 6
         splits:
            - { var:1, quality:4.3043190002441406e+01,
                le:1.1664087772369385e+00 }
      -
         depth: 8
         value: 3.
         norm_class_idx: 2
         splits:
            - { var:4, quality:6., le:2.0493096113204956e-01 }
      -
         depth: 9
         value: 5.
         norm_class_idx: 4
         splits:
            - { var:0, quality:2., le:9.3928176164627075e-01 }
      -
         depth: 10
         value: 20.
         norm_class_idx: 6
      -
         depth: 10
         value: 5.
         norm_class_idx: 4
      -
         depth: 9
         value: 3.
         norm_class_idx: 2
      -
         depth: 8
         value: 20.
         norm_class_idx: 6
         splits:
            - { var:0, quality:4.1047618865966797e+01,
                le:1.1659336090087891e+00 }
      -
         depth: 9
         value: 3.
         norm_class_idx: 2
      -
         depth: 9
         value: 20.
         norm_class_idx: 6
         splits:
            - { var:5, quality:42., le:1.3057081699371338e+00 }
      -
         depth: 10
         value: 3.
         norm_class_idx: 2
      -
         depth: 10
         value: 20.
         norm_class_idx: 6
      -
         depth: 5
         value: 3.
         norm_class_idx: 2
         splits:
            - { var:5, quality:7.1600769042968750e+02,
                le:2.1983606815338135e+00 }
      -
         depth: 6
         value: 3.
         norm_class_idx: 2
         splits:
            - { var:4, quality:2.1860015869140625e+02,
                le:-8.6882913112640381e-01 }
      -
         depth: 7
         value: 4.
         norm_class_idx: 3
         splits:
            - { var:6, quality:23., le:2.0439472198486328e+00 }
      -
         depth: 8
         value: 3.
         norm_class_idx: 2
      -
         depth: 8
         value: 4.
         norm_class_idx: 3
      -
         depth: 7
         value: 3.
         norm_class_idx: 2
         splits:
            - { var:6, quality:2.1801852416992188e+02,
                le:2.1316912174224854e+00 }
      -
         depth: 8
         value: 3.
         norm_class_idx: 2
         splits:
            - { var:5, quality:1.0025242614746094e+02,
                le:7.8198409080505371e-01 }
      -
         depth: 9
         value: 20.
         norm_class_idx: 6
      -
         depth: 9
         value: 3.
         norm_class_idx: 2
         splits:
            - { var:4, quality:9.9059402465820312e+01,
                le:9.3277700245380402e-02 }
      -
         depth: 10
         value: 3.
         norm_class_idx: 2
      -
         depth: 10
         value: 20.
         norm_class_idx: 6
      -
         depth: 8
         value: 3.
         norm_class_idx: 2
         splits:
            - { var:6, quality:1.6239062500000000e+02,
                le:2.5217151641845703e+00 }
      -
         depth: 9
         value: 5.
         norm_class_idx: 4
         splits:
            - { var:5, quality:8.4189186096191406e+01,
                le:1.1756801605224609e+00 }
      -
         depth: 10
         value: 3.
         norm_class_idx: 2
      -
         depth: 10
         value: 5.
         norm_class_idx: 4
      -
         depth: 9
         value: 3.
         norm_class_idx: 2
         splits:
            - { var:0, quality:1.1247222900390625e+02,
                le:2.3635129928588867e+00 }
      -
         depth: 10
         value: 3.
         norm_class_idx: 2
      -
         depth: 10
         value: 3.
         norm_class_idx: 2
      -
         depth: 6
         value: 3.
         norm_class_idx: 2
         splits:
            - { var:3, quality:5.1513690185546875e+02,
                le:2.2395847737789154e-01 }
      -
         depth: 7
         value: 3.
         norm_class_idx: 2
         splits:
            - { var:4, quality:5.1520452880859375e+02,
                le:9.2999905347824097e-02 }
      -
         depth: 8
         value: 3.
         norm_class_idx: 2
         splits:
            - { var:5, quality:5.1147784423828125e+02,
                le:2.3345806598663330e+00 }
      -
         depth: 9
         value: 3.
         norm_class_idx: 2
         splits:
            - { var:0, quality:38., le:2.7402446269989014e+00 }
      -
         depth: 10
         value: 3.
         norm_class_idx: 2
      -
         depth: 10
         value: 5.
         norm_class_idx: 4
      -
         depth: 9
         value: 3.
         norm_class_idx: 2
         splits:
            - { var:5, quality:4.7905883789062500e+02,
                le:2.3980464935302734e+00 }
      -
         depth: 10
         value: 3.
         norm_class_idx: 2
      -
         depth: 10
         value: 3.
         norm_class_idx: 2
      -
         depth: 8
         value: 3.
         norm_class_idx: 2
         splits:
            - { var:1, quality:7., le:3.0541069507598877e+00 }
      -
         depth: 9
         value: 5.
         norm_class_idx: 4
      -
         depth: 9
         value: 3.
         norm_class_idx: 2
      -
         depth: 7
         value: 5.
         norm_class_idx: 4
      -
         depth: 2
         value: 1.
         norm_class_idx: 0
         splits:
            - { var:5, quality:2.4466137695312500e+03,
                le:4.8116540908813477e-01 }
      -
         depth: 3
         value: 1.
         norm_class_idx: 0
         splits:
            - { var:5, quality:2.4526005859375000e+03,
                le:-7.4120104312896729e-01 }
      -
         depth: 4
         value: 1.
         norm_class_idx: 0
         splits:
            - { var:3, quality:3.1230770111083984e+01,
                le:2.2047419548034668e+00 }
      -
         depth: 5
         value: 1.
         norm_class_idx: 0
         splits:
            - { var:3, quality:2.8971427917480469e+01,
                le:1.2702186107635498e+00 }
      -
         depth: 6
         value: 3.
         norm_class_idx: 2
         splits:
            - { var:6, quality:1.9230770111083984e+01,
                le:-1.0665988922119141e+00 }
      -
         depth: 7
         value: 2.
         norm_class_idx: 1
      -
         depth: 7
         value: 3.
         norm_class_idx: 2
         splits:
            - { var:2, quality:1.5082706451416016e+01,
                le:-7.0697104930877686e-01 }
      -
         depth: 8
         value: 3.
         norm_class_idx: 2
         splits:
            - { var:0, quality:1.5791666984558105e+01,
                le:-6.4728081226348877e-01 }
      -
         depth: 9
         value: 1.
         norm_class_idx: 0
         splits:
            - { var:0, quality:3., le:-7.7592110633850098e-01 }
      -
         depth: 10
         value: 1.
         norm_class_idx: 0
      -
         depth: 10
         value: 2.
         norm_class_idx: 1
      -
         depth: 9
         value: 3.
         norm_class_idx: 2
         splits:
            - { var:1, quality:16., le:4.7273419797420502e-02 }
      -
         depth: 10
         value: 3.
         norm_class_idx: 2
      -
         depth: 10
         value: 1.
         norm_class_idx: 0
      -
         depth: 8
         value: 2.
         norm_class_idx: 1
         splits:
            - { var:6, quality:5.5000000000000000e+00,
                le:-9.3842840194702148e-01 }
      -
         depth: 9
         value: 2.
         norm_class_idx: 1
      -
         depth: 9
         value: 4.
         norm_class_idx: 3
         splits:
            - { var:1, quality:4., le:5.8060355484485626e-02 }
      -
         depth: 10
         value: 4.
         norm_class_idx: 3
      -
         depth: 10
         value: 1.
         norm_class_idx: 0
      -
         depth: 6
         value: 1.
         norm_class_idx: 0
      -
         depth: 5
         value: 5.
         norm_class_idx: 4
      -
         depth: 4
         value: 1.
         norm_class_idx: 0
         splits:
            - { var:0, quality:2.4543945312500000e+03,
                le:-5.6917786598205566e-01 }
      -
         depth: 5
         value: 1.
         norm_class_idx: 0
         splits:
            - { var:0, quality:2.0273789062500000e+03,
                le:-6.8556666374206543e-01 }
      -
         depth: 6
         value: 1.
         norm_class_idx: 0
         splits:
            - { var:6, quality:1.6771688232421875e+03,
                le:-7.3078310489654541e-01 }
      -
         depth: 7
         value: 1.
         norm_class_idx: 0
         splits:
            - { var:4, quality:1.4941110839843750e+03,
                le:8.7318426370620728e-01 }
      -
         depth: 8
         value: 1.
         norm_class_idx: 0
         splits:
            - { var:4, quality:18., le:8.2319021224975586e-01 }
      -
         depth: 9
         value: 1.
         norm_class_idx: 0
      -
         depth: 9
         value: 4.
         norm_class_idx: 3
      -
         depth: 8
         value: 1.
         norm_class_idx: 0
      -
         depth: 7
         value: 1.
         norm_class_idx: 0
         splits:
            - { var:5, quality:1.8566667175292969e+02,
                le:-3.7330436706542969e-01 }
      -
         depth: 8
         value: 1.
         norm_class_idx: 0
         splits:
            - { var:1, quality:8.7500000000000000e+00,
                le:-2.0082414150238037e-01 }
      -
         depth: 9
         value: 3.
         norm_class_idx: 2
         splits:
            - { var:0, quality:4., le:-8.3411544561386108e-01 }
      -
         depth: 10
         value: 1.
         norm_class_idx: 0
      -
         depth: 10
         value: 3.
         norm_class_idx: 2
      -
         depth: 9
         value: 1.
         norm_class_idx: 0
         splits:
            - { var:2, quality:8., le:-1.1361739635467529e+00 }
      -
         depth: 10
         value: 3.
         norm_class_idx: 2
      -
         depth: 10
         value: 1.
         norm_class_idx: 0
      -
         depth: 8
         value: 1.
         norm_class_idx: 0
      -
         depth: 6
         value: 1.
         norm_class_idx: 0
         splits:
            - { var:6, quality:3.5409091186523438e+02,
                le:-1.0964593887329102e+00 }
      -
         depth: 7
         value: 4.
         norm_class_idx: 3
      -
         depth: 7
         value: 1.
         norm_class_idx: 0
         splits:
            - { var:5, quality:3.5389529418945312e+02,
                le:-7.0508205890655518e-01 }
      -
         depth: 8
         value: 1.
         norm_class_idx: 0
         splits:
            - { var:0, quality:2., le:-6.7484664916992188e-01 }
      -
         depth: 9
         value: 2.
         norm_class_idx: 1
      -
         depth: 9
         value: 1.
         norm_class_idx: 0
         splits:
            - { var:0, quality:2., le:-6.4268660545349121e-01 }
      -
         depth: 10
         value: 4.
         norm_class_idx: 3
      -
         depth: 10
         value: 1.
         norm_class_idx: 0
      -
         depth: 8
         value: 1.
         norm_class_idx: 0
         splits:
            - { var:5, quality:3.5416876220703125e+02,
                le:-3.3873337507247925e-01 }
      -
         depth: 9
         value: 1.
         norm_class_idx: 0
         splits:
            - { var:6, quality:1.1785466766357422e+02,
                le:-6.9035655260086060e-01 }
      -
         depth: 10
         value: 1.
         norm_class_idx: 0
      -
         depth: 10
         value: 3.
         norm_class_idx: 2
      -
         depth: 9
         value: 1.
         norm_class_idx: 0
         splits:
            - { var:6, quality:2.4316667175292969e+02,
                le:-4.7490146756172180e-01 }
      -
         depth: 10
         value: 1.
         norm_class_idx: 0
      -
         depth: 10
         value: 1.
         norm_class_idx: 0
      -
         depth: 5
         value: 1.
         norm_class_idx: 0
         splits:
            - { var:5, quality:4.6380242919921875e+02,
                le:-4.9920445680618286e-01 }
      -
         depth: 6
         value: 4.
         norm_class_idx: 3
         splits:
            - { var:1, quality:3.7230770111083984e+01,
                le:1.4981043338775635e+00 }
      -
         depth: 7
         value: 4.
         norm_class_idx: 3
         splits:
            - { var:3, quality:3.3172412872314453e+01,
                le:1.9790116548538208e+00 }
      -
         depth: 8
         value: 4.
         norm_class_idx: 3
         splits:
            - { var:2, quality:2.0600000381469727e+01,
                le:-5.5403667688369751e-01 }
      -
         depth: 9
         value: 1.
         norm_class_idx: 0
         splits:
            - { var:1, quality:12., le:-1.3610306382179260e-01 }
      -
         depth: 10
         value: 2.
         norm_class_idx: 1
      -
         depth: 10
         value: 1.
         norm_class_idx: 0
      -
         depth: 9
         value: 4.
         norm_class_idx: 3
      -
         depth: 8
         value: 4.
         norm_class_idx: 3
      -
         depth: 7
         value: 1.
         norm_class_idx: 0
      -
         depth: 6
         value: 1.
         norm_class_idx: 0
         splits:
            - { var:5, quality:4.4428591918945312e+02,
                le:-1.2356795370578766e-01 }
      -
         depth: 7
         value: 1.
         norm_class_idx: 0
         splits:
            - { var:2, quality:1.7060099792480469e+02,
                le:-3.0572393536567688e-01 }
      -
         depth: 8
         value: 1.
         norm_class_idx: 0
         splits:
            - { var:1, quality:7.2747474670410156e+01,
                le:6.4801938831806183e-02 }
      -
         depth: 9
         value: 1.
         norm_class_idx: 0
         splits:
            - { var:6, quality:4.6764705657958984e+01,
                le:-6.4717370271682739e-01 }
      -
         depth: 10
         value: 1.
         norm_class_idx: 0
      -
         depth: 10
         value: 3.
         norm_class_idx: 2
      -
         depth: 9
         value: 4.
         norm_class_idx: 3
         splits:
            - { var:0, quality:4.1511112213134766e+01,
                le:-4.9107491970062256e-01 }
      -
         depth: 10
         value: 1.
         norm_class_idx: 0
      -
         depth: 10
         value: 4.
         norm_class_idx: 3
      -
         depth: 8
         value: 1.
         norm_class_idx: 0
         splits:
            - { var:0, quality:1.1401754760742188e+02,
                le:1.2766021303832531e-02 }
      -
         depth: 9
         value: 1.
         norm_class_idx: 0
         splits:
            - { var:4, quality:1.1225000000000000e+02,
                le:9.0151393413543701e-01 }
      -
         depth: 10
         value: 1.
         norm_class_idx: 0
      -
         depth: 10
         value: 1.
         norm_class_idx: 0
      -
         depth: 9
         value: 3.
         norm_class_idx: 2
      -
         depth: 7
         value: 1.
         norm_class_idx: 0
         splits:
            - { var:0, quality:2.9000695800781250e+02,
                le:1.1234564706683159e-02 }
      -
         depth: 8
         value: 1.
         norm_class_idx: 0
         splits:
            - { var:6, quality:288., le:-2.6993922889232635e-02 }
      -
         depth: 9
         value: 1.
         norm_class_idx: 0
      -
         depth: 9
         value: 10.
         norm_class_idx: 5
      -
         depth: 8
         value: 1.
         norm_class_idx: 0
         splits:
            - { var:2, quality:8., le:1.3992345333099365e-01 }
      -
         depth: 9
         value: 20.
         norm_class_idx: 6
      -
         depth: 9
         value: 1.
         norm_class_idx: 0
      -
         depth: 3
         value: 20.
         norm_class_idx: 6
         splits:
            - { var:1, quality:5.6285713195800781e+01,
                le:2.3604342341423035e-01 }
      -
         depth: 4
         value: 10.
         norm_class_idx: 5
      -
         depth: 4
         value: 20.
         norm_class_idx: 6
         splits:
            - { var:6, quality:3.8145454406738281e+01,
                le:2.4588528275489807e-01 }
      -
         depth: 5
         value: 20.
         norm_class_idx: 6
         splits:
            - { var:0, quality:2.6576923370361328e+01,
                le:-8.6741447448730469e-03 }
      -
         depth: 6
         value: 1.
         norm_class_idx: 0
         splits:
            - { var:0, quality:4., le:-2.1848022937774658e-01 }
      -
         depth: 7
         value: 1.
         norm_class_idx: 0
      -
         depth: 7
         value: 3.
         norm_class_idx: 2
      -
         depth: 6
         value: 20.
         norm_class_idx: 6
         splits:
            - { var:6, quality:2.4399999618530273e+01,
                le:1.9718955457210541e-01 }
      -
         depth: 7
         value: 20.
         norm_class_idx: 6
      -
         depth: 7
         value: 20.
         norm_class_idx: 6
         splits:
            - { var:0, quality:5., le:3.9102953672409058e-01 }
      -
         depth: 8
         value: 3.
         norm_class_idx: 2
      -
         depth: 8
         value: 20.
         norm_class_idx: 6
      -
         depth: 5
         value: 3.
         norm_class_idx: 2
         splits:
            - { var:0, quality:2.9500000000000000e+01,
                le:7.0497274398803711e-01 }
      -
         depth: 6
         value: 3.
         norm_class_idx: 2
      -
         depth: 6
         value: 20.
         norm_class_idx: 6
         splits:
            - { var:0, quality:1.4133333206176758e+01,
                le:1.3818655014038086e+00 }
      -
         depth: 7
         value: 20.
         norm_class_idx: 6
         splits:
            - { var:6, quality:15., le:6.6898572444915771e-01 }
      -
         depth: 8
         value: 20.
         norm_class_idx: 6
      -
         depth: 8
         value: 3.
         norm_class_idx: 2
      -
         depth: 7
         value: 3.
         norm_class_idx: 2
