%YAML:1.0
---
opencv_ml_dtree:
   format: 3
   is_classifier: 1
   var_all: 8
   var_count: 7
   ord_var_count: 7
   cat_var_count: 1
   training_params:
      use_surrogates: 0
      max_categories: 10
      regression_accuracy: 9.9999997764825821e-03
      max_depth: 10
      min_sample_count: 1
      cross_validation_folds: 0
   global_var_idx: 1
   var_idx: [ 0, 1, 2, 3, 4, 5, 6 ]
   var_type: [ 0, 0, 0, 0, 0, 0, 0, 1 ]
   cat_ofs: [ 0, 0, 0, 0, 0, 0, 0, 0, 0, 0, 0, 0, 0, 0 ]
   class_labels: [ 1, 2, 3, 4, 5, 10, 20 ]
   missing_subst: [ 0., 0., 0., 0., 0., 0., 0., 0. ]
   nodes:
      -
         depth: 0
         value: 3.
         norm_class_idx: 2
         splits:
            - { var:5, quality:3.9729445800781250e+03,
                le:-3.9463555812835693e-01 }
      -
         depth: 1
         value: 3.
         norm_class_idx: 2
         splits:
            - { var:4, quality:2.3627307128906250e+03,
                le:6.7163395881652832e-01 }
      -
         depth: 2
         value: 3.
         norm_class_idx: 2
         splits:
            - { var:5, quality:1.9449489746093750e+03,
                le:-1.0892688035964966e+00 }
      -
         depth: 3
         value: 3.
         norm_class_idx: 2
         splits:
            - { var:2, quality:1.3654234619140625e+03,
                le:-1.3971669673919678e+00 }
      -
         depth: 4
         value: 2.
         norm_class_idx: 1
         splits:
            - { var:3, quality:5.5944442749023438e+01,
                le:5.1577961444854736e-01 }
      -
         depth: 5
         value: 2.
         norm_class_idx: 1
         splits:
            - { var:2, quality:4.5043479919433594e+01,
                le:-1.3989036083221436e+00 }
      -
         depth: 6
         value: 2.
         norm_class_idx: 1
         splits:
            - { var:2, quality:4.4333332061767578e+01,
                le:-1.4151138067245483e+00 }
      -
         depth: 7
         value: 2.
         norm_class_idx: 1
      -
         depth: 7
         value: 2.
         norm_class_idx: 1
         splits:
            - { var:5, quality:6., le:-1.7389923334121704e+00 }
      -
         depth: 8
         value: 3.
         norm_class_idx: 2
      -
         depth: 8
         value: 2.
         norm_class_idx: 1
      -
         depth: 6
         value: 2.
         norm_class_idx: 1
         splits:
            - { var:0, quality:2., le:-1.4326618909835815e+00 }
      -
         depth: 7
         value: 3.
         norm_class_idx: 2
      -
         depth: 7
         value: 2.
         norm_class_idx: 1
      -
         depth: 5
         value: 3.
         norm_class_idx: 2
         splits:
            - { var:5, quality:18., le:-1.7465474605560303e+00 }
      -
         depth: 6
         value: 3.
         norm_class_idx: 2
      -
         depth: 6
         value: 2.
         norm_class_idx: 1
      -
         depth: 4
         value: 3.
         norm_class_idx: 2
         splits:
            - { var:0, quality:1.3434437255859375e+03,
                le:-5.1532667875289917e-01 }
      -
         depth: 5
         value: 3.
         norm_class_idx: 2
         splits:
            - { var:2, quality:1.3523898925781250e+03,
                le:-1.2582235336303711e+00 }
      -
         depth: 6
         value: 3.
         norm_class_idx: 2
         splits:
            - { var:5, quality:2.4624645996093750e+02,
                le:-1.5694262981414795e+00 }
      -
         depth: 7
         value: 3.
         norm_class_idx: 2
         splits:
            - { var:2, quality:1.9650000000000000e+02,
                le:-1.3919565677642822e+00 }
      -
         depth: 8
         value: 3.
         norm_class_idx: 2
         splits:
            - { var:0, quality:4., le:-1.3664515018463135e+00 }
      -
         depth: 9
         value: 3.
         norm_class_idx: 2
      -
         depth: 9
         value: 2.
         norm_class_idx: 1
      -
         depth: 8
         value: 3.
         norm_class_idx: 2
      -
         depth: 7
         value: 2.
         norm_class_idx: 1
         splits:
            - { var:5, quality:6.9520835876464844e+01,
                le:-1.2181224822998047e+00 }
      -
         depth: 8
         value: 2.
         norm_class_idx: 1
         splits:
            - { var:1, quality:6.7024475097656250e+01,
                le:-1.5847024917602539e+00 }
      -
         depth: 9
         value: 3.
         norm_class_idx: 2
         splits:
            - { var:4, quality:3.1878787994384766e+01,
                le:2.7045443654060364e-01 }
      -
         depth: 10
         value: 2.
         norm_class_idx: 1
      -
         depth: 10
         value: 3.
         norm_class_idx: 2
      -
         depth: 9
         value: 2.
         norm_class_idx: 1
         splits:
            - { var:1, quality:52., le:-1.3901553153991699e+00 }
      -
         depth: 10
         value: 2.
         norm_class_idx: 1
      -
         depth: 10
         value: 3.
         norm_class_idx: 2
      -
         depth: 8
         value: 4.
         norm_class_idx: 3
      -
         depth: 6
         value: 3.
         norm_class_idx: 2
         splits:
            - { var:6, quality:1.1819122314453125e+03,
                le:-8.6826306581497192e-01 }
      -
         depth: 7
         value: 3.
         norm_class_idx: 2
         splits:
            - { var:0, quality:1.1704058837890625e+03,
                le:-7.4172377586364746e-01 }
      -
         depth: 8
         value: 3.
         norm_class_idx: 2
         splits:
            - { var:1, quality:1.1473090820312500e+03,
                le:-1.4743623733520508e+00 }
      -
         depth: 9
         value: 3.
         norm_class_idx: 2
         splits:
            - { var:5, quality:1.1264919281005859e+02,
                le:-1.5895729064941406e+00 }
      -
         depth: 10
         value: 3.
         norm_class_idx: 2
      -
         depth: 10
         value: 3.
         norm_class_idx: 2
      -
         depth: 9
         value: 3.
         norm_class_idx: 2
         splits:
            - { var:6, quality:1.0457138671875000e+03,
                le:-9.1965270042419434e-01 }
      -
         depth: 10
         value: 3.
         norm_class_idx: 2
      -
         depth: 10
         value: 3.
         norm_class_idx: 2
      -
         depth: 8
         value: 3.
         norm_class_idx: 2
         splits:
            - { var:6, quality:4.1338096618652344e+01,
                le:-1.2161896228790283e+00 }
      -
         depth: 9
         value: 2.
         norm_class_idx: 1
         splits:
            - { var:1, quality:12., le:-7.2133862972259521e-01 }
      -
         depth: 10
         value: 2.
         norm_class_idx: 1
      -
         depth: 10
         value: 20.
         norm_class_idx: 6
      -
         depth: 9
         value: 3.
         norm_class_idx: 2
         splits:
            - { var:2, quality:3.3058822631835938e+01,
                le:-8.5934078693389893e-01 }
      -
         depth: 10
         value: 20.
         norm_class_idx: 6
      -
         depth: 10
         value: 3.
         norm_class_idx: 2
      -
         depth: 7
         value: 3.
         norm_class_idx: 2
         splits:
            - { var:2, quality:3.1125000000000000e+01,
                le:-8.3560466766357422e-01 }
      -
         depth: 8
         value: 2.
         norm_class_idx: 1
         splits:
            - { var:0, quality:16., le:-8.7094092369079590e-01 }
      -
         depth: 9
         value: 2.
         norm_class_idx: 1
      -
         depth: 9
         value: 3.
         norm_class_idx: 2
      -
         depth: 8
         value: 3.
         norm_class_idx: 2
      -
         depth: 5
         value: 5.
         norm_class_idx: 4
         splits:
            - { var:1, quality:12., le:-5.1808017492294312e-01 }
      -
         depth: 6
         value: 2.
         norm_class_idx: 1
      -
         depth: 6
         value: 5.
         norm_class_idx: 4
      -
         depth: 3
         value: 3.
         norm_class_idx: 2
         splits:
            - { var:2, quality:8.1033953857421875e+02,
                le:-8.2055246829986572e-01 }
      -
         depth: 4
         value: 2.
         norm_class_idx: 1
         splits:
            - { var:0, quality:1.6888682556152344e+02,
                le:-1.2468454837799072e+00 }
      -
         depth: 5
         value: 4.
         norm_class_idx: 3
         splits:
            - { var:4, quality:3.9228572845458984e+01,
                le:1.1250561475753784e-01 }
      -
         depth: 6
         value: 2.
         norm_class_idx: 1
      -
         depth: 6
         value: 4.
         norm_class_idx: 3
         splits:
            - { var:1, quality:35., le:-1.2043192386627197e+00 }
      -
         depth: 7
         value: 4.
         norm_class_idx: 3
      -
         depth: 7
         value: 2.
         norm_class_idx: 1
      -
         depth: 5
         value: 2.
         norm_class_idx: 1
         splits:
            - { var:2, quality:1.5778327941894531e+02,
                le:-9.3865418434143066e-01 }
      -
         depth: 6
         value: 2.
         norm_class_idx: 1
         splits:
            - { var:3, quality:1.1133904266357422e+02,
                le:8.0747008323669434e-01 }
      -
         depth: 7
         value: 2.
         norm_class_idx: 1
         splits:
            - { var:5, quality:1.1045687866210938e+02,
                le:-4.4374257326126099e-01 }
      -
         depth: 8
         value: 2.
         norm_class_idx: 1
         splits:
            - { var:2, quality:1.1140425872802734e+02,
                le:-9.9423146247863770e-01 }
      -
         depth: 9
         value: 2.
         norm_class_idx: 1
         splits:
            - { var:6, quality:8.5260871887207031e+01,
                le:-5.7705557346343994e-01 }
      -
         depth: 10
         value: 2.
         norm_class_idx: 1
      -
         depth: 10
         value: 2.
         norm_class_idx: 1
      -
         depth: 9
         value: 2.
         norm_class_idx: 1
         splits:
            - { var:5, quality:3.1123077392578125e+01,
                le:-9.3145477771759033e-01 }
      -
         depth: 10
         value: 3.
         norm_class_idx: 2
      -
         depth: 10
         value: 2.
         norm_class_idx: 1
      -
         depth: 8
         value: 1.
         norm_class_idx: 0
         splits:
            - { var:0, quality:3., le:-8.8802754878997803e-01 }
      -
         depth: 9
         value: 20.
         norm_class_idx: 6
      -
         depth: 9
         value: 1.
         norm_class_idx: 0
      -
         depth: 7
         value: 4.
         norm_class_idx: 3
         splits:
            - { var:0, quality:7., le:-9.6812075376510620e-01 }
      -
         depth: 8
         value: 4.
         norm_class_idx: 3
      -
         depth: 8
         value: 1.
         norm_class_idx: 0
         splits:
            - { var:0, quality:2., le:-7.6948940753936768e-01 }
      -
         depth: 9
         value: 3.
         norm_class_idx: 2
      -
         depth: 9
         value: 1.
         norm_class_idx: 0
      -
         depth: 6
         value: 2.
         norm_class_idx: 1
         splits:
            - { var:6, quality:7.8697677612304688e+01,
                le:-7.6091599464416504e-01 }
      -
         depth: 7
         value: 3.
         norm_class_idx: 2
         splits:
            - { var:3, quality:5.2959629058837891e+01,
                le:2.1140670776367188e-01 }
      -
         depth: 8
         value: 3.
         norm_class_idx: 2
         splits:
            - { var:1, quality:46., le:-1.3311135768890381e+00 }
      -
         depth: 9
         value: 2.
         norm_class_idx: 1
      -
         depth: 9
         value: 3.
         norm_class_idx: 2
      -
         depth: 8
         value: 2.
         norm_class_idx: 1
         splits:
            - { var:6, quality:1.4239999771118164e+01,
                le:-9.9540472030639648e-01 }
      -
         depth: 9
         value: 3.
         norm_class_idx: 2
      -
         depth: 9
         value: 2.
         norm_class_idx: 1
         splits:
            - { var:0, quality:1.3842104911804199e+01,
                le:-8.0366253852844238e-01 }
      -
         depth: 10
         value: 4.
         norm_class_idx: 3
      -
         depth: 10
         value: 2.
         norm_class_idx: 1
      -
         depth: 7
         value: 2.
         norm_class_idx: 1
         splits:
            - { var:3, quality:6.0028888702392578e+01,
                le:1.8990233540534973e-01 }
      -
         depth: 8
         value: 2.
         norm_class_idx: 1
         splits:
            - { var:1, quality:4.6543479919433594e+01,
                le:-1.0078361034393311e+00 }
      -
         depth: 9
         value: 2.
         norm_class_idx: 1
         splits:
            - { var:0, quality:45., le:-8.1113791465759277e-01 }
      -
         depth: 10
         value: 2.
         norm_class_idx: 1
      -
         depth: 10
         value: 2.
         norm_class_idx: 1
      -
         depth: 9
         value: 3.
         norm_class_idx: 2
         splits:
            - { var:3, quality:4., le:1.4744456112384796e-01 }
      -
         depth: 10
         value: 3.
         norm_class_idx: 2
      -
         depth: 10
         value: 2.
         norm_class_idx: 1
      -
         depth: 8
         value: 4.
         norm_class_idx: 3
         splits:
            - { var:5, quality:2.7733333587646484e+01,
                le:-6.6073679924011230e-01 }
      -
         depth: 9
         value: 4.
         norm_class_idx: 3
      -
         depth: 9
         value: 2.
         norm_class_idx: 1
         splits:
            - { var:1, quality:1.0199999809265137e+01,
                le:-6.9230175018310547e-01 }
      -
         depth: 10
         value: 2.
         norm_class_idx: 1
      -
         depth: 10
         value: 1.
         norm_class_idx: 0
      -
         depth: 4
         value: 3.
         norm_class_idx: 2
         splits:
            - { var:3, quality:6.9504156494140625e+02,
                le:3.2223823666572571e-01 }
      -
         depth: 5
         value: 3.
         norm_class_idx: 2
         splits:
            - { var:1, quality:7.0482629394531250e+02,
                le:-1.1462453603744507e+00 }
      -
         depth: 6
         value: 2.
         norm_class_idx: 1
         splits:
            - { var:6, quality:3.6580646514892578e+01,
                le:-7.4036020040512085e-01 }
      -
         depth: 7
         value: 3.
         norm_class_idx: 2
      -
         depth: 7
         value: 2.
         norm_class_idx: 1
         splits:
            - { var:3, quality:2.7266666412353516e+01,
                le:-1.5582539141178131e-01 }
      -
         depth: 8
         value: 2.
         norm_class_idx: 1
         splits:
            - { var:0, quality:2.7071428298950195e+01,
                le:-7.6414978504180908e-01 }
      -
         depth: 9
         value: 2.
         norm_class_idx: 1
         splits:
            - { var:6, quality:2.6500000000000000e+01,
                le:-6.6651141643524170e-01 }
      -
         depth: 10
         value: 2.
         norm_class_idx: 1
      -
         depth: 10
         value: 2.
         norm_class_idx: 1
      -
         depth: 9
         value: 2.
         norm_class_idx: 1
         splits:
            - { var:0, quality:2., le:-7.2356921434402466e-01 }
      -
         depth: 10
         value: 3.
         norm_class_idx: 2
      -
         depth: 10
         value: 2.
         norm_class_idx: 1
      -
         depth: 8
         value: 3.
         norm_class_idx: 2
      -
         depth: 6
         value: 3.
         norm_class_idx: 2
         splits:
            - { var:1, quality:6.8732269287109375e+02,
                le:-3.5934519767761230e-01 }
      -
         depth: 7
         value: 3.
         norm_class_idx: 2
         splits:
            - { var:4, quality:5.6779132080078125e+02,
                le:1.2731333076953888e-01 }
      -
         depth: 8
         value: 3.
         norm_class_idx: 2
         splits:
            - { var:1, quality:5.5837176513671875e+02,
                le:-1.0262260437011719e+00 }
      -
         depth: 9
         value: 3.
         norm_class_idx: 2
         splits:
            - { var:6, quality:6.2984127044677734e+01,
                le:-4.6704366803169250e-01 }
      -
         depth: 10
         value: 3.
         norm_class_idx: 2
      -
         depth: 10
         value: 2.
         norm_class_idx: 1
      -
         depth: 9
         value: 3.
         norm_class_idx: 2
         splits:
            - { var:3, quality:5.1396087646484375e+02,
                le:-1.9078215584158897e-02 }
      -
         depth: 10
         value: 3.
         norm_class_idx: 2
      -
         depth: 10
         value: 3.
         norm_class_idx: 2
      -
         depth: 8
         value: 3.
         norm_class_idx: 2
         splits:
            - { var:4, quality:1.7933332443237305e+01,
                le:2.1643374860286713e-01 }
      -
         depth: 9
         value: 4.
         norm_class_idx: 3
         splits:
            - { var:6, quality:1.0101010322570801e+01,
                le:-7.6396125555038452e-01 }
      -
         depth: 10
         value: 4.
         norm_class_idx: 3
      -
         depth: 10
         value: 2.
         norm_class_idx: 1
      -
         depth: 9
         value: 3.
         norm_class_idx: 2
         splits:
            - { var:5, quality:1.1882352828979492e+01,
                le:-4.7354251146316528e-01 }
      -
         depth: 10
         value: 3.
         norm_class_idx: 2
      -
         depth: 10
         value: 20.
         norm_class_idx: 6
      -
         depth: 7
         value: 3.
         norm_class_idx: 2
         splits:
            - { var:4, quality:1.3932307434082031e+02,
                le:-1.9735944271087646e-01 }
      -
         depth: 8
         value: 3.
         norm_class_idx: 2
         splits:
            - { var:6, quality:5.1331455230712891e+01,
                le:-4.9597424268722534e-01 }
      -
         depth: 9
         value: 5.
         norm_class_idx: 4
         splits:
            - { var:5, quality:2.5470588684082031e+01,
                le:-5.1425516605377197e-01 }
      -
         depth: 10
         value: 5.
         norm_class_idx: 4
      -
         depth: 10
         value: 20.
         norm_class_idx: 6
      -
         depth: 9
         value: 3.
         norm_class_idx: 2
         splits:
            - { var:4, quality:4.1195121765136719e+01,
                le:-6.9588577747344971e-01 }
      -
         depth: 10
         value: 3.
         norm_class_idx: 2
      -
         depth: 10
         value: 3.
         norm_class_idx: 2
      -
         depth: 8
         value: 3.
         norm_class_idx: 2
         splits:
            - { var:2, quality:1.1114960479736328e+02,
                le:-6.6597807407379150e-01 }
      -
         depth: 9
         value: 5.
         norm_class_idx: 4
      -
         depth: 9
         value: 3.
         norm_class_idx: 2
         splits:
            - { var:1, quality:1.1173423767089844e+02,
                le:1.4202535152435303e-01 }
      -
         depth: 10
         value: 3.
         norm_class_idx: 2
      -
         depth: 10
         value: 3.
         norm_class_idx: 2
      -
         depth: 5
         value: 2.
         norm_class_idx: 1
         splits:
            - { var:1, quality:3.1848852157592773e+01,
                le:-4.1548311710357666e-01 }
      -
         depth: 6
         value: 2.
         norm_class_idx: 1
         splits:
            - { var:6, quality:2.7076923370361328e+01,
                le:-7.1066832542419434e-01 }
      -
         depth: 7
         value: 2.
         norm_class_idx: 1
         splits:
            - { var:5, quality:1.9040000915527344e+01,
                le:-9.8685765266418457e-01 }
      -
         depth: 8
         value: 3.
         norm_class_idx: 2
      -
         depth: 8
         value: 2.
         norm_class_idx: 1
         splits:
            - { var:1, quality:1.9583333969116211e+01,
                le:-8.8200950622558594e-01 }
      -
         depth: 9
         value: 4.
         norm_class_idx: 3
      -
         depth: 9
         value: 2.
         norm_class_idx: 1
         splits:
            - { var:3, quality:2.0260869979858398e+01,
                le:3.4594842791557312e-01 }
      -
         depth: 10
         value: 4.
         norm_class_idx: 3
      -
         depth: 10
         value: 2.
         norm_class_idx: 1
      -
         depth: 7
         value: 4.
         norm_class_idx: 3
         splits:
            - { var:3, quality:1.1666666984558105e+01,
                le:4.1983592510223389e-01 }
      -
         depth: 8
         value: 4.
         norm_class_idx: 3
      -
         depth: 8
         value: 3.
         norm_class_idx: 2
         splits:
            - { var:0, quality:3., le:-7.3424839973449707e-01 }
      -
         depth: 9
         value: 4.
         norm_class_idx: 3
      -
         depth: 9
         value: 3.
         norm_class_idx: 2
      -
         depth: 6
         value: 5.
         norm_class_idx: 4
         splits:
            - { var:4, quality:2.4579545974731445e+01,
                le:5.2657318115234375e-01 }
      -
         depth: 7
         value: 3.
         norm_class_idx: 2
         splits:
            - { var:6, quality:1.4631579399108887e+01,
                le:-4.9673545360565186e-01 }
      -
         depth: 8
         value: 3.
         norm_class_idx: 2
         splits:
            - { var:3, quality:1.4058823585510254e+01,
                le:6.0731196403503418e-01 }
      -
         depth: 9
         value: 3.
         norm_class_idx: 2
         splits:
            - { var:5, quality:1.5500000000000000e+01,
                le:-4.6472847461700439e-01 }
      -
         depth: 10
         value: 3.
         norm_class_idx: 2
      -
         depth: 10
         value: 20.
         norm_class_idx: 6
      -
         depth: 9
         value: 20.
         norm_class_idx: 6
      -
         depth: 8
         value: 5.
         norm_class_idx: 4
      -
         depth: 7
         value: 5.
         norm_class_idx: 4
         splits:
            - { var:0, quality:15., le:-2.7931848168373108e-01 }
      -
         depth: 8
         value: 3.
         norm_class_idx: 2
         splits:
            - { var:0, quality:2., le:-4.1173934936523438e-01 }
      -
         depth: 9
         value: 5.
         norm_class_idx: 4
      -
         depth: 9
         value: 3.
         norm_class_idx: 2
      -
         depth: 8
         value: 5.
         norm_class_idx: 4
      -
         depth: 2
         value: 5.
         norm_class_idx: 4
         splits:
            - { var:1, quality:9.3133026123046875e+02,
                le:-4.7162121534347534e-01 }
      -
         depth: 3
         value: 4.
         norm_class_idx: 3
         splits:
            - { var:5, quality:5.7308654785156250e+02,
                le:-1.3020658493041992e+00 }
      -
         depth: 4
         value: 3.
         norm_class_idx: 2
         splits:
            - { var:2, quality:2.9982614135742188e+02,
                le:-1.3473789691925049e+00 }
      -
         depth: 5
         value: 2.
         norm_class_idx: 1
         splits:
            - { var:5, quality:9.4189476013183594e+01,
                le:-1.3360631465911865e+00 }
      -
         depth: 6
         value: 2.
         norm_class_idx: 1
         splits:
            - { var:5, quality:8.9753623962402344e+01,
                le:-1.3633446693420410e+00 }
      -
         depth: 7
         value: 2.
         norm_class_idx: 1
         splits:
            - { var:2, quality:8.8522727966308594e+01,
                le:-1.3502734899520874e+00 }
      -
         depth: 8
         value: 2.
         norm_class_idx: 1
         splits:
            - { var:6, quality:8.6222221374511719e+01,
                le:-1.4544849395751953e+00 }
      -
         depth: 9
         value: 2.
         norm_class_idx: 1
      -
         depth: 9
         value: 2.
         norm_class_idx: 1
         splits:
            - { var:6, quality:8., le:-1.4525816440582275e+00 }
      -
         depth: 10
         value: 2.
         norm_class_idx: 1
      -
         depth: 10
         value: 2.
         norm_class_idx: 1
      -
         depth: 8
         value: 2.
         norm_class_idx: 1
         splits:
            - { var:3, quality:4., le:1.0363011360168457e+00 }
      -
         depth: 9
         value: 2.
         norm_class_idx: 1
      -
         depth: 9
         value: 3.
         norm_class_idx: 2
      -
         depth: 7
         value: 2.
         norm_class_idx: 1
         splits:
            - { var:0, quality:3., le:-1.2169439792633057e+00 }
      -
         depth: 8
         value: 3.
         norm_class_idx: 2
      -
         depth: 8
         value: 2.
         norm_class_idx: 1
      -
         depth: 6
         value: 4.
         norm_class_idx: 3
      -
         depth: 5
         value: 3.
         norm_class_idx: 2
         splits:
            - { var:4, quality:2.5737432861328125e+02,
                le:1.3078171014785767e+00 }
      -
         depth: 6
         value: 3.
         norm_class_idx: 2
         splits:
            - { var:1, quality:2.5996572875976562e+02,
                le:-1.3862838745117188e+00 }
      -
         depth: 7
         value: 3.
         norm_class_idx: 2
         splits:
            - { var:6, quality:7.7099998474121094e+01,
                le:-1.4141346216201782e+00 }
      -
         depth: 8
         value: 3.
         norm_class_idx: 2
         splits:
            - { var:1, quality:5.5772994995117188e+01,
                le:-1.6505196094512939e+00 }
      -
         depth: 9
         value: 2.
         norm_class_idx: 1
         splits:
            - { var:2, quality:7., le:-1.3317477703094482e+00 }
      -
         depth: 10
         value: 3.
         norm_class_idx: 2
      -
         depth: 10
         value: 2.
         norm_class_idx: 1
      -
         depth: 9
         value: 3.
         norm_class_idx: 2
         splits:
            - { var:2, quality:5.4403060913085938e+01,
                le:-1.3294320106506348e+00 }
      -
         depth: 10
         value: 3.
         norm_class_idx: 2
      -
         depth: 10
         value: 3.
         norm_class_idx: 2
      -
         depth: 8
         value: 2.
         norm_class_idx: 1
      -
         depth: 7
         value: 3.
         norm_class_idx: 2
         splits:
            - { var:2, quality:2.1545205688476562e+02,
                le:-9.4154888391494751e-01 }
      -
         depth: 8
         value: 3.
         norm_class_idx: 2
         splits:
            - { var:5, quality:2.1369444274902344e+02,
                le:-1.8061473369598389e+00 }
      -
         depth: 9
         value: 5.
         norm_class_idx: 4
         splits:
            - { var:0, quality:3., le:-1.1464619636535645e+00 }
      -
         depth: 10
         value: 3.
         norm_class_idx: 2
      -
         depth: 10
         value: 5.
         norm_class_idx: 4
      -
         depth: 9
         value: 3.
         norm_class_idx: 2
         splits:
            - { var:0, quality:2.1400930786132812e+02,
                le:-8.9870655536651611e-01 }
      -
         depth: 10
         value: 3.
         norm_class_idx: 2
      -
         depth: 10
         value: 5.
         norm_class_idx: 4
      -
         depth: 8
         value: 5.
         norm_class_idx: 4
         splits:
            - { var:2, quality:6., le:-7.9565840959548950e-01 }
      -
         depth: 9
         value: 5.
         norm_class_idx: 4
      -
         depth: 9
         value: 2.
         norm_class_idx: 1
      -
         depth: 6
         value: 10.
         norm_class_idx: 5
         splits:
            - { var:1, quality:3.7479999542236328e+01,
                le:-1.1878648996353149e+00 }
      -
         depth: 7
         value: 10.
         norm_class_idx: 5
      -
         depth: 7
         value: 5.
         norm_class_idx: 4
         splits:
            - { var:6, quality:2.3100000381469727e+01,
                le:-1.3623644113540649e+00 }
      -
         depth: 8
         value: 5.
         norm_class_idx: 4
         splits:
            - { var:0, quality:20., le:-9.9481856822967529e-01 }
      -
         depth: 9
         value: 3.
         norm_class_idx: 2
      -
         depth: 9
         value: 5.
         norm_class_idx: 4
      -
         depth: 8
         value: 2.
         norm_class_idx: 1
      -
         depth: 4
         value: 4.
         norm_class_idx: 3
         splits:
            - { var:4, quality:4.3438220214843750e+02,
                le:1.2167770862579346e+00 }
      -
         depth: 5
         value: 2.
         norm_class_idx: 1
         splits:
            - { var:5, quality:1.4038973999023438e+02,
                le:-8.2064938545227051e-01 }
      -
         depth: 6
         value: 2.
         norm_class_idx: 1
         splits:
            - { var:1, quality:1.2794666290283203e+02,
                le:-1.2449707984924316e+00 }
      -
         depth: 7
         value: 4.
         norm_class_idx: 3
         splits:
            - { var:6, quality:4.1568626403808594e+01,
                le:-1.4213671684265137e+00 }
      -
         depth: 8
         value: 3.
         norm_class_idx: 2
      -
         depth: 8
         value: 4.
         norm_class_idx: 3
         splits:
            - { var:2, quality:3.7269565582275391e+01,
                le:-1.1331746578216553e+00 }
      -
         depth: 9
         value: 4.
         norm_class_idx: 3
         splits:
            - { var:6, quality:3.8604652404785156e+01,
                le:-1.3604609966278076e+00 }
      -
         depth: 10
         value: 2.
         norm_class_idx: 1
      -
         depth: 10
         value: 4.
         norm_class_idx: 3
      -
         depth: 9
         value: 3.
         norm_class_idx: 2
         splits:
            - { var:0, quality:5., le:-1.1955857276916504e+00 }
      -
         depth: 10
         value: 4.
         norm_class_idx: 3
      -
         depth: 10
         value: 3.
         norm_class_idx: 2
      -
         depth: 7
         value: 2.
         norm_class_idx: 1
         splits:
            - { var:1, quality:1.1537566375732422e+02,
                le:-8.4716522693634033e-01 }
      -
         depth: 8
         value: 2.
         norm_class_idx: 1
         splits:
            - { var:5, quality:1.0030769348144531e+02,
                le:-1.2391083240509033e+00 }
      -
         depth: 9
         value: 3.
         norm_class_idx: 2
      -
         depth: 9
         value: 2.
         norm_class_idx: 1
         splits:
            - { var:3, quality:9.8133331298828125e+01,
                le:7.0987224578857422e-01 }
      -
         depth: 10
         value: 2.
         norm_class_idx: 1
      -
         depth: 10
         value: 2.
         norm_class_idx: 1
      -
         depth: 8
         value: 3.
         norm_class_idx: 2
         splits:
            - { var:2, quality:3.1714284896850586e+01,
                le:-8.3270996809005737e-01 }
      -
         depth: 9
         value: 3.
         norm_class_idx: 2
         splits:
            - { var:0, quality:2.4307691574096680e+01,
                le:-7.0434689521789551e-01 }
      -
         depth: 10
         value: 3.
         norm_class_idx: 2
      -
         depth: 10
         value: 2.
         norm_class_idx: 1
      -
         depth: 9
         value: 2.
         norm_class_idx: 1
         splits:
            - { var:3, quality:14., le:5.4224663972854614e-01 }
      -
         depth: 10
         value: 3.
         norm_class_idx: 2
      -
         depth: 10
         value: 2.
         norm_class_idx: 1
      -
         depth: 6
         value: 4.
         norm_class_idx: 3
         splits:
            - { var:1, quality:6.3367137908935547e+01,
                le:-9.6815240383148193e-01 }
      -
         depth: 7
         value: 4.
         norm_class_idx: 3
         splits:
            - { var:4, quality:5.2440677642822266e+01,
                le:1.2005982398986816e+00 }
      -
         depth: 8
         value: 4.
         norm_class_idx: 3
         splits:
            - { var:5, quality:5.1997367858886719e+01,
                le:-7.0606637001037598e-01 }
      -
         depth: 9
         value: 4.
         norm_class_idx: 3
         splits:
            - { var:5, quality:1.7117647171020508e+01,
                le:-7.2117620706558228e-01 }
      -
         depth: 10
         value: 4.
         norm_class_idx: 3
      -
         depth: 10
         value: 3.
         norm_class_idx: 2
      -
         depth: 9
         value: 4.
         norm_class_idx: 3
         splits:
            - { var:6, quality:40., le:-9.8741078376770020e-01 }
      -
         depth: 10
         value: 1.
         norm_class_idx: 0
      -
         depth: 10
         value: 4.
         norm_class_idx: 3
      -
         depth: 8
         value: 1.
         norm_class_idx: 0
         splits:
            - { var:0, quality:2., le:-1.1827707290649414e+00 }
      -
         depth: 9
         value: 4.
         norm_class_idx: 3
      -
         depth: 9
         value: 1.
         norm_class_idx: 0
      -
         depth: 7
         value: 2.
         norm_class_idx: 1
         splits:
            - { var:2, quality:1.6944444656372070e+01,
                le:-7.5223875045776367e-01 }
      -
         depth: 8
         value: 2.
         norm_class_idx: 1
         splits:
            - { var:5, quality:1.5527093887329102e+01,
                le:-6.2254250049591064e-01 }
      -
         depth: 9
         value: 3.
         norm_class_idx: 2
         splits:
            - { var:1, quality:7., le:-9.3524384498596191e-01 }
      -
         depth: 10
         value: 4.
         norm_class_idx: 3
      -
         depth: 10
         value: 3.
         norm_class_idx: 2
      -
         depth: 9
         value: 2.
         norm_class_idx: 1
         splits:
            - { var:4, quality:1.5989473342895508e+01,
                le:8.6660206317901611e-01 }
      -
         depth: 10
         value: 2.
         norm_class_idx: 1
      -
         depth: 10
         value: 1.
         norm_class_idx: 0
      -
         depth: 8
         value: 4.
         norm_class_idx: 3
      -
         depth: 5
         value: 4.
         norm_class_idx: 3
         splits:
            - { var:5, quality:3.6318978881835938e+02,
                le:-6.2464106082916260e-01 }
      -
         depth: 6
         value: 4.
         norm_class_idx: 3
         splits:
            - { var:6, quality:3.2036410522460938e+02,
                le:-1.4156572818756104e+00 }
      -
         depth: 7
         value: 2.
         norm_class_idx: 1
         splits:
            - { var:0, quality:20., le:-9.1792905330657959e-01 }
      -
         depth: 8
         value: 2.
         norm_class_idx: 1
      -
         depth: 8
         value: 5.
         norm_class_idx: 4
      -
         depth: 7
         value: 4.
         norm_class_idx: 3
         splits:
            - { var:2, quality:3.1351803588867188e+02,
                le:-1.0214412212371826e+00 }
      -
         depth: 8
         value: 4.
         norm_class_idx: 3
         splits:
            - { var:3, quality:3.1125152587890625e+02,
                le:3.0952281951904297e+00 }
      -
         depth: 9
         value: 4.
         norm_class_idx: 3
         splits:
            - { var:0, quality:3.1221362304687500e+02,
                le:-1.1485977172851562e+00 }
      -
         depth: 10
         value: 4.
         norm_class_idx: 3
      -
         depth: 10
         value: 4.
         norm_class_idx: 3
      -
         depth: 9
         value: 1.
         norm_class_idx: 0
      -
         depth: 8
         value: 2.
         norm_class_idx: 1
         splits:
            - { var:2, quality:6.9523811340332031e+00,
                le:-1.0017575025558472e+00 }
      -
         depth: 9
         value: 3.
         norm_class_idx: 2
         splits:
            - { var:1, quality:3., le:-1.0242903232574463e+00 }
      -
         depth: 10
         value: 10.
         norm_class_idx: 5
      -
         depth: 10
         value: 3.
         norm_class_idx: 2
      -
         depth: 9
         value: 2.
         norm_class_idx: 1
         splits:
            - { var:3, quality:7., le:1.5094020366668701e+00 }
      -
         depth: 10
         value: 2.
         norm_class_idx: 1
      -
         depth: 10
         value: 4.
         norm_class_idx: 3
      -
         depth: 6
         value: 4.
         norm_class_idx: 3
         splits:
            - { var:0, quality:9.4606063842773438e+01,
                le:-1.3461611270904541e+00 }
      -
         depth: 7
         value: 1.
         norm_class_idx: 0
      -
         depth: 7
         value: 4.
         norm_class_idx: 3
         splits:
            - { var:4, quality:7.5149269104003906e+01,
                le:1.8463790416717529e+00 }
      -
         depth: 8
         value: 4.
         norm_class_idx: 3
         splits:
            - { var:0, quality:5.1139923095703125e+01,
                le:-1.1432580947875977e+00 }
      -
         depth: 9
         value: 1.
         norm_class_idx: 0
         splits:
            - { var:1, quality:3.4242424011230469e+01,
                le:-1.2720719575881958e+00 }
      -
         depth: 10
         value: 4.
         norm_class_idx: 3
      -
         depth: 10
         value: 1.
         norm_class_idx: 0
      -
         depth: 9
         value: 4.
         norm_class_idx: 3
         splits:
            - { var:0, quality:2.9263158798217773e+01,
                le:-8.6453342437744141e-01 }
      -
         depth: 10
         value: 4.
         norm_class_idx: 3
      -
         depth: 10
         value: 2.
         norm_class_idx: 1
      -
         depth: 8
         value: 4.
         norm_class_idx: 3
         splits:
            - { var:5, quality:4.9170211791992188e+01,
                le:-4.3492841720581055e-01 }
      -
         depth: 9
         value: 4.
         norm_class_idx: 3
         splits:
            - { var:6, quality:4.5666667938232422e+01,
                le:-9.7637158632278442e-01 }
      -
         depth: 10
         value: 4.
         norm_class_idx: 3
      -
         depth: 10
         value: 1.
         norm_class_idx: 0
      -
         depth: 9
         value: 1.
         norm_class_idx: 0
      -
         depth: 3
         value: 5.
         norm_class_idx: 4
         splits:
            - { var:5, quality:5.8119262695312500e+02,
                le:-8.9619851112365723e-01 }
      -
         depth: 4
         value: 5.
         norm_class_idx: 4
         splits:
            - { var:5, quality:5.4901831054687500e+02,
                le:-1.0137195587158203e+00 }
      -
         depth: 5
         value: 5.
         norm_class_idx: 4
         splits:
            - { var:6, quality:5.2902624511718750e+02,
                le:-5.8961737155914307e-01 }
      -
         depth: 6
         value: 5.
         norm_class_idx: 4
         splits:
            - { var:6, quality:5.2867047119140625e+02,
                le:-1.0022566318511963e+00 }
      -
         depth: 7
         value: 5.
         norm_class_idx: 4
         splits:
            - { var:6, quality:5.2009521484375000e+02,
                le:-1.0890479087829590e+00 }
      -
         depth: 8
         value: 5.
         norm_class_idx: 4
      -
         depth: 8
         value: 5.
         norm_class_idx: 4
         splits:
            - { var:0, quality:21., le:-5.3134536743164062e-01 }
      -
         depth: 9
         value: 3.
         norm_class_idx: 2
      -
         depth: 9
         value: 5.
         norm_class_idx: 4
      -
         depth: 7
         value: 5.
         norm_class_idx: 4
         splits:
            - { var:4, quality:12., le:1.2751853466033936e+00 }
      -
         depth: 8
         value: 5.
         norm_class_idx: 4
      -
         depth: 8
         value: 2.
         norm_class_idx: 1
      -
         depth: 6
         value: 2.
         norm_class_idx: 1
      -
         depth: 5
         value: 5.
         norm_class_idx: 4
         splits:
            - { var:0, quality:33., le:-6.1037075519561768e-01 }
      -
         depth: 6
         value: 3.
         norm_class_idx: 2
      -
         depth: 6
         value: 5.
         norm_class_idx: 4
      -
         depth: 4
         value: 5.
         norm_class_idx: 4
         splits:
            - { var:2, quality:5.4070861816406250e+01,
                le:-6.7350423336029053e-01 }
      -
         depth: 5
         value: 4.
         norm_class_idx: 3
         splits:
            - { var:6, quality:3.2279998779296875e+01,
                le:-7.8794312477111816e-01 }
      -
         depth: 6
         value: 3.
         norm_class_idx: 2
      -
         depth: 6
         value: 4.
         norm_class_idx: 3
         splits:
            - { var:4, quality:25., le:1.0711679458618164e+00 }
      -
         depth: 7
         value: 5.
         norm_class_idx: 4
      -
         depth: 7
         value: 4.
         norm_class_idx: 3
      -
         depth: 5
         value: 5.
         norm_class_idx: 4
         splits:
            - { var:4, quality:4.2307693481445312e+01,
                le:1.3711612224578857e+00 }
      -
         depth: 6
         value: 5.
         norm_class_idx: 4
         splits:
            - { var:4, quality:4.1387386322021484e+01,
                le:9.1431587934494019e-01 }
      -
         depth: 7
         value: 5.
         norm_class_idx: 4
         splits:
            - { var:3, quality:3.5500000000000000e+01,
                le:5.4996633529663086e-01 }
      -
         depth: 8
         value: 5.
         norm_class_idx: 4
         splits:
            - { var:0, quality:4., le:2.2900696098804474e-01 }
      -
         depth: 9
         value: 3.
         norm_class_idx: 2
      -
         depth: 9
         value: 5.
         norm_class_idx: 4
      -
         depth: 8
         value: 5.
         norm_class_idx: 4
      -
         depth: 7
         value: 5.
         norm_class_idx: 4
         splits:
            - { var:1, quality:9.2500000000000000e+00,
                le:2.5236558914184570e-01 }
      -
         depth: 8
         value: 4.
         norm_class_idx: 3
         splits:
            - { var:6, quality:4.8000001907348633e+00,
                le:-7.0914578437805176e-01 }
      -
         depth: 9
         value: 3.
         norm_class_idx: 2
         splits:
            - { var:0, quality:3.6666667461395264e+00,
                le:-4.9290055036544800e-01 }
      -
         depth: 10
         value: 5.
         norm_class_idx: 4
      -
         depth: 10
         value: 3.
         norm_class_idx: 2
      -
         depth: 9
         value: 4.
         norm_class_idx: 3
      -
         depth: 8
         value: 5.
         norm_class_idx: 4
      -
         depth: 6
         value: 2.
         norm_class_idx: 1
      -
         depth: 1
         value: 1.
         norm_class_idx: 0
         splits:
            - { var:4, quality:2.3807170410156250e+03,
                le:-6.5502756834030151e-01 }
      -
         depth: 2
         value: 2.
         norm_class_idx: 1
         splits:
            - { var:0, quality:7.6826086425781250e+02,
                le:8.8790780305862427e-01 }
      -
         depth: 3
         value: 2.
         norm_class_idx: 1
         splits:
            - { var:6, quality:3.0940548706054688e+02,
                le:-2.9155781865119934e-01 }
      -
         depth: 4
         value: 20.
         norm_class_idx: 6
         splits:
            - { var:3, quality:1.6666666030883789e+01,
                le:-6.1845004558563232e-01 }
      -
         depth: 5
         value: 20.
         norm_class_idx: 6
      -
         depth: 5
         value: 1.
         norm_class_idx: 0
         splits:
            - { var:0, quality:3., le:-4.3736919760704041e-01 }
      -
         depth: 6
         value: 2.
         norm_class_idx: 1
      -
         depth: 6
         value: 1.
         norm_class_idx: 0
      -
         depth: 4
         value: 2.
         norm_class_idx: 1
         splits:
            - { var:6, quality:3.1023129272460938e+02,
                le:1.7678318023681641e+00 }
      -
         depth: 5
         value: 2.
         norm_class_idx: 1
         splits:
            - { var:6, quality:3.1392132568359375e+02,
                le:3.1788444519042969e-01 }
      -
         depth: 6
         value: 2.
         norm_class_idx: 1
         splits:
            - { var:1, quality:6.5078910827636719e+01,
                le:-5.8329213410615921e-02 }
      -
         depth: 7
         value: 2.
         norm_class_idx: 1
         splits:
            - { var:5, quality:5.5592594146728516e+01,
                le:-2.4864038452506065e-02 }
      -
         depth: 8
         value: 2.
         norm_class_idx: 1
         splits:
            - { var:1, quality:4.4482757568359375e+01,
                le:-7.3101747035980225e-01 }
      -
         depth: 9
         value: 2.
         norm_class_idx: 1
      -
         depth: 9
         value: 3.
         norm_class_idx: 2
         splits:
            - { var:6, quality:2.5420289993286133e+01,
                le:1.8236820399761200e-01 }
      -
         depth: 10
         value: 3.
         norm_class_idx: 2
      -
         depth: 10
         value: 2.
         norm_class_idx: 1
      -
         depth: 8
         value: 2.
         norm_class_idx: 1
      -
         depth: 7
         value: 1.
         norm_class_idx: 0
         splits:
            - { var:5, quality:2.7857143402099609e+01,
                le:4.7627937793731689e-01 }
      -
         depth: 8
         value: 20.
         norm_class_idx: 6
         splits:
            - { var:5, quality:1.0500000000000000e+01,
                le:-1.9694834947586060e-01 }
      -
         depth: 9
         value: 3.
         norm_class_idx: 2
      -
         depth: 9
         value: 20.
         norm_class_idx: 6
         splits:
            - { var:2, quality:1.0181818008422852e+01,
                le:4.2632445693016052e-02 }
      -
         depth: 10
         value: 1.
         norm_class_idx: 0
      -
         depth: 10
         value: 20.
         norm_class_idx: 6
      -
         depth: 8
         value: 1.
         norm_class_idx: 0
      -
         depth: 6
         value: 2.
         norm_class_idx: 1
         splits:
            - { var:3, quality:2.8483212280273438e+02,
                le:-5.7599210739135742e-01 }
      -
         depth: 7
         value: 2.
         norm_class_idx: 1
         splits:
            - { var:0, quality:2.8190252685546875e+02,
                le:7.7364134788513184e-01 }
      -
         depth: 8
         value: 2.
         norm_class_idx: 1
         splits:
            - { var:4, quality:2.5231277465820312e+02,
                le:-6.7312598228454590e-01 }
      -
         depth: 9
         value: 2.
         norm_class_idx: 1
         splits:
            - { var:4, quality:2.4660665893554688e+02,
                le:-7.6169782876968384e-01 }
      -
         depth: 10
         value: 2.
         norm_class_idx: 1
      -
         depth: 10
         value: 2.
         norm_class_idx: 1
      -
         depth: 9
         value: 2.
         norm_class_idx: 1
         splits:
            - { var:3, quality:1.0227272987365723e+01,
                le:-7.1108496189117432e-01 }
      -
         depth: 10
         value: 3.
         norm_class_idx: 2
      -
         depth: 10
         value: 2.
         norm_class_idx: 1
      -
         depth: 8
         value: 2.
         norm_class_idx: 1
         splits:
            - { var:6, quality:4.6796009063720703e+01,
                le:1.1119484901428223e+00 }
      -
         depth: 9
         value: 1.
         norm_class_idx: 0
         splits:
            - { var:5, quality:1.8352941513061523e+01,
                le:1.2191805839538574e+00 }
      -
         depth: 10
         value: 1.
         norm_class_idx: 0
      -
         depth: 10
         value: 2.
         norm_class_idx: 1
      -
         depth: 9
         value: 2.
         norm_class_idx: 1
         splits:
            - { var:1, quality:3.7719299316406250e+01,
                le:5.4660618305206299e-01 }
      -
         depth: 10
         value: 3.
         norm_class_idx: 2
      -
         depth: 10
         value: 2.
         norm_class_idx: 1
      -
         depth: 7
         value: 1.
         norm_class_idx: 0
         splits:
            - { var:6, quality:13., le:7.1681988239288330e-01 }
      -
         depth: 8
         value: 2.
         norm_class_idx: 1
      -
         depth: 8
         value: 1.
         norm_class_idx: 0
      -
         depth: 5
         value: 3.
         norm_class_idx: 2
         splits:
            - { var:3, quality:14., le:-1.0827285051345825e+00 }
      -
         depth: 6
         value: 3.
         norm_class_idx: 2
      -
         depth: 6
         value: 2.
         norm_class_idx: 1
      -
         depth: 3
         value: 1.
         norm_class_idx: 0
         splits:
            - { var:6, quality:5.2620385742187500e+02,
                le:1.9985141754150391e+00 }
      -
         depth: 4
         value: 1.
         norm_class_idx: 0
         splits:
            - { var:6, quality:4.9081668090820312e+02,
                le:1.6281285285949707e+00 }
      -
         depth: 5
         value: 1.
         norm_class_idx: 0
         splits:
            - { var:3, quality:2.6819714355468750e+02,
                le:-1.0115979909896851e+00 }
      -
         depth: 6
         value: 2.
         norm_class_idx: 1
         splits:
            - { var:6, quality:9.8627708435058594e+01,
                le:1.3350175619125366e+00 }
      -
         depth: 7
         value: 2.
         norm_class_idx: 1
         splits:
            - { var:0, quality:6.7126983642578125e+01,
                le:1.0043101310729980e+00 }
      -
         depth: 8
         value: 1.
         norm_class_idx: 0
      -
         depth: 8
         value: 2.
         norm_class_idx: 1
         splits:
            - { var:6, quality:6.0333332061767578e+01,
                le:1.3030416965484619e+00 }
      -
         depth: 9
         value: 2.
         norm_class_idx: 1
      -
         depth: 9
         value: 2.
         norm_class_idx: 1
         splits:
            - { var:2, quality:6., le:1.4228020906448364e+00 }
      -
         depth: 10
         value: 1.
         norm_class_idx: 0
      -
         depth: 10
         value: 2.
         norm_class_idx: 1
      -
         depth: 7
         value: 1.
         norm_class_idx: 0
         splits:
            - { var:2, quality:5.2210525512695312e+01,
                le:1.5802711248397827e+00 }
      -
         depth: 8
         value: 1.
         norm_class_idx: 0
         splits:
            - { var:3, quality:2.5920000076293945e+01,
                le:-1.2442886829376221e+00 }
      -
         depth: 9
         value: 1.
         norm_class_idx: 0
      -
         depth: 9
         value: 2.
         norm_class_idx: 1
         splits:
            - { var:5, quality:2.3105262756347656e+01,
                le:1.4458277225494385e+00 }
      -
         depth: 10
         value: 2.
         norm_class_idx: 1
      -
         depth: 10
         value: 1.
         norm_class_idx: 0
      -
         depth: 8
         value: 1.
         norm_class_idx: 0
         splits:
            - { var:3, quality:3.6054054260253906e+01,
                le:-1.2106533050537109e+00 }
      -
         depth: 9
         value: 2.
         norm_class_idx: 1
      -
         depth: 9
         value: 1.
         norm_class_idx: 0
         splits:
            - { var:5, quality:37., le:1.8785573244094849e+00 }
      -
         depth: 10
         value: 1.
         norm_class_idx: 0
      -
         depth: 10
         value: 2.
         norm_class_idx: 1
      -
         depth: 6
         value: 1.
         norm_class_idx: 0
         splits:
            - { var:0, quality:2.0748799133300781e+02,
                le:9.9790251255035400e-01 }
      -
         depth: 7
         value: 2.
         norm_class_idx: 1
         splits:
            - { var:5, quality:3.6226188659667969e+01,
                le:1.1952563524246216e+00 }
      -
         depth: 8
         value: 1.
         norm_class_idx: 0
         splits:
            - { var:6, quality:1.9515151977539062e+01,
                le:1.2550780773162842e+00 }
      -
         depth: 9
         value: 1.
         norm_class_idx: 0
         splits:
            - { var:5, quality:2.0500000000000000e+01,
                le:6.5507918596267700e-01 }
      -
         depth: 10
         value: 3.
         norm_class_idx: 2
      -
         depth: 10
         value: 1.
         norm_class_idx: 0
      -
         depth: 9
         value: 2.
         norm_class_idx: 1
         splits:
            - { var:1, quality:6., le:7.9245209693908691e-01 }
      -
         depth: 10
         value: 1.
         norm_class_idx: 0
      -
         depth: 10
         value: 2.
         norm_class_idx: 1
      -
         depth: 8
         value: 2.
         norm_class_idx: 1
         splits:
            - { var:1, quality:23., le:7.3824983835220337e-01 }
      -
         depth: 9
         value: 2.
         norm_class_idx: 1
         splits:
            - { var:0, quality:2., le:9.8295170068740845e-01 }
      -
         depth: 10
         value: 3.
         norm_class_idx: 2
      -
         depth: 10
         value: 2.
         norm_class_idx: 1
      -
         depth: 9
         value: 2.
         norm_class_idx: 1
      -
         depth: 7
         value: 1.
         norm_class_idx: 0
         splits:
            - { var:5, quality:1.9040980529785156e+02,
                le:1.3064815998077393e+00 }
      -
         depth: 8
         value: 1.
         norm_class_idx: 0
         splits:
            - { var:6, quality:9.6147369384765625e+01,
                le:1.4389386177062988e+00 }
      -
         depth: 9
         value: 1.
         norm_class_idx: 0
         splits:
            - { var:5, quality:9.3666664123535156e+01,
                le:6.1982297897338867e-01 }
      -
         depth: 10
         value: 20.
         norm_class_idx: 6
      -
         depth: 10
         value: 1.
         norm_class_idx: 0
      -
         depth: 9
         value: 2.
         norm_class_idx: 1
      -
         depth: 8
         value: 1.
         norm_class_idx: 0
         splits:
            - { var:2, quality:1.1681981658935547e+02,
                le:1.4760637283325195e+00 }
      -
         depth: 9
         value: 1.
         norm_class_idx: 0
         splits:
            - { var:6, quality:5.2169399261474609e+01,
                le:1.2710660696029663e+00 }
      -
         depth: 10
         value: 1.
         norm_class_idx: 0
      -
         depth: 10
         value: 2.
         norm_class_idx: 1
      -
         depth: 9
         value: 1.
         norm_class_idx: 0
         splits:
            - { var:2, quality:8.1549514770507812e+01,
                le:2.1985685825347900e+00 }
      -
         depth: 10
         value: 1.
         norm_class_idx: 0
      -
         depth: 10
         value: 1.
         norm_class_idx: 0
      -
         depth: 5
         value: 2.
         norm_class_idx: 1
         splits:
            - { var:0, quality:2.7543545532226562e+02,
                le:2.2623085975646973e+00 }
      -
         depth: 6
         value: 2.
         norm_class_idx: 1
         splits:
            - { var:5, quality:2.4455212402343750e+02,
                le:1.1440507173538208e+00 }
      -
         depth: 7
         value: 3.
         norm_class_idx: 2
         splits:
            - { var:6, quality:31., le:1.8135116100311279e+00 }
      -
         depth: 8
         value: 2.
         norm_class_idx: 1
      -
         depth: 8
         value: 3.
         norm_class_idx: 2
      -
         depth: 7
         value: 2.
         norm_class_idx: 1
         splits:
            - { var:5, quality:2.4503465270996094e+02,
                le:2.0502219200134277e+00 }
      -
         depth: 8
         value: 2.
         norm_class_idx: 1
         splits:
            - { var:4, quality:1.8179629516601562e+02,
                le:-1.0057508945465088e+00 }
      -
         depth: 9
         value: 2.
         norm_class_idx: 1
         splits:
            - { var:5, quality:9.5908363342285156e+01,
                le:1.5843349695205688e+00 }
      -
         depth: 10
         value: 2.
         norm_class_idx: 1
      -
         depth: 10
         value: 1.
         norm_class_idx: 0
      -
         depth: 9
         value: 2.
         norm_class_idx: 1
         splits:
            - { var:3, quality:1.0083809661865234e+02,
                le:-6.8075805902481079e-01 }
      -
         depth: 10
         value: 2.
         norm_class_idx: 1
      -
         depth: 10
         value: 1.
         norm_class_idx: 0
      -
         depth: 8
         value: 1.
         norm_class_idx: 0
         splits:
            - { var:0, quality:8.5205879211425781e+01,
                le:1.5649631023406982e+00 }
      -
         depth: 9
         value: 2.
         norm_class_idx: 1
         splits:
            - { var:6, quality:2.4746665954589844e+01,
                le:1.7160615921020508e+00 }
      -
         depth: 10
         value: 1.
         norm_class_idx: 0
      -
         depth: 10
         value: 2.
         norm_class_idx: 1
      -
         depth: 9
         value: 1.
         norm_class_idx: 0
         splits:
            - { var:1, quality:8.3068626403808594e+01,
                le:1.8377807140350342e+00 }
      -
         depth: 10
         value: 1.
         norm_class_idx: 0
      -
         depth: 10
         value: 2.
         norm_class_idx: 1
      -
         depth: 6
         value: 1.
         norm_class_idx: 0
         splits:
            - { var:4, quality:5.4437736511230469e+01,
                le:-8.3299428224563599e-01 }
      -
         depth: 7
         value: 2.
         norm_class_idx: 1
         splits:
            - { var:3, quality:5., le:-1.0512988567352295e+00 }
      -
         depth: 8
         value: 1.
         norm_class_idx: 0
      -
         depth: 8
         value: 2.
         norm_class_idx: 1
      -
         depth: 7
         value: 1.
         norm_class_idx: 0
         splits:
            - { var:5, quality:53., le:1.8416221141815186e+00 }
      -
         depth: 8
         value: 2.
         norm_class_idx: 1
      -
         depth: 8
         value: 1.
         norm_class_idx: 0
      -
         depth: 4
         value: 3.
         norm_class_idx: 2
         splits:
            - { var:5, quality:1.0434282684326172e+02,
                le:1.6116166114807129e+00 }
      -
         depth: 5
         value: 3.
         norm_class_idx: 2
         splits:
            - { var:5, quality:7.7400001525878906e+01,
                le:1.1784676313400269e+00 }
      -
         depth: 6
         value: 20.
         norm_class_idx: 6
         splits:
            - { var:4, quality:30., le:-7.8390949964523315e-01 }
      -
         depth: 7
         value: 3.
         norm_class_idx: 2
      -
         depth: 7
         value: 20.
         norm_class_idx: 6
      -
         depth: 6
         value: 3.
         norm_class_idx: 2
      -
         depth: 5
         value: 2.
         norm_class_idx: 1
         splits:
            - { var:6, quality:8.2862434387207031e+01,
                le:2.2055950164794922e+00 }
      -
         depth: 6
         value: 2.
         norm_class_idx: 1
         splits:
            - { var:0, quality:6.6685714721679688e+01,
                le:2.1085295677185059e+00 }
      -
         depth: 7
         value: 2.
         norm_class_idx: 1
         splits:
            - { var:1, quality:5.9629631042480469e+01,
                le:1.6209716796875000e+00 }
      -
         depth: 8
         value: 2.
         norm_class_idx: 1
      -
         depth: 8
         value: 2.
         norm_class_idx: 1
         splits:
            - { var:2, quality:2.1714284896850586e+01,
                le:2.0005743503570557e+00 }
      -
         depth: 9
         value: 1.
         norm_class_idx: 0
         splits:
            - { var:2, quality:6., le:1.9704699516296387e+00 }
      -
         depth: 10
         value: 2.
         norm_class_idx: 1
      -
         depth: 10
         value: 1.
         norm_class_idx: 0
      -
         depth: 9
         value: 2.
         norm_class_idx: 1
         splits:
            - { var:6, quality:1.9100000381469727e+01,
                le:2.1854200363159180e+00 }
      -
         depth: 10
         value: 2.
         norm_class_idx: 1
      -
         depth: 10
         value: 1.
         norm_class_idx: 0
      -
         depth: 7
         value: 1.
         norm_class_idx: 0
         splits:
            - { var:5, quality:14., le:1.9541065692901611e+00 }
      -
         depth: 8
         value: 2.
         norm_class_idx: 1
      -
         depth: 8
         value: 1.
         norm_class_idx: 0
      -
         depth: 6
         value: 1.
         norm_class_idx: 0
         splits:
            - { var:0, quality:54., le:1.2851705551147461e+00 }
      -
         depth: 7
         value: 3.
         norm_class_idx: 2
      -
         depth: 7
         value: 1.
         norm_class_idx: 0
      -
         depth: 2
         value: 1.
         norm_class_idx: 0
         splits:
            - { var:2, quality:1.8135433349609375e+03,
                le:-7.2155535221099854e-01 }
      -
         depth: 3
         value: 1.
         norm_class_idx: 0
         splits:
            - { var:4, quality:5.6851379394531250e+02,
                le:2.8524811267852783e+00 }
      -
         depth: 4
         value: 1.
         norm_class_idx: 0
         splits:
            - { var:3, quality:5.2981701660156250e+02,
                le:4.6946209669113159e-01 }
      -
         depth: 5
         value: 2.
         norm_class_idx: 1
         splits:
            - { var:0, quality:6., le:-5.0571554899215698e-01 }
      -
         depth: 6
         value: 2.
         norm_class_idx: 1
      -
         depth: 6
         value: 1.
         norm_class_idx: 0
      -
         depth: 5
         value: 1.
         norm_class_idx: 0
         splits:
            - { var:5, quality:5.2908404541015625e+02,
                le:-1.8141883611679077e-01 }
      -
         depth: 6
         value: 1.
         norm_class_idx: 0
         splits:
            - { var:6, quality:2.0337977600097656e+02,
                le:-7.0838433504104614e-01 }
      -
         depth: 7
         value: 1.
         norm_class_idx: 0
         splits:
            - { var:2, quality:1.9238049316406250e+02,
                le:-8.0260562896728516e-01 }
      -
         depth: 8
         value: 1.
         norm_class_idx: 0
         splits:
            - { var:3, quality:1.9330392456054688e+02,
                le:2.8978266716003418e+00 }
      -
         depth: 9
         value: 1.
         norm_class_idx: 0
         splits:
            - { var:6, quality:1.9393431091308594e+02,
                le:-7.6700663566589355e-01 }
      -
         depth: 10
         value: 1.
         norm_class_idx: 0
      -
         depth: 10
         value: 1.
         norm_class_idx: 0
      -
         depth: 9
         value: 3.
         norm_class_idx: 2
      -
         depth: 8
         value: 2.
         norm_class_idx: 1
         splits:
            - { var:0, quality:2., le:-5.7833337783813477e-01 }
      -
         depth: 9
         value: 2.
         norm_class_idx: 1
      -
         depth: 9
         value: 20.
         norm_class_idx: 6
      -
         depth: 7
         value: 4.
         norm_class_idx: 3
         splits:
            - { var:3, quality:2.0902173995971680e+01,
                le:8.2070374488830566e-01 }
      -
         depth: 8
         value: 1.
         norm_class_idx: 0
         splits:
            - { var:1, quality:8., le:-8.1038516759872437e-01 }
      -
         depth: 9
         value: 3.
         norm_class_idx: 2
      -
         depth: 9
         value: 1.
         norm_class_idx: 0
      -
         depth: 8
         value: 4.
         norm_class_idx: 3
         splits:
            - { var:0, quality:1.7666666030883789e+01,
                le:-1.1453939676284790e+00 }
      -
         depth: 9
         value: 1.
         norm_class_idx: 0
      -
         depth: 9
         value: 4.
         norm_class_idx: 3
         splits:
            - { var:4, quality:1.7777778625488281e+01,
                le:7.7227151393890381e-01 }
      -
         depth: 10
         value: 2.
         norm_class_idx: 1
      -
         depth: 10
         value: 4.
         norm_class_idx: 3
      -
         depth: 6
         value: 1.
         norm_class_idx: 0
      -
         depth: 4
         value: 1.
         norm_class_idx: 0
         splits:
            - { var:3, quality:6.1657142639160156e+01,
                le:2.9662003517150879e+00 }
      -
         depth: 5
         value: 3.
         norm_class_idx: 2
         splits:
            - { var:1, quality:3.3142856597900391e+01,
                le:-1.0523593425750732e+00 }
      -
         depth: 6
         value: 3.
         norm_class_idx: 2
      -
         depth: 6
         value: 1.
         norm_class_idx: 0
         splits:
            - { var:0, quality:14., le:-1.2810184955596924e+00 }
      -
         depth: 7
         value: 3.
         norm_class_idx: 2
      -
         depth: 7
         value: 1.
         norm_class_idx: 0
      -
         depth: 5
         value: 1.
         norm_class_idx: 0
      -
         depth: 3
         value: 1.
         norm_class_idx: 0
         splits:
            - { var:5, quality:1.5334921875000000e+03,
                le:1.2455560266971588e-01 }
      -
         depth: 4
         value: 3.
         norm_class_idx: 2
         splits:
            - { var:1, quality:2.7204449462890625e+02,
                le:-5.5292463302612305e-01 }
      -
         depth: 5
         value: 2.
         norm_class_idx: 1
         splits:
            - { var:3, quality:1.2415096282958984e+02,
                le:3.9722856879234314e-01 }
      -
         depth: 6
         value: 2.
         norm_class_idx: 1
         splits:
            - { var:5, quality:1.2034538269042969e+02,
                le:-2.0282435417175293e-01 }
      -
         depth: 7
         value: 2.
         norm_class_idx: 1
         splits:
            - { var:2, quality:2.7692857742309570e+01,
                le:-4.1935384273529053e-01 }
      -
         depth: 8
         value: 2.
         norm_class_idx: 1
         splits:
            - { var:6, quality:2.7214284896850586e+01,
                le:-1.3662779331207275e-01 }
      -
         depth: 9
         value: 2.
         norm_class_idx: 1
         splits:
            - { var:5, quality:27., le:-3.8414263725280762e-01 }
      -
         depth: 10
         value: 5.
         norm_class_idx: 4
      -
         depth: 10
         value: 2.
         norm_class_idx: 1
      -
         depth: 9
         value: 4.
         norm_class_idx: 3
         splits:
            - { var:1, quality:5.6666665077209473e+00,
                le:-8.4135782718658447e-01 }
      -
         depth: 10
         value: 2.
         norm_class_idx: 1
      -
         depth: 10
         value: 4.
         norm_class_idx: 3
      -
         depth: 8
         value: 3.
         norm_class_idx: 2
         splits:
            - { var:3, quality:7., le:-2.3908694088459015e-01 }
      -
         depth: 9
         value: 3.
         norm_class_idx: 2
      -
         depth: 9
         value: 2.
         norm_class_idx: 1
         splits:
            - { var:0, quality:2., le:-5.6551849842071533e-01 }
      -
         depth: 10
         value: 2.
         norm_class_idx: 1
      -
         depth: 10
         value: 4.
         norm_class_idx: 3
      -
         depth: 7
         value: 2.
         norm_class_idx: 1
         splits:
            - { var:4, quality:101., le:-6.4076822996139526e-01 }
      -
         depth: 8
         value: 3.
         norm_class_idx: 2
      -
         depth: 8
         value: 2.
         norm_class_idx: 1
      -
         depth: 6
         value: 4.
         norm_class_idx: 3
         splits:
            - { var:5, quality:1.5375000000000000e+01,
                le:-8.1525869667530060e-02 }
      -
         depth: 7
         value: 4.
         norm_class_idx: 3
         splits:
            - { var:3, quality:1.1428571701049805e+01,
                le:6.7347991466522217e-01 }
      -
         depth: 8
         value: 2.
         norm_class_idx: 1
         splits:
            - { var:2, quality:5., le:-6.5208375453948975e-01 }
      -
         depth: 9
         value: 2.
         norm_class_idx: 1
      -
         depth: 9
         value: 3.
         norm_class_idx: 2
         splits:
            - { var:1, quality:4., le:-6.0422313213348389e-01 }
      -
         depth: 10
         value: 4.
         norm_class_idx: 3
      -
         depth: 10
         value: 3.
         norm_class_idx: 2
      -
         depth: 8
         value: 4.
         norm_class_idx: 3
      -
         depth: 7
         value: 1.
         norm_class_idx: 0
      -
         depth: 5
         value: 3.
         norm_class_idx: 2
         splits:
            - { var:4, quality:2.0532888793945312e+02,
                le:-2.1545779705047607e-01 }
      -
         depth: 6
         value: 3.
         norm_class_idx: 2
         splits:
            - { var:5, quality:1.3230290222167969e+02,
                le:1.5429073013365269e-02 }
      -
         depth: 7
         value: 3.
         norm_class_idx: 2
         splits:
            - { var:0, quality:1.2903086853027344e+02,
                le:5.3870099782943726e-01 }
      -
         depth: 8
         value: 3.
         norm_class_idx: 2
         splits:
            - { var:6, quality:1.2880743408203125e+02,
                le:-4.4801050424575806e-01 }
      -
         depth: 9
         value: 3.
         norm_class_idx: 2
         splits:
            - { var:5, quality:8.5555553436279297e+00,
                le:-7.3970943689346313e-02 }
      -
         depth: 10
         value: 3.
         norm_class_idx: 2
      -
         depth: 10
         value: 1.
         norm_class_idx: 0
      -
         depth: 9
         value: 3.
         norm_class_idx: 2
         splits:
            - { var:2, quality:1.2806121826171875e+02,
                le:-3.5972404479980469e-01 }
      -
         depth: 10
         value: 1.
         norm_class_idx: 0
      -
         depth: 10
         value: 3.
         norm_class_idx: 2
      -
         depth: 8
         value: 2.
         norm_class_idx: 1
         splits:
            - { var:2, quality:1.0399999618530273e+01,
                le:4.2009496688842773e-01 }
      -
         depth: 9
         value: 2.
         norm_class_idx: 1
      -
         depth: 9
         value: 20.
         norm_class_idx: 6
         splits:
            - { var:0, quality:5., le:8.0781459808349609e-01 }
      -
         depth: 10
         value: 3.
         norm_class_idx: 2
      -
         depth: 10
         value: 20.
         norm_class_idx: 6
      -
         depth: 7
         value: 1.
         norm_class_idx: 0
         splits:
            - { var:2, quality:2.8379629135131836e+01,
                le:2.4685651063919067e-02 }
      -
         depth: 8
         value: 1.
         norm_class_idx: 0
         splits:
            - { var:6, quality:2.3750000000000000e+01,
                le:1.3440456986427307e-01 }
      -
         depth: 9
         value: 1.
         norm_class_idx: 0
         splits:
            - { var:1, quality:24., le:-3.4966617822647095e-01 }
      -
         depth: 10
         value: 2.
         norm_class_idx: 1
      -
         depth: 10
         value: 1.
         norm_class_idx: 0
      -
         depth: 9
         value: 2.
         norm_class_idx: 1
         splits:
            - { var:1, quality:3., le:-1.0575623810291290e-01 }
      -
         depth: 10
         value: 2.
         norm_class_idx: 1
      -
         depth: 10
         value: 4.
         norm_class_idx: 3
      -
         depth: 8
         value: 3.
         norm_class_idx: 2
         splits:
            - { var:6, quality:1.3500000000000000e+01,
                le:1.4277932047843933e-01 }
      -
         depth: 9
         value: 3.
         norm_class_idx: 2
         splits:
            - { var:1, quality:12., le:-5.3489789366722107e-02 }
      -
         depth: 10
         value: 2.
         norm_class_idx: 1
      -
         depth: 10
         value: 3.
         norm_class_idx: 2
      -
         depth: 9
         value: 20.
         norm_class_idx: 6
         splits:
            - { var:0, quality:7.5555553436279297e+00,
                le:3.8278606534004211e-01 }
      -
         depth: 10
         value: 4.
         norm_class_idx: 3
      -
         depth: 10
         value: 20.
         norm_class_idx: 6
      -
         depth: 6
         value: 2.
         norm_class_idx: 1
         splits:
            - { var:1, quality:1.2238233947753906e+02,
                le:6.2790954113006592e-01 }
      -
         depth: 7
         value: 2.
         norm_class_idx: 1
         splits:
            - { var:4, quality:1.1819084930419922e+02,
                le:9.3241411447525024e-01 }
      -
         depth: 8
         value: 2.
         norm_class_idx: 1
         splits:
            - { var:5, quality:1.0977837371826172e+02,
                le:-3.3713415265083313e-01 }
      -
         depth: 9
         value: 3.
         norm_class_idx: 2
         splits:
            - { var:4, quality:4.0409091949462891e+01,
                le:3.2255584001541138e-01 }
      -
         depth: 10
         value: 3.
         norm_class_idx: 2
      -
         depth: 10
         value: 20.
         norm_class_idx: 6
      -
         depth: 9
         value: 2.
         norm_class_idx: 1
         splits:
            - { var:2, quality:9.4987152099609375e+01,
                le:-5.8782255649566650e-01 }
      -
         depth: 10
         value: 1.
         norm_class_idx: 0
      -
         depth: 10
         value: 2.
         norm_class_idx: 1
      -
         depth: 8
         value: 4.
         norm_class_idx: 3
         splits:
            - { var:2, quality:29., le:-6.7929351329803467e-01 }
      -
         depth: 9
         value: 20.
         norm_class_idx: 6
      -
         depth: 9
         value: 4.
         norm_class_idx: 3
      -
         depth: 7
         value: 5.
         norm_class_idx: 4
         splits:
            - { var:2, quality:3.6528408050537109e+01,
                le:3.4830766916275024e-01 }
      -
         depth: 8
         value: 3.
         norm_class_idx: 2
         splits:
            - { var:3, quality:1.5733333587646484e+01,
                le:5.3342425823211670e-01 }
      -
         depth: 9
         value: 3.
         norm_class_idx: 2
         splits:
            - { var:1, quality:1.0250000000000000e+01,
                le:6.8501561880111694e-01 }
      -
         depth: 10
         value: 3.
         norm_class_idx: 2
      -
         depth: 10
         value: 3.
         norm_class_idx: 2
      -
         depth: 9
         value: 5.
         norm_class_idx: 4
      -
         depth: 8
         value: 5.
         norm_class_idx: 4
         splits:
            - { var:3, quality:3.0066667556762695e+01,
                le:-2.8209587931632996e-01 }
      -
         depth: 9
         value: 4.
         norm_class_idx: 3
      -
         depth: 9
         value: 5.
         norm_class_idx: 4
         splits:
            - { var:5, quality:2.8666666030883789e+01,
                le:7.4189342558383942e-02 }
      -
         depth: 10
         value: 5.
         norm_class_idx: 4
      -
         depth: 10
         value: 5.
         norm_class_idx: 4
      -
         depth: 4
         value: 1.
         norm_class_idx: 0
         splits:
            - { var:6, quality:1.3880861816406250e+03,
                le:2.0948219299316406e+00 }
      -
         depth: 5
         value: 1.
         norm_class_idx: 0
         splits:
            - { var:5, quality:1.3735955810546875e+03,
                le:1.2976675033569336e+00 }
      -
         depth: 6
         value: 1.
         norm_class_idx: 0
         splits:
            - { var:5, quality:7.4555499267578125e+02,
                le:8.6661708354949951e-01 }
      -
         depth: 7
         value: 1.
         norm_class_idx: 0
         splits:
            - { var:1, quality:4.9558862304687500e+02,
                le:6.7920809984207153e-01 }
      -
         depth: 8
         value: 1.
         norm_class_idx: 0
         splits:
            - { var:1, quality:4.8047915649414062e+02,
                le:-2.4997285008430481e-01 }
      -
         depth: 9
         value: 2.
         norm_class_idx: 1
         splits:
            - { var:4, quality:4.7368419647216797e+01,
                le:-2.1189288794994354e-01 }
      -
         depth: 10
         value: 2.
         norm_class_idx: 1
      -
         depth: 10
         value: 1.
         norm_class_idx: 0
      -
         depth: 9
         value: 1.
         norm_class_idx: 0
         splits:
            - { var:3, quality:4.6910479736328125e+02,
                le:-6.5649640560150146e-01 }
      -
         depth: 10
         value: 20.
         norm_class_idx: 6
      -
         depth: 10
         value: 1.
         norm_class_idx: 0
      -
         depth: 8
         value: 1.
         norm_class_idx: 0
         splits:
            - { var:5, quality:6.3704544067382812e+01,
                le:5.9296083450317383e-01 }
      -
         depth: 9
         value: 20.
         norm_class_idx: 6
         splits:
            - { var:6, quality:4.4682895660400391e+01,
                le:5.5046987533569336e-01 }
      -
         depth: 10
         value: 20.
         norm_class_idx: 6
      -
         depth: 10
         value: 5.
         norm_class_idx: 4
      -
         depth: 9
         value: 1.
         norm_class_idx: 0
         splits:
            - { var:6, quality:4.5743164062500000e+01,
                le:9.6425116062164307e-01 }
      -
         depth: 10
         value: 1.
         norm_class_idx: 0
      -
         depth: 10
         value: 3.
         norm_class_idx: 2
      -
         depth: 7
         value: 1.
         norm_class_idx: 0
         splits:
            - { var:1, quality:3.1411627197265625e+02,
                le:6.8985486030578613e-01 }
      -
         depth: 8
         value: 2.
         norm_class_idx: 1
         splits:
            - { var:4, quality:2.0564669799804688e+02,
                le:-2.5988095998764038e-01 }
      -
         depth: 9
         value: 2.
         norm_class_idx: 1
         splits:
            - { var:6, quality:1.6655262756347656e+02,
                le:4.6710458397865295e-01 }
      -
         depth: 10
         value: 20.
         norm_class_idx: 6
      -
         depth: 10
         value: 2.
         norm_class_idx: 1
      -
         depth: 9
         value: 1.
         norm_class_idx: 0
         splits:
            - { var:0, quality:6.8805130004882812e+01,
                le:4.9705260992050171e-01 }
      -
         depth: 10
         value: 1.
         norm_class_idx: 0
      -
         depth: 10
         value: 2.
         norm_class_idx: 1
      -
         depth: 8
         value: 1.
         norm_class_idx: 0
         splits:
            - { var:6, quality:1.7998326110839844e+02,
                le:1.0167827606201172e+00 }
      -
         depth: 9
         value: 1.
         norm_class_idx: 0
         splits:
            - { var:2, quality:1.5592195129394531e+02,
                le:7.1419143676757812e-01 }
      -
         depth: 10
         value: 1.
         norm_class_idx: 0
      -
         depth: 10
         value: 1.
         norm_class_idx: 0
      -
         depth: 9
         value: 2.
         norm_class_idx: 1
         splits:
            - { var:5, quality:5.4148147583007812e+01,
                le:1.0219128131866455e+00 }
      -
         depth: 10
         value: 3.
         norm_class_idx: 2
      -
         depth: 10
         value: 2.
         norm_class_idx: 1
      -
         depth: 6
         value: 1.
         norm_class_idx: 0
         splits:
            - { var:6, quality:7.2297216796875000e+02,
                le:7.6440286636352539e-01 }
      -
         depth: 7
         value: 20.
         norm_class_idx: 6
         splits:
            - { var:0, quality:2.7399999618530273e+01,
                le:9.5945775508880615e-01 }
      -
         depth: 8
         value: 20.
         norm_class_idx: 6
      -
         depth: 8
         value: 1.
         norm_class_idx: 0
         splits:
            - { var:1, quality:5., le:1.1370233297348022e+00 }
      -
         depth: 9
         value: 20.
         norm_class_idx: 6
      -
         depth: 9
         value: 1.
         norm_class_idx: 0
      -
         depth: 7
         value: 1.
         norm_class_idx: 0
         splits:
            - { var:0, quality:7.1544897460937500e+02,
                le:9.1780930757522583e-01 }
      -
         depth: 8
         value: 1.
         norm_class_idx: 0
         splits:
            - { var:3, quality:7.1856407165527344e+01,
                le:-4.8611399531364441e-01 }
      -
         depth: 9
         value: 20.
         norm_class_idx: 6
         splits:
            - { var:6, quality:2.8086021423339844e+01,
                le:1.1949331760406494e+00 }
      -
         depth: 10
         value: 1.
         norm_class_idx: 0
      -
         depth: 10
         value: 20.
         norm_class_idx: 6
      -
         depth: 9
         value: 1.
         norm_class_idx: 0
         splits:
            - { var:6, quality:5.0127658843994141e+01,
                le:1.0921541452407837e+00 }
      -
         depth: 10
         value: 1.
         norm_class_idx: 0
      -
         depth: 10
         value: 1.
         norm_class_idx: 0
      -
         depth: 8
         value: 1.
         norm_class_idx: 0
         splits:
            - { var:4, quality:6.7424725341796875e+02,
                le:4.1757680475711823e-02 }
      -
         depth: 9
         value: 1.
         norm_class_idx: 0
         splits:
            - { var:4, quality:6.6316687011718750e+02,
                le:-6.2184721231460571e-01 }
      -
         depth: 10
         value: 1.
         norm_class_idx: 0
      -
         depth: 10
         value: 1.
         norm_class_idx: 0
      -
         depth: 9
         value: 1.
         norm_class_idx: 0
         splits:
            - { var:5, quality:2.2595237731933594e+01,
                le:1.8294504880905151e+00 }
      -
         depth: 10
         value: 1.
         norm_class_idx: 0
      -
         depth: 10
         value: 20.
         norm_class_idx: 6
      -
         depth: 5
         value: 2.
         norm_class_idx: 1
         splits:
            - { var:5, quality:1.2251724243164062e+02,
                le:1.9461319446563721e+00 }
      -
         depth: 6
         value: 3.
         norm_class_idx: 2
      -
         depth: 6
         value: 2.
         norm_class_idx: 1
         splits:
            - { var:0, quality:1.1666185760498047e+02,
                le:3.0141177177429199e+00 }
      -
         depth: 7
         value: 1.
         norm_class_idx: 0
         splits:
            - { var:3, quality:7.2126983642578125e+01,
                le:-3.9954414963722229e-01 }
      -
         depth: 8
         value: 2.
         norm_class_idx: 1
         splits:
            - { var:4, quality:4.3578948974609375e+01,
                le:-6.3939726352691650e-01 }
      -
         depth: 9
         value: 1.
         norm_class_idx: 0
         splits:
            - { var:1, quality:6., le:2.6082267761230469e+00 }
      -
         depth: 10
         value: 1.
         norm_class_idx: 0
      -
         depth: 10
         value: 2.
         norm_class_idx: 1
      -
         depth: 9
         value: 2.
         norm_class_idx: 1
         splits:
            - { var:0, quality:4.2562500000000000e+01,
                le:2.3071608543395996e+00 }
      -
         depth: 10
         value: 2.
         norm_class_idx: 1
      -
         depth: 10
         value: 2.
         norm_class_idx: 1
      -
         depth: 8
         value: 1.
         norm_class_idx: 0
      -
         depth: 7
         value: 2.
         norm_class_idx: 1
         splits:
            - { var:2, quality:7.4427398681640625e+01,
                le:2.9326517581939697e+00 }
      -
         depth: 8
         value: 1.
         norm_class_idx: 0
         splits:
            - { var:0, quality:5., le:3.1209087371826172e+00 }
      -
         depth: 9
         value: 1.
         norm_class_idx: 0
      -
         depth: 9
         value: 2.
         norm_class_idx: 1
      -
         depth: 8
         value: 2.
         norm_class_idx: 1
         splits:
            - { var:3, quality:72., le:-7.8629419207572937e-02 }
      -
         depth: 9
         value: 2.
         norm_class_idx: 1
      -
         depth: 9
         value: 1.
         norm_class_idx: 0
         splits:
            - { var:0, quality:2., le:3.3772072792053223e+00 }
      -
         depth: 10
         value: 1.
         norm_class_idx: 0
      -
         depth: 10
         value: 2.
         norm_class_idx: 1
