%YAML:1.0
---
opencv_ml_rtrees:
   format: 3
   is_classifier: 1
   var_all: 67
   var_count: 66
   ord_var_count: 66
   cat_var_count: 1
   training_params:
      use_surrogates: 0
      max_categories: 10
      regression_accuracy: 0.
      max_depth: 10
      min_sample_count: 1
      cross_validation_folds: 0
      nactive_vars: 0
   global_var_idx: 1
   var_idx: [ 0, 1, 2, 3, 4, 5, 6, 7, 8, 9, 10, 11, 12, 13, 14, 15, 16,
       17, 18, 19, 20, 21, 22, 23, 24, 25, 26, 27, 28, 29, 30, 31, 32,
       33, 34, 35, 36, 37, 38, 39, 40, 41, 42, 43, 44, 45, 46, 47, 48,
       49, 50, 51, 52, 53, 54, 55, 56, 57, 58, 59, 60, 61, 62, 63, 64,
       65 ]
   var_type: [ 0, 0, 0, 0, 0, 0, 0, 0, 0, 0, 0, 0, 0, 0, 0, 0, 0, 0, 0,
       0, 0, 0, 0, 0, 0, 0, 0, 0, 0, 0, 0, 0, 0, 0, 0, 0, 0, 0, 0, 0, 0,
       0, 0, 0, 0, 0, 0, 0, 0, 0, 0, 0, 0, 0, 0, 0, 0, 0, 0, 0, 0, 0, 0,
       0, 0, 0, 1 ]
   cat_ofs: [ 0, 0, 0, 0, 0, 0, 0, 0, 0, 0, 0, 0, 0, 0, 0, 0, 0, 0, 0, 0,
       0, 0, 0, 0, 0, 0, 0, 0, 0, 0, 0, 0, 0, 0, 0, 0, 0, 0, 0, 0, 0, 0,
       0, 0, 0, 0, 0, 0, 0, 0, 0, 0, 0, 0, 0, 0, 0, 0, 0, 0, 0, 0, 0, 0,
       0, 0, 0, 0, 0, 0, 0, 0, 0, 0, 0, 0, 0, 0, 0, 0, 0, 0, 0, 0, 0, 0,
       0, 0, 0, 0, 0, 0, 0, 0, 0, 0, 0, 0, 0, 0, 0, 0, 0, 0, 0, 0, 0, 0,
       0, 0, 0, 0, 0, 0, 0, 0, 0, 0, 0, 0, 0, 0, 0, 0, 0, 0, 0, 0, 0, 0,
       0, 0 ]
   class_labels: [ 1, 2, 3, 4, 5, 10, 20 ]
   missing_subst: [ 0., 0., 0., 0., 0., 0., 0., 0., 0., 0., 0., 0., 0.,
       0., 0., 0., 0., 0., 0., 0., 0., 0., 0., 0., 0., 0., 0., 0., 0.,
       0., 0., 0., 0., 0., 0., 0., 0., 0., 0., 0., 0., 0., 0., 0., 0.,
       0., 0., 0., 0., 0., 0., 0., 0., 0., 0., 0., 0., 0., 0., 0., 0.,
       0., 0., 0., 0., 0., 0. ]
   oob_error: 1.0059171597633136e-01
   ntrees: 100
   trees:
      -
         nodes:
            -
               depth: 0
               value: 1.
               norm_class_idx: 0
               splits:
                  - { var:32, quality:1.7683668518066406e+02,
                      le:-3.1637388467788696e-01 }
            -
               depth: 1
               value: 1.
               norm_class_idx: 0
               splits:
                  - { var:53, quality:1.5893174743652344e+02,
                      le:2.4154376983642578e-01 }
            -
               depth: 2
               value: 2.
               norm_class_idx: 1
               splits:
                  - { var:45, quality:5.7533615112304688e+01,
                      le:-3.3978804945945740e-01 }
            -
               depth: 3
               value: 20.
               norm_class_idx: 6
               splits:
                  - { var:11, quality:6., le:-9.5263630151748657e-02 }
            -
               depth: 4
               value: 2.
               norm_class_idx: 1
               splits:
                  - { var:38, quality:2., le:-1.7836844921112061e-01 }
            -
               depth: 5
               value: 3.
               norm_class_idx: 2
            -
               depth: 5
               value: 2.
               norm_class_idx: 1
            -
               depth: 4
               value: 20.
               norm_class_idx: 6
            -
               depth: 3
               value: 2.
               norm_class_idx: 1
               splits:
                  - { var:59, quality:5.7181819915771484e+01,
                      le:-1.4497631788253784e+00 }
            -
               depth: 4
               value: 2.
               norm_class_idx: 1
            -
               depth: 4
               value: 2.
               norm_class_idx: 1
               splits:
                  - { var:20, quality:1.8392856597900391e+01,
                      le:-1.1634206771850586e+00 }
            -
               depth: 5
               value: 1.
               norm_class_idx: 0
               splits:
                  - { var:20, quality:8., le:-1.4154274463653564e+00 }
            -
               depth: 6
               value: 2.
               norm_class_idx: 1
            -
               depth: 6
               value: 1.
               norm_class_idx: 0
            -
               depth: 5
               value: 2.
               norm_class_idx: 1
               splits:
                  - { var:14, quality:14., le:-6.7544886842370033e-03 }
            -
               depth: 6
               value: 2.
               norm_class_idx: 1
            -
               depth: 6
               value: 4.
               norm_class_idx: 3
            -
               depth: 2
               value: 1.
               norm_class_idx: 0
               splits:
                  - { var:37, quality:1.1115517425537109e+02,
                      le:-1.0612387657165527e+00 }
            -
               depth: 3
               value: 3.
               norm_class_idx: 2
               splits:
                  - { var:56, quality:2., le:-4.8362314701080322e-02 }
            -
               depth: 4
               value: 3.
               norm_class_idx: 2
            -
               depth: 4
               value: 4.
               norm_class_idx: 3
            -
               depth: 3
               value: 1.
               norm_class_idx: 0
               splits:
                  - { var:26, quality:1.1075000000000000e+02,
                      le:7.5219821929931641e-01 }
            -
               depth: 4
               value: 1.
               norm_class_idx: 0
            -
               depth: 4
               value: 1.
               norm_class_idx: 0
               splits:
                  - { var:44, quality:24., le:6.6518783569335938e-01 }
            -
               depth: 5
               value: 2.
               norm_class_idx: 1
            -
               depth: 5
               value: 1.
               norm_class_idx: 0
            -
               depth: 1
               value: 3.
               norm_class_idx: 2
               splits:
                  - { var:60, quality:1.1394520568847656e+02,
                      le:-6.4753425121307373e-01 }
            -
               depth: 2
               value: 2.
               norm_class_idx: 1
               splits:
                  - { var:50, quality:3.8448204040527344e+01,
                      le:-5.9254062175750732e-01 }
            -
               depth: 3
               value: 2.
               norm_class_idx: 1
               splits:
                  - { var:33, quality:3.5650001525878906e+01,
                      le:1.4909586906433105e+00 }
            -
               depth: 4
               value: 2.
               norm_class_idx: 1
               splits:
                  - { var:54, quality:3.5714286804199219e+01,
                      le:-1.5968494117259979e-01 }
            -
               depth: 5
               value: 2.
               norm_class_idx: 1
               splits:
                  - { var:4, quality:5.5000000000000000e+00,
                      le:5.4031217098236084e-01 }
            -
               depth: 6
               value: 2.
               norm_class_idx: 1
            -
               depth: 6
               value: 3.
               norm_class_idx: 2
               splits:
                  - { var:62, quality:4., le:-2.6992276310920715e-02 }
            -
               depth: 7
               value: 3.
               norm_class_idx: 2
            -
               depth: 7
               value: 4.
               norm_class_idx: 3
            -
               depth: 5
               value: 2.
               norm_class_idx: 1
            -
               depth: 4
               value: 4.
               norm_class_idx: 3
            -
               depth: 3
               value: 1.
               norm_class_idx: 0
               splits:
                  - { var:23, quality:11., le:-2.2702563554048538e-02 }
            -
               depth: 4
               value: 4.
               norm_class_idx: 3
            -
               depth: 4
               value: 1.
               norm_class_idx: 0
            -
               depth: 2
               value: 3.
               norm_class_idx: 2
               splits:
                  - { var:22, quality:1.0883203887939453e+02,
                      le:8.0887997150421143e-01 }
            -
               depth: 3
               value: 3.
               norm_class_idx: 2
               splits:
                  - { var:34, quality:5.3475322723388672e+01,
                      le:8.1903684139251709e-01 }
            -
               depth: 4
               value: 3.
               norm_class_idx: 2
               splits:
                  - { var:38, quality:5.1698631286621094e+01,
                      le:-1.4839446544647217e+00 }
            -
               depth: 5
               value: 5.
               norm_class_idx: 4
            -
               depth: 5
               value: 3.
               norm_class_idx: 2
               splits:
                  - { var:39, quality:3.9222221374511719e+01,
                      le:1.5307646989822388e+00 }
            -
               depth: 6
               value: 3.
               norm_class_idx: 2
               splits:
                  - { var:46, quality:4.2015037536621094e+01,
                      le:7.8494325280189514e-03 }
            -
               depth: 7
               value: 3.
               norm_class_idx: 2
               splits:
                  - { var:34, quality:4.1400001525878906e+01,
                      le:-8.0528223514556885e-01 }
            -
               depth: 8
               value: 5.
               norm_class_idx: 4
            -
               depth: 8
               value: 3.
               norm_class_idx: 2
               splits:
                  - { var:15, quality:4.5306201934814453e+01,
                      le:1.7638134956359863e-01 }
            -
               depth: 9
               value: 20.
               norm_class_idx: 6
               splits:
                  - { var:5, quality:8.8888893127441406e+00,
                      le:5.9458589553833008e-01 }
            -
               depth: 10
               value: 20.
               norm_class_idx: 6
            -
               depth: 10
               value: 3.
               norm_class_idx: 2
            -
               depth: 9
               value: 3.
               norm_class_idx: 2
               splits:
                  - { var:49, quality:4.1047618865966797e+01,
                      le:1.8960063457489014e+00 }
            -
               depth: 10
               value: 3.
               norm_class_idx: 2
            -
               depth: 10
               value: 5.
               norm_class_idx: 4
            -
               depth: 7
               value: 4.
               norm_class_idx: 3
               splits:
                  - { var:15, quality:6., le:5.8875811100006104e-01 }
            -
               depth: 8
               value: 3.
               norm_class_idx: 2
               splits:
                  - { var:52, quality:2., le:5.0448125600814819e-01 }
            -
               depth: 9
               value: 10.
               norm_class_idx: 5
            -
               depth: 9
               value: 3.
               norm_class_idx: 2
            -
               depth: 8
               value: 4.
               norm_class_idx: 3
            -
               depth: 6
               value: 1.
               norm_class_idx: 0
               splits:
                  - { var:19, quality:6.5999999046325684e+00,
                      le:1.8807636201381683e-01 }
            -
               depth: 7
               value: 1.
               norm_class_idx: 0
            -
               depth: 7
               value: 20.
               norm_class_idx: 6
               splits:
                  - { var:4, quality:5., le:7.1187567710876465e-01 }
            -
               depth: 8
               value: 20.
               norm_class_idx: 6
            -
               depth: 8
               value: 5.
               norm_class_idx: 4
            -
               depth: 4
               value: 4.
               norm_class_idx: 3
               splits:
                  - { var:50, quality:3.5166667938232422e+01,
                      le:-5.5375644005835056e-03 }
            -
               depth: 5
               value: 4.
               norm_class_idx: 3
            -
               depth: 5
               value: 1.
               norm_class_idx: 0
               splits:
                  - { var:49, quality:1.0666666984558105e+01,
                      le:1.7286761105060577e-01 }
            -
               depth: 6
               value: 1.
               norm_class_idx: 0
               splits:
                  - { var:58, quality:3., le:-2.0155422389507294e-01 }
            -
               depth: 7
               value: 4.
               norm_class_idx: 3
            -
               depth: 7
               value: 1.
               norm_class_idx: 0
            -
               depth: 6
               value: 1.
               norm_class_idx: 0
            -
               depth: 3
               value: 3.
               norm_class_idx: 2
               splits:
                  - { var:43, quality:8.4162788391113281e+01,
                      le:-6.8383646011352539e-01 }
            -
               depth: 4
               value: 5.
               norm_class_idx: 4
            -
               depth: 4
               value: 3.
               norm_class_idx: 2
               splits:
                  - { var:33, quality:8.4023811340332031e+01,
                      le:1.4684541225433350e+00 }
            -
               depth: 5
               value: 3.
               norm_class_idx: 2
               splits:
                  - { var:11, quality:84., le:1.6226503849029541e+00 }
            -
               depth: 6
               value: 3.
               norm_class_idx: 2
            -
               depth: 6
               value: 20.
               norm_class_idx: 6
            -
               depth: 5
               value: 4.
               norm_class_idx: 3
      -
         nodes:
            -
               depth: 0
               value: 3.
               norm_class_idx: 2
               splits:
                  - { var:45, quality:2.0227285766601562e+02,
                      le:4.6176940202713013e-02 }
            -
               depth: 1
               value: 3.
               norm_class_idx: 2
               splits:
                  - { var:38, quality:1.3184822082519531e+02,
                      le:-1.4892871379852295e+00 }
            -
               depth: 2
               value: 5.
               norm_class_idx: 4
               splits:
                  - { var:30, quality:3.0250000000000000e+01,
                      le:1.6937992572784424e+00 }
            -
               depth: 3
               value: 5.
               norm_class_idx: 4
            -
               depth: 3
               value: 3.
               norm_class_idx: 2
               splits:
                  - { var:42, quality:8., le:-1.3101856708526611e+00 }
            -
               depth: 4
               value: 5.
               norm_class_idx: 4
            -
               depth: 4
               value: 3.
               norm_class_idx: 2
            -
               depth: 2
               value: 3.
               norm_class_idx: 2
               splits:
                  - { var:59, quality:1.2051851654052734e+02,
                      le:-1.0348155498504639e+00 }
            -
               depth: 3
               value: 2.
               norm_class_idx: 1
            -
               depth: 3
               value: 3.
               norm_class_idx: 2
               splits:
                  - { var:32, quality:1.2230769348144531e+02,
                      le:-5.1402938365936279e-01 }
            -
               depth: 4
               value: 20.
               norm_class_idx: 6
               splits:
                  - { var:65, quality:6., le:-2.6716494560241699e-01 }
            -
               depth: 5
               value: 20.
               norm_class_idx: 6
            -
               depth: 5
               value: 2.
               norm_class_idx: 1
            -
               depth: 4
               value: 3.
               norm_class_idx: 2
               splits:
                  - { var:22, quality:1.2189106750488281e+02,
                      le:5.6202995777130127e-01 }
            -
               depth: 5
               value: 3.
               norm_class_idx: 2
               splits:
                  - { var:18, quality:3.4687500000000000e+01,
                      le:-4.9414314329624176e-02 }
            -
               depth: 6
               value: 3.
               norm_class_idx: 2
            -
               depth: 6
               value: 3.
               norm_class_idx: 2
               splits:
                  - { var:6, quality:1.8479999542236328e+01,
                      le:1.1774864792823792e-01 }
            -
               depth: 7
               value: 20.
               norm_class_idx: 6
            -
               depth: 7
               value: 3.
               norm_class_idx: 2
               splits:
                  - { var:46, quality:1.5090909004211426e+01,
                      le:-9.2419815063476562e-01 }
            -
               depth: 8
               value: 20.
               norm_class_idx: 6
            -
               depth: 8
               value: 3.
               norm_class_idx: 2
               splits:
                  - { var:11, quality:1.5833333015441895e+01,
                      le:6.0382321476936340e-02 }
            -
               depth: 9
               value: 5.
               norm_class_idx: 4
               splits:
                  - { var:17, quality:3., le:7.8421223163604736e-01 }
            -
               depth: 10
               value: 2.
               norm_class_idx: 1
            -
               depth: 10
               value: 5.
               norm_class_idx: 4
            -
               depth: 9
               value: 3.
               norm_class_idx: 2
               splits:
                  - { var:17, quality:1.6117647171020508e+01,
                      le:1.1751493215560913e+00 }
            -
               depth: 10
               value: 3.
               norm_class_idx: 2
            -
               depth: 10
               value: 4.
               norm_class_idx: 3
            -
               depth: 5
               value: 3.
               norm_class_idx: 2
               splits:
                  - { var:27, quality:9.5139999389648438e+01,
                      le:1.2653149366378784e+00 }
            -
               depth: 6
               value: 3.
               norm_class_idx: 2
               splits:
                  - { var:34, quality:9.6080810546875000e+01,
                      le:8.2788705825805664e-01 }
            -
               depth: 7
               value: 3.
               norm_class_idx: 2
               splits:
                  - { var:9, quality:9.5380950927734375e+01,
                      le:4.7377622127532959e-01 }
            -
               depth: 8
               value: 3.
               norm_class_idx: 2
               splits:
                  - { var:10, quality:21., le:-6.8119332194328308e-02 }
            -
               depth: 9
               value: 3.
               norm_class_idx: 2
            -
               depth: 9
               value: 5.
               norm_class_idx: 4
            -
               depth: 8
               value: 3.
               norm_class_idx: 2
            -
               depth: 7
               value: 4.
               norm_class_idx: 3
            -
               depth: 6
               value: 4.
               norm_class_idx: 3
               splits:
                  - { var:12, quality:2., le:4.7016325592994690e-01 }
            -
               depth: 7
               value: 5.
               norm_class_idx: 4
            -
               depth: 7
               value: 4.
               norm_class_idx: 3
            -
               depth: 1
               value: 1.
               norm_class_idx: 0
               splits:
                  - { var:49, quality:1.5904914855957031e+02,
                      le:-2.8382825851440430e-01 }
            -
               depth: 2
               value: 2.
               norm_class_idx: 1
               splits:
                  - { var:59, quality:8.7244583129882812e+01,
                      le:-1.3559962809085846e-01 }
            -
               depth: 3
               value: 2.
               norm_class_idx: 1
               splits:
                  - { var:58, quality:7.5506027221679688e+01,
                      le:-1.4721894264221191e+00 }
            -
               depth: 4
               value: 1.
               norm_class_idx: 0
            -
               depth: 4
               value: 2.
               norm_class_idx: 1
               splits:
                  - { var:17, quality:7.6077919006347656e+01,
                      le:1.4640957117080688e+00 }
            -
               depth: 5
               value: 2.
               norm_class_idx: 1
               splits:
                  - { var:40, quality:7.5026313781738281e+01,
                      le:1.4909584522247314e+00 }
            -
               depth: 6
               value: 2.
               norm_class_idx: 1
               splits:
                  - { var:53, quality:7.4153846740722656e+01,
                      le:-7.4044281244277954e-01 }
            -
               depth: 7
               value: 2.
               norm_class_idx: 1
               splits:
                  - { var:53, quality:13., le:-7.6710158586502075e-01 }
            -
               depth: 8
               value: 2.
               norm_class_idx: 1
            -
               depth: 8
               value: 5.
               norm_class_idx: 4
            -
               depth: 7
               value: 2.
               norm_class_idx: 1
            -
               depth: 6
               value: 4.
               norm_class_idx: 3
            -
               depth: 5
               value: 2.
               norm_class_idx: 1
               splits:
                  - { var:29, quality:6., le:7.0104944705963135e-01 }
            -
               depth: 6
               value: 4.
               norm_class_idx: 3
            -
               depth: 6
               value: 2.
               norm_class_idx: 1
            -
               depth: 3
               value: 4.
               norm_class_idx: 3
               splits:
                  - { var:47, quality:19., le:-9.2903280258178711e-01 }
            -
               depth: 4
               value: 3.
               norm_class_idx: 2
            -
               depth: 4
               value: 4.
               norm_class_idx: 3
            -
               depth: 2
               value: 1.
               norm_class_idx: 0
               splits:
                  - { var:46, quality:1.0963718414306641e+02,
                      le:4.2876809835433960e-01 }
            -
               depth: 3
               value: 1.
               norm_class_idx: 0
               splits:
                  - { var:62, quality:2.1333333969116211e+01,
                      le:1.3358650207519531e+00 }
            -
               depth: 4
               value: 2.
               norm_class_idx: 1
               splits:
                  - { var:29, quality:1.6507352828979492e+01,
                      le:1.2262731790542603e-02 }
            -
               depth: 5
               value: 2.
               norm_class_idx: 1
               splits:
                  - { var:60, quality:17., le:-3.7264436483383179e-01 }
            -
               depth: 6
               value: 2.
               norm_class_idx: 1
            -
               depth: 6
               value: 1.
               norm_class_idx: 0
            -
               depth: 5
               value: 3.
               norm_class_idx: 2
               splits:
                  - { var:15, quality:1.0500000000000000e+01,
                      le:5.1357239484786987e-01 }
            -
               depth: 6
               value: 3.
               norm_class_idx: 2
               splits:
                  - { var:65, quality:8., le:-2.3759147524833679e-01 }
            -
               depth: 7
               value: 5.
               norm_class_idx: 4
            -
               depth: 7
               value: 3.
               norm_class_idx: 2
            -
               depth: 6
               value: 4.
               norm_class_idx: 3
               splits:
                  - { var:43, quality:8., le:-2.8168088197708130e-01 }
            -
               depth: 7
               value: 5.
               norm_class_idx: 4
            -
               depth: 7
               value: 4.
               norm_class_idx: 3
            -
               depth: 4
               value: 1.
               norm_class_idx: 0
            -
               depth: 3
               value: 1.
               norm_class_idx: 0
               splits:
                  - { var:64, quality:1.0360157012939453e+02,
                      le:9.5677918195724487e-01 }
            -
               depth: 4
               value: 1.
               norm_class_idx: 0
               splits:
                  - { var:61, quality:1.0435275268554688e+02,
                      le:5.3617328405380249e-01 }
            -
               depth: 5
               value: 1.
               norm_class_idx: 0
               splits:
                  - { var:63, quality:1.0128571319580078e+02,
                      le:-1.4765677452087402e+00 }
            -
               depth: 6
               value: 1.
               norm_class_idx: 0
               splits:
                  - { var:23, quality:6., le:-1.1776532232761383e-01 }
            -
               depth: 7
               value: 1.
               norm_class_idx: 0
            -
               depth: 7
               value: 1.
               norm_class_idx: 0
               splits:
                  - { var:23, quality:2., le:1.1782756447792053e-01 }
            -
               depth: 8
               value: 4.
               norm_class_idx: 3
            -
               depth: 8
               value: 1.
               norm_class_idx: 0
            -
               depth: 6
               value: 1.
               norm_class_idx: 0
            -
               depth: 5
               value: 4.
               norm_class_idx: 3
               splits:
                  - { var:49, quality:6., le:-1.0641705244779587e-01 }
            -
               depth: 6
               value: 4.
               norm_class_idx: 3
            -
               depth: 6
               value: 1.
               norm_class_idx: 0
            -
               depth: 4
               value: 4.
               norm_class_idx: 3
               splits:
                  - { var:45, quality:7., le:1.1354918479919434e+00 }
            -
               depth: 5
               value: 4.
               norm_class_idx: 3
            -
               depth: 5
               value: 1.
               norm_class_idx: 0
      -
         nodes:
            -
               depth: 0
               value: 3.
               norm_class_idx: 2
               splits:
                  - { var:52, quality:1.8726176452636719e+02,
                      le:-1.6039267182350159e-01 }
            -
               depth: 1
               value: 3.
               norm_class_idx: 2
               splits:
                  - { var:39, quality:1.1418243408203125e+02,
                      le:-1.5031030178070068e+00 }
            -
               depth: 2
               value: 5.
               norm_class_idx: 4
               splits:
                  - { var:34, quality:32., le:-8.2069195806980133e-02 }
            -
               depth: 3
               value: 5.
               norm_class_idx: 4
            -
               depth: 3
               value: 3.
               norm_class_idx: 2
            -
               depth: 2
               value: 3.
               norm_class_idx: 2
               splits:
                  - { var:4, quality:1.1563076782226562e+02,
                      le:-1.9746756553649902e-01 }
            -
               depth: 3
               value: 2.
               norm_class_idx: 1
               splits:
                  - { var:40, quality:18., le:-1.0293761491775513e+00 }
            -
               depth: 4
               value: 1.
               norm_class_idx: 0
            -
               depth: 4
               value: 2.
               norm_class_idx: 1
            -
               depth: 3
               value: 3.
               norm_class_idx: 2
               splits:
                  - { var:64, quality:1.0976190185546875e+02,
                      le:2.0861043930053711e+00 }
            -
               depth: 4
               value: 3.
               norm_class_idx: 2
               splits:
                  - { var:24, quality:1.1092682647705078e+02,
                      le:-4.7349590063095093e-01 }
            -
               depth: 5
               value: 20.
               norm_class_idx: 6
            -
               depth: 5
               value: 3.
               norm_class_idx: 2
               splits:
                  - { var:40, quality:1.1067742156982422e+02,
                      le:-1.7879302799701691e-01 }
            -
               depth: 6
               value: 3.
               norm_class_idx: 2
               splits:
                  - { var:35, quality:2.2726190567016602e+01,
                      le:-5.0722146034240723e-01 }
            -
               depth: 7
               value: 3.
               norm_class_idx: 2
               splits:
                  - { var:51, quality:2.0347826004028320e+01,
                      le:-1.2676808834075928e+00 }
            -
               depth: 8
               value: 2.
               norm_class_idx: 1
            -
               depth: 8
               value: 3.
               norm_class_idx: 2
               splits:
                  - { var:47, quality:2.0600000381469727e+01,
                      le:-2.4890170991420746e-01 }
            -
               depth: 9
               value: 3.
               norm_class_idx: 2
               splits:
                  - { var:54, quality:5., le:-9.8893845081329346e-01 }
            -
               depth: 10
               value: 3.
               norm_class_idx: 2
            -
               depth: 10
               value: 20.
               norm_class_idx: 6
            -
               depth: 9
               value: 3.
               norm_class_idx: 2
            -
               depth: 7
               value: 20.
               norm_class_idx: 6
               splits:
                  - { var:5, quality:7., le:4.6797341108322144e-01 }
            -
               depth: 8
               value: 20.
               norm_class_idx: 6
            -
               depth: 8
               value: 3.
               norm_class_idx: 2
            -
               depth: 6
               value: 3.
               norm_class_idx: 2
            -
               depth: 4
               value: 5.
               norm_class_idx: 4
            -
               depth: 1
               value: 1.
               norm_class_idx: 0
               splits:
                  - { var:58, quality:1.4589804077148438e+02,
                      le:-5.4054778814315796e-01 }
            -
               depth: 2
               value: 2.
               norm_class_idx: 1
               splits:
                  - { var:44, quality:1.1224320220947266e+02,
                      le:1.2413430213928223e+00 }
            -
               depth: 3
               value: 2.
               norm_class_idx: 1
               splits:
                  - { var:58, quality:9.4181816101074219e+01,
                      le:-1.5257004499435425e+00 }
            -
               depth: 4
               value: 1.
               norm_class_idx: 0
            -
               depth: 4
               value: 2.
               norm_class_idx: 1
               splits:
                  - { var:3, quality:9.4759262084960938e+01,
                      le:1.3594105243682861e+00 }
            -
               depth: 5
               value: 2.
               norm_class_idx: 1
               splits:
                  - { var:40, quality:9.6471694946289062e+01,
                      le:1.4490525722503662e+00 }
            -
               depth: 6
               value: 2.
               norm_class_idx: 1
               splits:
                  - { var:38, quality:9.5648933410644531e+01,
                      le:-1.0556502342224121e+00 }
            -
               depth: 7
               value: 2.
               norm_class_idx: 1
               splits:
                  - { var:49, quality:12., le:-1.1683481931686401e+00 }
            -
               depth: 8
               value: 2.
               norm_class_idx: 1
            -
               depth: 8
               value: 3.
               norm_class_idx: 2
            -
               depth: 7
               value: 2.
               norm_class_idx: 1
               splits:
                  - { var:51, quality:8.9356063842773438e+01,
                      le:8.8957405090332031e-01 }
            -
               depth: 8
               value: 2.
               norm_class_idx: 1
               splits:
                  - { var:46, quality:8.6666664123535156e+01,
                      le:-1.9275695085525513e-01 }
            -
               depth: 9
               value: 2.
               norm_class_idx: 1
               splits:
                  - { var:46, quality:3., le:-1.9851425290107727e-01 }
            -
               depth: 10
               value: 2.
               norm_class_idx: 1
            -
               depth: 10
               value: 5.
               norm_class_idx: 4
            -
               depth: 9
               value: 2.
               norm_class_idx: 1
            -
               depth: 8
               value: 2.
               norm_class_idx: 1
               splits:
                  - { var:15, quality:6., le:2.5481492280960083e-01 }
            -
               depth: 9
               value: 1.
               norm_class_idx: 0
            -
               depth: 9
               value: 2.
               norm_class_idx: 1
            -
               depth: 6
               value: 4.
               norm_class_idx: 3
            -
               depth: 5
               value: 4.
               norm_class_idx: 3
            -
               depth: 3
               value: 1.
               norm_class_idx: 0
               splits:
                  - { var:2, quality:2.5076923370361328e+01,
                      le:-8.0541753768920898e-01 }
            -
               depth: 4
               value: 4.
               norm_class_idx: 3
            -
               depth: 4
               value: 1.
               norm_class_idx: 0
               splits:
                  - { var:59, quality:25., le:2.9565539956092834e-01 }
            -
               depth: 5
               value: 1.
               norm_class_idx: 0
            -
               depth: 5
               value: 1.
               norm_class_idx: 0
               splits:
                  - { var:41, quality:2., le:2.9473681449890137e+00 }
            -
               depth: 6
               value: 4.
               norm_class_idx: 3
            -
               depth: 6
               value: 1.
               norm_class_idx: 0
            -
               depth: 2
               value: 1.
               norm_class_idx: 0
               splits:
                  - { var:59, quality:9.5701583862304688e+01,
                      le:-1.3541686534881592e-01 }
            -
               depth: 3
               value: 1.
               norm_class_idx: 0
               splits:
                  - { var:39, quality:8.1364707946777344e+01,
                      le:1.3197703361511230e+00 }
            -
               depth: 4
               value: 1.
               norm_class_idx: 0
               splits:
                  - { var:53, quality:8.2024093627929688e+01,
                      le:2.1653795242309570e-01 }
            -
               depth: 5
               value: 2.
               norm_class_idx: 1
               splits:
                  - { var:49, quality:2., le:-5.4709628224372864e-02 }
            -
               depth: 6
               value: 4.
               norm_class_idx: 3
            -
               depth: 6
               value: 2.
               norm_class_idx: 1
            -
               depth: 5
               value: 1.
               norm_class_idx: 0
               splits:
                  - { var:61, quality:83., le:-5.9792208671569824e-01 }
            -
               depth: 6
               value: 2.
               norm_class_idx: 1
            -
               depth: 6
               value: 1.
               norm_class_idx: 0
            -
               depth: 4
               value: 2.
               norm_class_idx: 1
               splits:
                  - { var:1, quality:4., le:5.7240986824035645e-01 }
            -
               depth: 5
               value: 1.
               norm_class_idx: 0
               splits:
                  - { var:52, quality:2., le:1.4406042098999023e+00 }
            -
               depth: 6
               value: 3.
               norm_class_idx: 2
            -
               depth: 6
               value: 1.
               norm_class_idx: 0
            -
               depth: 5
               value: 2.
               norm_class_idx: 1
            -
               depth: 3
               value: 4.
               norm_class_idx: 3
               splits:
                  - { var:36, quality:2.8666666030883789e+01,
                      le:-1.4044315814971924e+00 }
            -
               depth: 4
               value: 5.
               norm_class_idx: 4
            -
               depth: 4
               value: 4.
               norm_class_idx: 3
               splits:
                  - { var:36, quality:2.9597051620483398e+01,
                      le:7.4959504604339600e-01 }
            -
               depth: 5
               value: 4.
               norm_class_idx: 3
               splits:
                  - { var:39, quality:2.9162500381469727e+01,
                      le:-9.1468596458435059e-01 }
            -
               depth: 6
               value: 3.
               norm_class_idx: 2
               splits:
                  - { var:60, quality:5., le:-1.0294035077095032e-02 }
            -
               depth: 7
               value: 2.
               norm_class_idx: 1
            -
               depth: 7
               value: 3.
               norm_class_idx: 2
            -
               depth: 6
               value: 4.
               norm_class_idx: 3
               splits:
                  - { var:41, quality:3.0066667556762695e+01,
                      le:3.3671112060546875e+00 }
            -
               depth: 7
               value: 4.
               norm_class_idx: 3
               splits:
                  - { var:31, quality:30., le:-6.6600352525711060e-01 }
            -
               depth: 8
               value: 1.
               norm_class_idx: 0
            -
               depth: 8
               value: 4.
               norm_class_idx: 3
            -
               depth: 7
               value: 1.
               norm_class_idx: 0
            -
               depth: 5
               value: 1.
               norm_class_idx: 0
               splits:
                  - { var:7, quality:9.2222223281860352e+00,
                      le:-2.2461336851119995e-01 }
            -
               depth: 6
               value: 3.
               norm_class_idx: 2
            -
               depth: 6
               value: 1.
               norm_class_idx: 0
               splits:
                  - { var:45, quality:9., le:7.7178865671157837e-01 }
            -
               depth: 7
               value: 10.
               norm_class_idx: 5
            -
               depth: 7
               value: 1.
               norm_class_idx: 0
      -
         nodes:
            -
               depth: 0
               value: 3.
               norm_class_idx: 2
               splits:
                  - { var:45, quality:1.9073088073730469e+02,
                      le:5.9652343392372131e-02 }
            -
               depth: 1
               value: 3.
               norm_class_idx: 2
               splits:
                  - { var:42, quality:1.2228263092041016e+02,
                      le:-1.1894841194152832e+00 }
            -
               depth: 2
               value: 5.
               norm_class_idx: 4
               splits:
                  - { var:31, quality:2.2390977859497070e+01,
                      le:-8.3194220066070557e-01 }
            -
               depth: 3
               value: 1.
               norm_class_idx: 0
               splits:
                  - { var:4, quality:7., le:6.5672531723976135e-02 }
            -
               depth: 4
               value: 1.
               norm_class_idx: 0
            -
               depth: 4
               value: 20.
               norm_class_idx: 6
            -
               depth: 3
               value: 5.
               norm_class_idx: 4
               splits:
                  - { var:25, quality:1.7666666030883789e+01,
                      le:3.5222598910331726e-01 }
            -
               depth: 4
               value: 5.
               norm_class_idx: 4
            -
               depth: 4
               value: 5.
               norm_class_idx: 4
               splits:
                  - { var:10, quality:3., le:3.1940671615302563e-03 }
            -
               depth: 5
               value: 3.
               norm_class_idx: 2
            -
               depth: 5
               value: 5.
               norm_class_idx: 4
            -
               depth: 2
               value: 3.
               norm_class_idx: 2
               splits:
                  - { var:24, quality:1.2397618865966797e+02,
                      le:-7.9877245426177979e-01 }
            -
               depth: 3
               value: 2.
               norm_class_idx: 1
            -
               depth: 3
               value: 3.
               norm_class_idx: 2
               splits:
                  - { var:33, quality:1.2152342987060547e+02,
                      le:-1.1572137475013733e-01 }
            -
               depth: 4
               value: 3.
               norm_class_idx: 2
               splits:
                  - { var:39, quality:3.3780952453613281e+01,
                      le:-7.7274322509765625e-01 }
            -
               depth: 5
               value: 3.
               norm_class_idx: 2
               splits:
                  - { var:5, quality:1.8105262756347656e+01,
                      le:1.0068981647491455e+00 }
            -
               depth: 6
               value: 3.
               norm_class_idx: 2
               splits:
                  - { var:50, quality:19., le:1.0357543230056763e+00 }
            -
               depth: 7
               value: 3.
               norm_class_idx: 2
            -
               depth: 7
               value: 5.
               norm_class_idx: 4
            -
               depth: 6
               value: 5.
               norm_class_idx: 4
            -
               depth: 5
               value: 3.
               norm_class_idx: 2
               splits:
                  - { var:55, quality:2.3833333969116211e+01,
                      le:1.3741740584373474e-01 }
            -
               depth: 6
               value: 20.
               norm_class_idx: 6
               splits:
                  - { var:54, quality:1.8507936477661133e+01,
                      le:-8.4889417886734009e-01 }
            -
               depth: 7
               value: 3.
               norm_class_idx: 2
               splits:
                  - { var:34, quality:7.6666665077209473e+00,
                      le:-3.5320031642913818e-01 }
            -
               depth: 8
               value: 3.
               norm_class_idx: 2
            -
               depth: 8
               value: 20.
               norm_class_idx: 6
               splits:
                  - { var:18, quality:3., le:-8.4585152566432953e-02 }
            -
               depth: 9
               value: 3.
               norm_class_idx: 2
            -
               depth: 9
               value: 20.
               norm_class_idx: 6
            -
               depth: 7
               value: 20.
               norm_class_idx: 6
               splits:
                  - { var:43, quality:1.5736842155456543e+01,
                      le:-7.4563789367675781e-01 }
            -
               depth: 8
               value: 5.
               norm_class_idx: 4
            -
               depth: 8
               value: 20.
               norm_class_idx: 6
               splits:
                  - { var:1, quality:1.6117647171020508e+01,
                      le:2.5108876824378967e-01 }
            -
               depth: 9
               value: 20.
               norm_class_idx: 6
               splits:
                  - { var:6, quality:17., le:4.6885216236114502e-01 }
            -
               depth: 10
               value: 20.
               norm_class_idx: 6
            -
               depth: 10
               value: 3.
               norm_class_idx: 2
            -
               depth: 9
               value: 1.
               norm_class_idx: 0
               splits:
                  - { var:55, quality:2., le:3.0684586614370346e-02 }
            -
               depth: 10
               value: 3.
               norm_class_idx: 2
            -
               depth: 10
               value: 1.
               norm_class_idx: 0
            -
               depth: 6
               value: 3.
               norm_class_idx: 2
               splits:
                  - { var:11, quality:12., le:-1.5259966254234314e-01 }
            -
               depth: 7
               value: 2.
               norm_class_idx: 1
            -
               depth: 7
               value: 3.
               norm_class_idx: 2
            -
               depth: 4
               value: 3.
               norm_class_idx: 2
               splits:
                  - { var:25, quality:9.6919090270996094e+01,
                      le:1.3532050848007202e+00 }
            -
               depth: 5
               value: 3.
               norm_class_idx: 2
               splits:
                  - { var:35, quality:9.7137252807617188e+01,
                      le:9.8263394832611084e-01 }
            -
               depth: 6
               value: 3.
               norm_class_idx: 2
               splits:
                  - { var:64, quality:9.7080001831054688e+01,
                      le:-1.2988601922988892e+00 }
            -
               depth: 7
               value: 2.
               norm_class_idx: 1
               splits:
                  - { var:32, quality:2., le:-1.0331478714942932e-01 }
            -
               depth: 8
               value: 3.
               norm_class_idx: 2
            -
               depth: 8
               value: 2.
               norm_class_idx: 1
            -
               depth: 7
               value: 3.
               norm_class_idx: 2
               splits:
                  - { var:1, quality:97., le:4.7285676002502441e-01 }
            -
               depth: 8
               value: 3.
               norm_class_idx: 2
            -
               depth: 8
               value: 3.
               norm_class_idx: 2
               splits:
                  - { var:25, quality:8., le:2.5127759575843811e-01 }
            -
               depth: 9
               value: 3.
               norm_class_idx: 2
            -
               depth: 9
               value: 4.
               norm_class_idx: 3
            -
               depth: 6
               value: 4.
               norm_class_idx: 3
            -
               depth: 5
               value: 4.
               norm_class_idx: 3
               splits:
                  - { var:39, quality:3., le:5.2966046333312988e-01 }
            -
               depth: 6
               value: 4.
               norm_class_idx: 3
            -
               depth: 6
               value: 5.
               norm_class_idx: 4
            -
               depth: 1
               value: 1.
               norm_class_idx: 0
               splits:
                  - { var:54, quality:1.4280358886718750e+02,
                      le:8.3924108743667603e-01 }
            -
               depth: 2
               value: 2.
               norm_class_idx: 1
               splits:
                  - { var:59, quality:7.5220275878906250e+01,
                      le:-1.8771800398826599e-01 }
            -
               depth: 3
               value: 2.
               norm_class_idx: 1
               splits:
                  - { var:23, quality:7.7309936523437500e+01,
                      le:-1.1602586507797241e+00 }
            -
               depth: 4
               value: 1.
               norm_class_idx: 0
               splits:
                  - { var:50, quality:2.5745342254638672e+01,
                      le:-3.8839364051818848e-01 }
            -
               depth: 5
               value: 2.
               norm_class_idx: 1
               splits:
                  - { var:3, quality:14., le:-1.2006881237030029e+00 }
            -
               depth: 6
               value: 1.
               norm_class_idx: 0
            -
               depth: 6
               value: 2.
               norm_class_idx: 1
            -
               depth: 5
               value: 1.
               norm_class_idx: 0
               splits:
                  - { var:60, quality:2.1105262756347656e+01,
                      le:-7.1984767913818359e-01 }
            -
               depth: 6
               value: 2.
               norm_class_idx: 1
            -
               depth: 6
               value: 1.
               norm_class_idx: 0
               splits:
                  - { var:43, quality:19., le:-5.2348810434341431e-01 }
            -
               depth: 7
               value: 1.
               norm_class_idx: 0
            -
               depth: 7
               value: 2.
               norm_class_idx: 1
            -
               depth: 4
               value: 2.
               norm_class_idx: 1
               splits:
                  - { var:42, quality:6.2950000762939453e+01,
                      le:-5.7910764217376709e-01 }
            -
               depth: 5
               value: 5.
               norm_class_idx: 4
               splits:
                  - { var:55, quality:4., le:1.5678676962852478e-01 }
            -
               depth: 6
               value: 5.
               norm_class_idx: 4
            -
               depth: 6
               value: 1.
               norm_class_idx: 0
               splits:
                  - { var:12, quality:2., le:1.9104145467281342e-01 }
            -
               depth: 7
               value: 2.
               norm_class_idx: 1
            -
               depth: 7
               value: 1.
               norm_class_idx: 0
            -
               depth: 5
               value: 2.
               norm_class_idx: 1
               splits:
                  - { var:33, quality:6.2507041931152344e+01,
                      le:1.4490532875061035e+00 }
            -
               depth: 6
               value: 2.
               norm_class_idx: 1
               splits:
                  - { var:15, quality:6.5173912048339844e+01,
                      le:9.4880712032318115e-01 }
            -
               depth: 7
               value: 2.
               norm_class_idx: 1
               splits:
                  - { var:48, quality:6.5088233947753906e+01,
                      le:3.6321392655372620e-01 }
            -
               depth: 8
               value: 2.
               norm_class_idx: 1
               splits:
                  - { var:9, quality:6.4697433471679688e+01,
                      le:1.5584344863891602e+00 }
            -
               depth: 9
               value: 2.
               norm_class_idx: 1
               splits:
                  - { var:44, quality:6.3400001525878906e+01,
                      le:7.3289334774017334e-01 }
            -
               depth: 10
               value: 2.
               norm_class_idx: 1
            -
               depth: 10
               value: 2.
               norm_class_idx: 1
            -
               depth: 9
               value: 2.
               norm_class_idx: 1
               splits:
                  - { var:8, quality:3., le:1.3249462842941284e+00 }
            -
               depth: 10
               value: 4.
               norm_class_idx: 3
            -
               depth: 10
               value: 2.
               norm_class_idx: 1
            -
               depth: 8
               value: 1.
               norm_class_idx: 0
            -
               depth: 7
               value: 4.
               norm_class_idx: 3
            -
               depth: 6
               value: 4.
               norm_class_idx: 3
            -
               depth: 3
               value: 4.
               norm_class_idx: 3
               splits:
                  - { var:36, quality:18., le:-7.1258491277694702e-01 }
            -
               depth: 4
               value: 5.
               norm_class_idx: 4
               splits:
                  - { var:36, quality:10., le:-1.4692423343658447e+00 }
            -
               depth: 5
               value: 5.
               norm_class_idx: 4
            -
               depth: 5
               value: 3.
               norm_class_idx: 2
               splits:
                  - { var:9, quality:5.6666665077209473e+00,
                      le:3.1852924823760986e-01 }
            -
               depth: 6
               value: 20.
               norm_class_idx: 6
               splits:
                  - { var:7, quality:3., le:-5.2655231952667236e-01 }
            -
               depth: 7
               value: 2.
               norm_class_idx: 1
            -
               depth: 7
               value: 20.
               norm_class_idx: 6
            -
               depth: 6
               value: 3.
               norm_class_idx: 2
            -
               depth: 4
               value: 4.
               norm_class_idx: 3
            -
               depth: 2
               value: 1.
               norm_class_idx: 0
               splits:
                  - { var:60, quality:1.0071161651611328e+02,
                      le:4.4281721115112305e-01 }
            -
               depth: 3
               value: 1.
               norm_class_idx: 0
               splits:
                  - { var:1, quality:9.4749176025390625e+01,
                      le:-3.0943980813026428e-01 }
            -
               depth: 4
               value: 4.
               norm_class_idx: 3
               splits:
                  - { var:35, quality:6., le:6.4534431695938110e-01 }
            -
               depth: 5
               value: 1.
               norm_class_idx: 0
            -
               depth: 5
               value: 4.
               norm_class_idx: 3
            -
               depth: 4
               value: 1.
               norm_class_idx: 0
               splits:
                  - { var:49, quality:9.9020622253417969e+01,
                      le:-7.7764326333999634e-01 }
            -
               depth: 5
               value: 2.
               norm_class_idx: 1
            -
               depth: 5
               value: 1.
               norm_class_idx: 0
               splits:
                  - { var:65, quality:9.5166664123535156e+01,
                      le:-1.3499753475189209e+00 }
            -
               depth: 6
               value: 1.
               norm_class_idx: 0
               splits:
                  - { var:56, quality:12., le:-8.6646020412445068e-01 }
            -
               depth: 7
               value: 1.
               norm_class_idx: 0
            -
               depth: 7
               value: 4.
               norm_class_idx: 3
            -
               depth: 6
               value: 1.
               norm_class_idx: 0
            -
               depth: 3
               value: 4.
               norm_class_idx: 3
               splits:
                  - { var:48, quality:14., le:-9.3981021642684937e-01 }
            -
               depth: 4
               value: 4.
               norm_class_idx: 3
            -
               depth: 4
               value: 1.
               norm_class_idx: 0
      -
         nodes:
            -
               depth: 0
               value: 1.
               norm_class_idx: 0
               splits:
                  - { var:22, quality:1.8331727600097656e+02,
                      le:-6.1286056041717529e-01 }
            -
               depth: 1
               value: 1.
               norm_class_idx: 0
               splits:
                  - { var:57, quality:1.1485366058349609e+02,
                      le:1.8017228841781616e+00 }
            -
               depth: 2
               value: 1.
               norm_class_idx: 0
               splits:
                  - { var:46, quality:1.0206451416015625e+02,
                      le:7.0024013519287109e-01 }
            -
               depth: 3
               value: 2.
               norm_class_idx: 1
               splits:
                  - { var:56, quality:48., le:-6.8351703882217407e-01 }
            -
               depth: 4
               value: 1.
               norm_class_idx: 0
            -
               depth: 4
               value: 2.
               norm_class_idx: 1
               splits:
                  - { var:64, quality:4.9642551422119141e+01,
                      le:-1.2529674172401428e-01 }
            -
               depth: 5
               value: 2.
               norm_class_idx: 1
               splits:
                  - { var:29, quality:4.5500000000000000e+01,
                      le:-2.0586833953857422e+00 }
            -
               depth: 6
               value: 2.
               norm_class_idx: 1
               splits:
                  - { var:27, quality:4., le:-2.3447389602661133e+00 }
            -
               depth: 7
               value: 2.
               norm_class_idx: 1
            -
               depth: 7
               value: 1.
               norm_class_idx: 0
            -
               depth: 6
               value: 2.
               norm_class_idx: 1
            -
               depth: 5
               value: 1.
               norm_class_idx: 0
               splits:
                  - { var:33, quality:8.5000000000000000e+00,
                      le:-7.5933390855789185e-01 }
            -
               depth: 6
               value: 1.
               norm_class_idx: 0
            -
               depth: 6
               value: 2.
               norm_class_idx: 1
               splits:
                  - { var:19, quality:4., le:-1.9278073310852051e-01 }
            -
               depth: 7
               value: 3.
               norm_class_idx: 2
            -
               depth: 7
               value: 2.
               norm_class_idx: 1
            -
               depth: 3
               value: 1.
               norm_class_idx: 0
            -
               depth: 2
               value: 1.
               norm_class_idx: 0
            -
               depth: 1
               value: 3.
               norm_class_idx: 2
               splits:
                  - { var:48, quality:1.3147512817382812e+02,
                      le:-2.1133562922477722e-01 }
            -
               depth: 2
               value: 2.
               norm_class_idx: 1
               splits:
                  - { var:59, quality:6.6814033508300781e+01,
                      le:-7.8421401977539062e-01 }
            -
               depth: 3
               value: 2.
               norm_class_idx: 1
               splits:
                  - { var:14, quality:4.7847618103027344e+01,
                      le:7.9286551475524902e-01 }
            -
               depth: 4
               value: 2.
               norm_class_idx: 1
               splits:
                  - { var:50, quality:4.0500000000000000e+01,
                      le:-2.6902443170547485e-01 }
            -
               depth: 5
               value: 2.
               norm_class_idx: 1
            -
               depth: 5
               value: 2.
               norm_class_idx: 1
               splits:
                  - { var:2, quality:4., le:6.6402947902679443e-01 }
            -
               depth: 6
               value: 3.
               norm_class_idx: 2
            -
               depth: 6
               value: 2.
               norm_class_idx: 1
            -
               depth: 4
               value: 2.
               norm_class_idx: 1
               splits:
                  - { var:0, quality:12., le:6.0383176803588867e-01 }
            -
               depth: 5
               value: 4.
               norm_class_idx: 3
               splits:
                  - { var:26, quality:5., le:6.6057598590850830e-01 }
            -
               depth: 6
               value: 4.
               norm_class_idx: 3
            -
               depth: 6
               value: 1.
               norm_class_idx: 0
               splits:
                  - { var:40, quality:2., le:5.9515076875686646e-01 }
            -
               depth: 7
               value: 1.
               norm_class_idx: 0
            -
               depth: 7
               value: 2.
               norm_class_idx: 1
            -
               depth: 5
               value: 2.
               norm_class_idx: 1
            -
               depth: 3
               value: 4.
               norm_class_idx: 3
               splits:
                  - { var:39, quality:3.8189815521240234e+01,
                      le:8.8466502726078033e-02 }
            -
               depth: 4
               value: 4.
               norm_class_idx: 3
               splits:
                  - { var:53, quality:3.2359786987304688e+01,
                      le:-3.6562657356262207e-01 }
            -
               depth: 5
               value: 3.
               norm_class_idx: 2
               splits:
                  - { var:39, quality:1.2133333206176758e+01,
                      le:-7.4220472574234009e-01 }
            -
               depth: 6
               value: 3.
               norm_class_idx: 2
               splits:
                  - { var:45, quality:1.3181818008422852e+01,
                      le:-6.0458827018737793e-01 }
            -
               depth: 7
               value: 5.
               norm_class_idx: 4
            -
               depth: 7
               value: 3.
               norm_class_idx: 2
               splits:
                  - { var:51, quality:11., le:4.7263461351394653e-01 }
            -
               depth: 8
               value: 3.
               norm_class_idx: 2
            -
               depth: 8
               value: 2.
               norm_class_idx: 1
            -
               depth: 6
               value: 2.
               norm_class_idx: 1
               splits:
                  - { var:43, quality:6., le:1.7883530259132385e-01 }
            -
               depth: 7
               value: 4.
               norm_class_idx: 3
            -
               depth: 7
               value: 2.
               norm_class_idx: 1
            -
               depth: 5
               value: 4.
               norm_class_idx: 3
               splits:
                  - { var:47, quality:27., le:2.2606484591960907e-01 }
            -
               depth: 6
               value: 4.
               norm_class_idx: 3
            -
               depth: 6
               value: 1.
               norm_class_idx: 0
            -
               depth: 4
               value: 1.
               norm_class_idx: 0
               splits:
                  - { var:4, quality:2.3750000000000000e+01,
                      le:8.1878113746643066e-01 }
            -
               depth: 5
               value: 1.
               norm_class_idx: 0
               splits:
                  - { var:44, quality:2.2500000000000000e+01,
                      le:1.3443870544433594e+00 }
            -
               depth: 6
               value: 1.
               norm_class_idx: 0
               splits:
                  - { var:36, quality:4., le:5.9742510318756104e-01 }
            -
               depth: 7
               value: 1.
               norm_class_idx: 0
            -
               depth: 7
               value: 4.
               norm_class_idx: 3
            -
               depth: 6
               value: 1.
               norm_class_idx: 0
            -
               depth: 5
               value: 3.
               norm_class_idx: 2
               splits:
                  - { var:36, quality:3., le:1.2386050224304199e+00 }
            -
               depth: 6
               value: 3.
               norm_class_idx: 2
            -
               depth: 6
               value: 5.
               norm_class_idx: 4
            -
               depth: 2
               value: 3.
               norm_class_idx: 2
               splits:
                  - { var:2, quality:9.8628028869628906e+01,
                      le:9.1683709621429443e-01 }
            -
               depth: 3
               value: 3.
               norm_class_idx: 2
               splits:
                  - { var:33, quality:1.1412454223632812e+02,
                      le:-3.0072480440139771e-01 }
            -
               depth: 4
               value: 5.
               norm_class_idx: 4
               splits:
                  - { var:39, quality:2.5185184478759766e+01,
                      le:-1.3358879089355469e+00 }
            -
               depth: 5
               value: 5.
               norm_class_idx: 4
            -
               depth: 5
               value: 3.
               norm_class_idx: 2
               splits:
                  - { var:6, quality:1.4897727012634277e+01,
                      le:4.6628189086914062e-01 }
            -
               depth: 6
               value: 20.
               norm_class_idx: 6
               splits:
                  - { var:14, quality:11., le:-5.3530919551849365e-01 }
            -
               depth: 7
               value: 3.
               norm_class_idx: 2
            -
               depth: 7
               value: 20.
               norm_class_idx: 6
               splits:
                  - { var:11, quality:1.0615385055541992e+01,
                      le:-1.3491037487983704e-01 }
            -
               depth: 8
               value: 5.
               norm_class_idx: 4
            -
               depth: 8
               value: 20.
               norm_class_idx: 6
               splits:
                  - { var:48, quality:1.1166666984558105e+01,
                      le:1.3655399084091187e+00 }
            -
               depth: 9
               value: 20.
               norm_class_idx: 6
               splits:
                  - { var:56, quality:12., le:1.4973998069763184e-01 }
            -
               depth: 10
               value: 20.
               norm_class_idx: 6
            -
               depth: 10
               value: 3.
               norm_class_idx: 2
            -
               depth: 9
               value: 3.
               norm_class_idx: 2
            -
               depth: 6
               value: 3.
               norm_class_idx: 2
               splits:
                  - { var:50, quality:7.9166665077209473e+00,
                      le:1.0357543230056763e+00 }
            -
               depth: 7
               value: 3.
               norm_class_idx: 2
               splits:
                  - { var:61, quality:8., le:-5.8596444129943848e-01 }
            -
               depth: 8
               value: 2.
               norm_class_idx: 1
            -
               depth: 8
               value: 3.
               norm_class_idx: 2
            -
               depth: 7
               value: 5.
               norm_class_idx: 4
               splits:
                  - { var:18, quality:3., le:-8.5032887756824493e-02 }
            -
               depth: 8
               value: 3.
               norm_class_idx: 2
            -
               depth: 8
               value: 5.
               norm_class_idx: 4
            -
               depth: 4
               value: 3.
               norm_class_idx: 2
               splits:
                  - { var:37, quality:1.0114286041259766e+02,
                      le:4.8207759857177734e-01 }
            -
               depth: 5
               value: 3.
               norm_class_idx: 2
            -
               depth: 5
               value: 3.
               norm_class_idx: 2
               splits:
                  - { var:56, quality:7., le:-1.6079108417034149e-01 }
            -
               depth: 6
               value: 20.
               norm_class_idx: 6
            -
               depth: 6
               value: 3.
               norm_class_idx: 2
            -
               depth: 3
               value: 5.
               norm_class_idx: 4
               splits:
                  - { var:59, quality:1.1399999618530273e+01,
                      le:7.2879445552825928e-01 }
            -
               depth: 4
               value: 3.
               norm_class_idx: 2
               splits:
                  - { var:29, quality:5., le:1.0615689754486084e+00 }
            -
               depth: 5
               value: 4.
               norm_class_idx: 3
            -
               depth: 5
               value: 3.
               norm_class_idx: 2
            -
               depth: 4
               value: 5.
               norm_class_idx: 4
      -
         nodes:
            -
               depth: 0
               value: 3.
               norm_class_idx: 2
               splits:
                  - { var:46, quality:1.8250308227539062e+02,
                      le:-1.0505372285842896e-01 }
            -
               depth: 1
               value: 3.
               norm_class_idx: 2
               splits:
                  - { var:24, quality:1.1139901733398438e+02,
                      le:8.4275364875793457e-01 }
            -
               depth: 2
               value: 3.
               norm_class_idx: 2
               splits:
                  - { var:6, quality:4.8010799407958984e+01,
                      le:2.9667067527770996e-01 }
            -
               depth: 3
               value: 20.
               norm_class_idx: 6
               splits:
                  - { var:52, quality:3.1446050643920898e+01,
                      le:-5.7054024934768677e-01 }
            -
               depth: 4
               value: 20.
               norm_class_idx: 6
               splits:
                  - { var:65, quality:2.0512821197509766e+01,
                      le:-8.4515370428562164e-02 }
            -
               depth: 5
               value: 20.
               norm_class_idx: 6
               splits:
                  - { var:37, quality:2.1250000000000000e+01,
                      le:-6.7745745182037354e-01 }
            -
               depth: 6
               value: 3.
               norm_class_idx: 2
               splits:
                  - { var:35, quality:2., le:6.3305884599685669e-02 }
            -
               depth: 7
               value: 5.
               norm_class_idx: 4
            -
               depth: 7
               value: 3.
               norm_class_idx: 2
            -
               depth: 6
               value: 20.
               norm_class_idx: 6
               splits:
                  - { var:35, quality:2.2086956024169922e+01,
                      le:-7.1798697113990784e-02 }
            -
               depth: 7
               value: 20.
               norm_class_idx: 6
               splits:
                  - { var:58, quality:2.1666666030883789e+01,
                      le:-5.0537532567977905e-01 }
            -
               depth: 8
               value: 20.
               norm_class_idx: 6
               splits:
                  - { var:63, quality:3., le:-7.7677857875823975e-01 }
            -
               depth: 9
               value: 20.
               norm_class_idx: 6
            -
               depth: 9
               value: 3.
               norm_class_idx: 2
            -
               depth: 8
               value: 20.
               norm_class_idx: 6
            -
               depth: 7
               value: 2.
               norm_class_idx: 1
            -
               depth: 5
               value: 3.
               norm_class_idx: 2
               splits:
                  - { var:45, quality:3., le:-1.1177845001220703e+00 }
            -
               depth: 6
               value: 5.
               norm_class_idx: 4
            -
               depth: 6
               value: 3.
               norm_class_idx: 2
            -
               depth: 4
               value: 2.
               norm_class_idx: 1
               splits:
                  - { var:62, quality:1.9615385055541992e+01,
                      le:1.0500293970108032e+00 }
            -
               depth: 5
               value: 2.
               norm_class_idx: 1
               splits:
                  - { var:52, quality:1.9819549560546875e+01,
                      le:-3.1689152121543884e-01 }
            -
               depth: 6
               value: 1.
               norm_class_idx: 0
               splits:
                  - { var:6, quality:5.5000000000000000e+00,
                      le:-4.8916870355606079e-01 }
            -
               depth: 7
               value: 1.
               norm_class_idx: 0
            -
               depth: 7
               value: 3.
               norm_class_idx: 2
               splits:
                  - { var:38, quality:4., le:2.5752514600753784e-01 }
            -
               depth: 8
               value: 3.
               norm_class_idx: 2
            -
               depth: 8
               value: 2.
               norm_class_idx: 1
            -
               depth: 6
               value: 2.
               norm_class_idx: 1
               splits:
                  - { var:47, quality:19., le:8.5671925544738770e-01 }
            -
               depth: 7
               value: 2.
               norm_class_idx: 1
            -
               depth: 7
               value: 20.
               norm_class_idx: 6
            -
               depth: 5
               value: 1.
               norm_class_idx: 0
            -
               depth: 3
               value: 3.
               norm_class_idx: 2
               splits:
                  - { var:35, quality:4.6380489349365234e+01,
                      le:-3.8672131299972534e-01 }
            -
               depth: 4
               value: 5.
               norm_class_idx: 4
               splits:
                  - { var:64, quality:2.7406698226928711e+01,
                      le:1.4024879932403564e+00 }
            -
               depth: 5
               value: 3.
               norm_class_idx: 2
               splits:
                  - { var:53, quality:1.2622221946716309e+01,
                      le:-2.6357373595237732e-01 }
            -
               depth: 6
               value: 5.
               norm_class_idx: 4
               splits:
                  - { var:15, quality:8.6666669845581055e+00,
                      le:7.1504211425781250e-01 }
            -
               depth: 7
               value: 20.
               norm_class_idx: 6
               splits:
                  - { var:24, quality:3., le:4.5375084877014160e-01 }
            -
               depth: 8
               value: 20.
               norm_class_idx: 6
            -
               depth: 8
               value: 3.
               norm_class_idx: 2
            -
               depth: 7
               value: 5.
               norm_class_idx: 4
            -
               depth: 6
               value: 3.
               norm_class_idx: 2
               splits:
                  - { var:26, quality:9., le:4.7872729599475861e-02 }
            -
               depth: 7
               value: 20.
               norm_class_idx: 6
            -
               depth: 7
               value: 3.
               norm_class_idx: 2
            -
               depth: 5
               value: 5.
               norm_class_idx: 4
               splits:
                  - { var:14, quality:22., le:7.9869493842124939e-02 }
            -
               depth: 6
               value: 3.
               norm_class_idx: 2
            -
               depth: 6
               value: 5.
               norm_class_idx: 4
            -
               depth: 4
               value: 3.
               norm_class_idx: 2
               splits:
                  - { var:7, quality:2.7600000381469727e+01,
                      le:4.4595807790756226e-01 }
            -
               depth: 5
               value: 3.
               norm_class_idx: 2
            -
               depth: 5
               value: 4.
               norm_class_idx: 3
               splits:
                  - { var:57, quality:5., le:1.3451716303825378e-01 }
            -
               depth: 6
               value: 3.
               norm_class_idx: 2
            -
               depth: 6
               value: 4.
               norm_class_idx: 3
            -
               depth: 2
               value: 3.
               norm_class_idx: 2
               splits:
                  - { var:34, quality:9.0153846740722656e+01,
                      le:-4.0958493947982788e-01 }
            -
               depth: 3
               value: 5.
               norm_class_idx: 4
            -
               depth: 3
               value: 3.
               norm_class_idx: 2
               splits:
                  - { var:64, quality:8.9022468566894531e+01,
                      le:1.9369196891784668e+00 }
            -
               depth: 4
               value: 3.
               norm_class_idx: 2
               splits:
                  - { var:19, quality:89., le:2.8819217681884766e+00 }
            -
               depth: 5
               value: 3.
               norm_class_idx: 2
            -
               depth: 5
               value: 20.
               norm_class_idx: 6
            -
               depth: 4
               value: 4.
               norm_class_idx: 3
            -
               depth: 1
               value: 1.
               norm_class_idx: 0
               splits:
                  - { var:48, quality:1.5207844543457031e+02,
                      le:-1.2328722476959229e+00 }
            -
               depth: 2
               value: 2.
               norm_class_idx: 1
               splits:
                  - { var:50, quality:7.1653335571289062e+01,
                      le:-7.2181463241577148e-01 }
            -
               depth: 3
               value: 2.
               norm_class_idx: 1
               splits:
                  - { var:64, quality:6.9189186096191406e+01,
                      le:3.7121453881263733e-01 }
            -
               depth: 4
               value: 2.
               norm_class_idx: 1
               splits:
                  - { var:33, quality:7.0109588623046875e+01,
                      le:1.4490532875061035e+00 }
            -
               depth: 5
               value: 2.
               norm_class_idx: 1
               splits:
                  - { var:38, quality:7.1666664123535156e+01,
                      le:-1.3615362644195557e+00 }
            -
               depth: 6
               value: 3.
               norm_class_idx: 2
               splits:
                  - { var:45, quality:3., le:3.6645770072937012e-01 }
            -
               depth: 7
               value: 3.
               norm_class_idx: 2
            -
               depth: 7
               value: 2.
               norm_class_idx: 1
            -
               depth: 6
               value: 2.
               norm_class_idx: 1
            -
               depth: 5
               value: 4.
               norm_class_idx: 3
            -
               depth: 4
               value: 4.
               norm_class_idx: 3
            -
               depth: 3
               value: 4.
               norm_class_idx: 3
               splits:
                  - { var:45, quality:6., le:1.2189452648162842e+00 }
            -
               depth: 4
               value: 4.
               norm_class_idx: 3
            -
               depth: 4
               value: 1.
               norm_class_idx: 0
            -
               depth: 2
               value: 1.
               norm_class_idx: 0
               splits:
                  - { var:45, quality:1.0806531524658203e+02,
                      le:5.4654526710510254e-01 }
            -
               depth: 3
               value: 2.
               norm_class_idx: 1
               splits:
                  - { var:58, quality:2.7691852569580078e+01,
                      le:-3.3669731020927429e-01 }
            -
               depth: 4
               value: 2.
               norm_class_idx: 1
               splits:
                  - { var:23, quality:2.1583333969116211e+01,
                      le:4.2418500781059265e-01 }
            -
               depth: 5
               value: 2.
               norm_class_idx: 1
               splits:
                  - { var:23, quality:2.2090909957885742e+01,
                      le:-1.4255880117416382e+00 }
            -
               depth: 6
               value: 1.
               norm_class_idx: 0
            -
               depth: 6
               value: 2.
               norm_class_idx: 1
               splits:
                  - { var:59, quality:22., le:-7.3594069480895996e-01 }
            -
               depth: 7
               value: 2.
               norm_class_idx: 1
            -
               depth: 7
               value: 4.
               norm_class_idx: 3
            -
               depth: 5
               value: 3.
               norm_class_idx: 2
            -
               depth: 4
               value: 1.
               norm_class_idx: 0
               splits:
                  - { var:15, quality:1.9600000381469727e+01,
                      le:-6.3182389736175537e-01 }
            -
               depth: 5
               value: 1.
               norm_class_idx: 0
            -
               depth: 5
               value: 4.
               norm_class_idx: 3
               splits:
                  - { var:15, quality:8.5000000000000000e+00,
                      le:1.6344834864139557e-01 }
            -
               depth: 6
               value: 10.
               norm_class_idx: 5
               splits:
                  - { var:62, quality:4., le:6.2680160999298096e-01 }
            -
               depth: 7
               value: 3.
               norm_class_idx: 2
            -
               depth: 7
               value: 10.
               norm_class_idx: 5
            -
               depth: 6
               value: 4.
               norm_class_idx: 3
            -
               depth: 3
               value: 1.
               norm_class_idx: 0
               splits:
                  - { var:22, quality:9.6919090270996094e+01,
                      le:7.2859966754913330e-01 }
            -
               depth: 4
               value: 1.
               norm_class_idx: 0
               splits:
                  - { var:6, quality:9.6083335876464844e+01,
                      le:3.7865048646926880e-01 }
            -
               depth: 5
               value: 1.
               norm_class_idx: 0
            -
               depth: 5
               value: 1.
               norm_class_idx: 0
               splits:
                  - { var:47, quality:1.9363636016845703e+01,
                      le:9.5775678753852844e-02 }
            -
               depth: 6
               value: 3.
               norm_class_idx: 2
               splits:
                  - { var:29, quality:2., le:4.3275862932205200e-01 }
            -
               depth: 7
               value: 4.
               norm_class_idx: 3
            -
               depth: 7
               value: 3.
               norm_class_idx: 2
            -
               depth: 6
               value: 1.
               norm_class_idx: 0
               splits:
                  - { var:6, quality:2.0095237731933594e+01,
                      le:4.1725769639015198e-01 }
            -
               depth: 7
               value: 4.
               norm_class_idx: 3
            -
               depth: 7
               value: 1.
               norm_class_idx: 0
               splits:
                  - { var:17, quality:20., le:7.5920629501342773e-01 }
            -
               depth: 8
               value: 1.
               norm_class_idx: 0
               splits:
                  - { var:10, quality:2., le:4.5674356818199158e-01 }
            -
               depth: 9
               value: 4.
               norm_class_idx: 3
            -
               depth: 9
               value: 1.
               norm_class_idx: 0
            -
               depth: 8
               value: 1.
               norm_class_idx: 0
            -
               depth: 4
               value: 10.
               norm_class_idx: 5
               splits:
                  - { var:10, quality:3., le:2.1992049217224121e+00 }
            -
               depth: 5
               value: 2.
               norm_class_idx: 1
            -
               depth: 5
               value: 10.
               norm_class_idx: 5
      -
         nodes:
            -
               depth: 0
               value: 1.
               norm_class_idx: 0
               splits:
                  - { var:51, quality:1.7810317993164062e+02,
                      le:8.1844925880432129e-01 }
            -
               depth: 1
               value: 3.
               norm_class_idx: 2
               splits:
                  - { var:58, quality:1.5079557800292969e+02,
                      le:-3.6697721481323242e-01 }
            -
               depth: 2
               value: 2.
               norm_class_idx: 1
               splits:
                  - { var:58, quality:8.4517433166503906e+01,
                      le:-1.5548449754714966e+00 }
            -
               depth: 3
               value: 3.
               norm_class_idx: 2
               splits:
                  - { var:34, quality:5., le:1.1113858968019485e-01 }
            -
               depth: 4
               value: 1.
               norm_class_idx: 0
            -
               depth: 4
               value: 3.
               norm_class_idx: 2
            -
               depth: 3
               value: 2.
               norm_class_idx: 1
               splits:
                  - { var:32, quality:8.7594596862792969e+01,
                      le:-4.7669970989227295e-01 }
            -
               depth: 4
               value: 2.
               norm_class_idx: 1
            -
               depth: 4
               value: 2.
               norm_class_idx: 1
               splits:
                  - { var:51, quality:2.2519229888916016e+01,
                      le:7.9753383994102478e-02 }
            -
               depth: 5
               value: 3.
               norm_class_idx: 2
               splits:
                  - { var:49, quality:5.2727274894714355e+00,
                      le:-1.1651575565338135e+00 }
            -
               depth: 6
               value: 4.
               norm_class_idx: 3
               splits:
                  - { var:22, quality:2., le:6.4295858144760132e-01 }
            -
               depth: 7
               value: 5.
               norm_class_idx: 4
            -
               depth: 7
               value: 4.
               norm_class_idx: 3
            -
               depth: 6
               value: 3.
               norm_class_idx: 2
               splits:
                  - { var:47, quality:6.5333333015441895e+00,
                      le:-5.1317894458770752e-01 }
            -
               depth: 7
               value: 3.
               norm_class_idx: 2
               splits:
                  - { var:52, quality:5., le:-9.5315873622894287e-01 }
            -
               depth: 8
               value: 3.
               norm_class_idx: 2
            -
               depth: 8
               value: 2.
               norm_class_idx: 1
               splits:
                  - { var:35, quality:2., le:4.7632175683975220e-01 }
            -
               depth: 9
               value: 2.
               norm_class_idx: 1
            -
               depth: 9
               value: 3.
               norm_class_idx: 2
            -
               depth: 7
               value: 20.
               norm_class_idx: 6
               splits:
                  - { var:0, quality:4., le:2.2604581713676453e-01 }
            -
               depth: 8
               value: 20.
               norm_class_idx: 6
            -
               depth: 8
               value: 1.
               norm_class_idx: 0
               splits:
                  - { var:49, quality:2., le:1.4516279101371765e-01 }
            -
               depth: 9
               value: 1.
               norm_class_idx: 0
            -
               depth: 9
               value: 3.
               norm_class_idx: 2
            -
               depth: 5
               value: 2.
               norm_class_idx: 1
               splits:
                  - { var:61, quality:21., le:-7.1835732460021973e-01 }
            -
               depth: 6
               value: 2.
               norm_class_idx: 1
            -
               depth: 6
               value: 2.
               norm_class_idx: 1
               splits:
                  - { var:0, quality:6., le:5.1733505725860596e-01 }
            -
               depth: 7
               value: 3.
               norm_class_idx: 2
            -
               depth: 7
               value: 2.
               norm_class_idx: 1
            -
               depth: 2
               value: 3.
               norm_class_idx: 2
               splits:
                  - { var:33, quality:1.1031273651123047e+02,
                      le:-3.9367014169692993e-01 }
            -
               depth: 3
               value: 5.
               norm_class_idx: 4
               splits:
                  - { var:36, quality:5.2891860961914062e+01,
                      le:-1.4137101173400879e+00 }
            -
               depth: 4
               value: 5.
               norm_class_idx: 4
               splits:
                  - { var:56, quality:40., le:9.3286889791488647e-01 }
            -
               depth: 5
               value: 5.
               norm_class_idx: 4
            -
               depth: 5
               value: 1.
               norm_class_idx: 0
            -
               depth: 4
               value: 1.
               norm_class_idx: 0
               splits:
                  - { var:24, quality:3.2882354736328125e+01,
                      le:-8.1052881479263306e-01 }
            -
               depth: 5
               value: 1.
               norm_class_idx: 0
            -
               depth: 5
               value: 3.
               norm_class_idx: 2
               splits:
                  - { var:9, quality:1.1181818008422852e+01,
                      le:4.2581695318222046e-01 }
            -
               depth: 6
               value: 20.
               norm_class_idx: 6
               splits:
                  - { var:11, quality:7.9166665077209473e+00,
                      le:-2.1259803324937820e-02 }
            -
               depth: 7
               value: 4.
               norm_class_idx: 3
               splits:
                  - { var:51, quality:3., le:-2.2800227999687195e-01 }
            -
               depth: 8
               value: 3.
               norm_class_idx: 2
            -
               depth: 8
               value: 4.
               norm_class_idx: 3
            -
               depth: 7
               value: 20.
               norm_class_idx: 6
               splits:
                  - { var:2, quality:8., le:-4.5413064956665039e-01 }
            -
               depth: 8
               value: 3.
               norm_class_idx: 2
            -
               depth: 8
               value: 20.
               norm_class_idx: 6
            -
               depth: 6
               value: 3.
               norm_class_idx: 2
            -
               depth: 3
               value: 3.
               norm_class_idx: 2
               splits:
                  - { var:51, quality:9.5937500000000000e+01,
                      le:3.5343143343925476e-01 }
            -
               depth: 4
               value: 3.
               norm_class_idx: 2
               splits:
                  - { var:39, quality:9.8418548583984375e+01,
                      le:4.3164604902267456e-01 }
            -
               depth: 5
               value: 3.
               norm_class_idx: 2
               splits:
                  - { var:29, quality:9.6684211730957031e+01,
                      le:8.0571091175079346e-01 }
            -
               depth: 6
               value: 3.
               norm_class_idx: 2
               splits:
                  - { var:5, quality:2.8038314819335938e+01,
                      le:8.7263667583465576e-01 }
            -
               depth: 7
               value: 3.
               norm_class_idx: 2
               splits:
                  - { var:4, quality:2.6500000000000000e+01,
                      le:4.1754668951034546e-01 }
            -
               depth: 8
               value: 20.
               norm_class_idx: 6
               splits:
                  - { var:8, quality:3., le:-2.5274324417114258e-01 }
            -
               depth: 9
               value: 20.
               norm_class_idx: 6
            -
               depth: 9
               value: 3.
               norm_class_idx: 2
               splits:
                  - { var:45, quality:2., le:-1.7927187681198120e-01 }
            -
               depth: 10
               value: 3.
               norm_class_idx: 2
            -
               depth: 10
               value: 4.
               norm_class_idx: 3
            -
               depth: 8
               value: 3.
               norm_class_idx: 2
            -
               depth: 7
               value: 4.
               norm_class_idx: 3
               splits:
                  - { var:35, quality:7.6666665077209473e+00,
                      le:1.2949837744235992e-01 }
            -
               depth: 8
               value: 5.
               norm_class_idx: 4
               splits:
                  - { var:35, quality:3., le:-2.2097328305244446e-01 }
            -
               depth: 9
               value: 5.
               norm_class_idx: 4
            -
               depth: 9
               value: 3.
               norm_class_idx: 2
            -
               depth: 8
               value: 4.
               norm_class_idx: 3
            -
               depth: 6
               value: 3.
               norm_class_idx: 2
            -
               depth: 5
               value: 20.
               norm_class_idx: 6
               splits:
                  - { var:60, quality:8.3636360168457031e+00,
                      le:-2.1780614554882050e-01 }
            -
               depth: 6
               value: 2.
               norm_class_idx: 1
            -
               depth: 6
               value: 20.
               norm_class_idx: 6
               splits:
                  - { var:29, quality:9.5000000000000000e+00,
                      le:4.7275191545486450e-01 }
            -
               depth: 7
               value: 20.
               norm_class_idx: 6
            -
               depth: 7
               value: 3.
               norm_class_idx: 2
               splits:
                  - { var:17, quality:4., le:1.5305635929107666e+00 }
            -
               depth: 8
               value: 3.
               norm_class_idx: 2
            -
               depth: 8
               value: 5.
               norm_class_idx: 4
            -
               depth: 4
               value: 4.
               norm_class_idx: 3
               splits:
                  - { var:55, quality:1.1199999809265137e+01,
                      le:8.7913215160369873e-01 }
            -
               depth: 5
               value: 4.
               norm_class_idx: 3
               splits:
                  - { var:13, quality:10., le:-1.0809046030044556e+00 }
            -
               depth: 6
               value: 1.
               norm_class_idx: 0
            -
               depth: 6
               value: 4.
               norm_class_idx: 3
            -
               depth: 5
               value: 10.
               norm_class_idx: 5
            -
               depth: 1
               value: 1.
               norm_class_idx: 0
               splits:
                  - { var:15, quality:9.9521903991699219e+01,
                      le:7.9587662220001221e-01 }
            -
               depth: 2
               value: 1.
               norm_class_idx: 0
               splits:
                  - { var:26, quality:8.6279571533203125e+01,
                      le:-3.8418027758598328e-01 }
            -
               depth: 3
               value: 4.
               norm_class_idx: 3
            -
               depth: 3
               value: 1.
               norm_class_idx: 0
               splits:
                  - { var:48, quality:9.1500000000000000e+01,
                      le:-1.3330817222595215e+00 }
            -
               depth: 4
               value: 2.
               norm_class_idx: 1
               splits:
                  - { var:25, quality:4., le:3.2455018162727356e-01 }
            -
               depth: 5
               value: 2.
               norm_class_idx: 1
            -
               depth: 5
               value: 4.
               norm_class_idx: 3
            -
               depth: 4
               value: 1.
               norm_class_idx: 0
            -
               depth: 2
               value: 1.
               norm_class_idx: 0
               splits:
                  - { var:49, quality:2.5838596343994141e+01,
