%YAML:1.0
---
opencv_ml_rtrees:
   format: 3
   is_classifier: 1
   var_all: 13
   var_count: 12
   ord_var_count: 12
   cat_var_count: 1
   training_params:
      use_surrogates: 0
      max_categories: 10
      regression_accuracy: 0.
      max_depth: 5
      min_sample_count: 1
      cross_validation_folds: 0
      nactive_vars: 0
   global_var_idx: 1
   var_idx: [ 0, 1, 2, 3, 4, 5, 6, 7, 8, 9, 10, 11 ]
   var_type: [ 0, 0, 0, 0, 0, 0, 0, 0, 0, 0, 0, 0, 1 ]
   cat_ofs: [ 0, 0, 0, 0, 0, 0, 0, 0, 0, 0, 0, 0, 0, 0, 0, 0, 0, 0, 0, 0,
       0, 0, 0, 0 ]
   class_labels: [ 1, 2, 3, 4, 5, 10, 20 ]
   missing_subst: [ 0., 0., 0., 0., 0., 0., 0., 0., 0., 0., 0., 0., 0. ]
   oob_error: 1.0790835181079084e-01
   ntrees: 100
   trees:
      -
         nodes:
            -
               depth: 0
               value: 3.
               norm_class_idx: 2
               splits:
                  - { var:4, quality:4.0570786132812500e+03,
                      le:9.0484493970870972e-01 }
            -
               depth: 1
               value: 1.
               norm_class_idx: 0
               splits:
                  - { var:1, quality:2.7273225097656250e+03,
                      le:8.1299349665641785e-02 }
            -
               depth: 2
               value: 1.
               norm_class_idx: 0
               splits:
                  - { var:4, quality:2.2027280273437500e+03,
                      le:-6.7185467481613159e-01 }
            -
               depth: 3
               value: 1.
               norm_class_idx: 0
               splits:
                  - { var:2, quality:1.9398151855468750e+03,
                      le:-1.3820202350616455e+00 }
            -
               depth: 4
               value: 1.
               norm_class_idx: 0
               splits:
                  - { var:9, quality:1.6022222900390625e+02,
                      le:-5.3536975383758545e-01 }
            -
               depth: 5
               value: 20.
               norm_class_idx: 6
            -
               depth: 5
               value: 1.
               norm_class_idx: 0
            -
               depth: 4
               value: 1.
               norm_class_idx: 0
               splits:
                  - { var:7, quality:1.8470201416015625e+03,
                      le:5.8262872695922852e-01 }
            -
               depth: 5
               value: 1.
               norm_class_idx: 0
            -
               depth: 5
               value: 2.
               norm_class_idx: 1
            -
               depth: 3
               value: 2.
               norm_class_idx: 1
               splits:
                  - { var:11, quality:4.2674819946289062e+02,
                      le:-5.4474693536758423e-01 }
            -
               depth: 4
               value: 2.
               norm_class_idx: 1
               splits:
                  - { var:10, quality:4.4273062133789062e+02,
                      le:-4.9513536691665649e-01 }
            -
               depth: 5
               value: 1.
               norm_class_idx: 0
            -
               depth: 5
               value: 2.
               norm_class_idx: 1
            -
               depth: 4
               value: 20.
               norm_class_idx: 6
               splits:
                  - { var:6, quality:1.8781483459472656e+02,
                      le:1.3735160231590271e-01 }
            -
               depth: 5
               value: 20.
               norm_class_idx: 6
            -
               depth: 5
               value: 1.
               norm_class_idx: 0
            -
               depth: 2
               value: 3.
               norm_class_idx: 2
               splits:
                  - { var:8, quality:1.3037698974609375e+03,
                      le:1.3032510876655579e-01 }
            -
               depth: 3
               value: 3.
               norm_class_idx: 2
               splits:
                  - { var:10, quality:7.2993164062500000e+02,
                      le:9.7954645752906799e-02 }
            -
               depth: 4
               value: 3.
               norm_class_idx: 2
               splits:
                  - { var:3, quality:4.4061474609375000e+02,
                      le:4.2727273702621460e-01 }
            -
               depth: 5
               value: 3.
               norm_class_idx: 2
            -
               depth: 5
               value: 3.
               norm_class_idx: 2
            -
               depth: 4
               value: 5.
               norm_class_idx: 4
               splits:
                  - { var:5, quality:3.7555575561523438e+02,
                      le:7.4998819828033447e-01 }
            -
               depth: 5
               value: 5.
               norm_class_idx: 4
            -
               depth: 5
               value: 3.
               norm_class_idx: 2
            -
               depth: 3
               value: 2.
               norm_class_idx: 1
               splits:
                  - { var:6, quality:8.3587524414062500e+02,
                      le:1.2359551191329956e+00 }
            -
               depth: 4
               value: 2.
               norm_class_idx: 1
               splits:
                  - { var:11, quality:7.7644110107421875e+02,
                      le:-3.3898311853408813e-01 }
            -
               depth: 5
               value: 2.
               norm_class_idx: 1
            -
               depth: 5
               value: 1.
               norm_class_idx: 0
            -
               depth: 4
               value: 1.
               norm_class_idx: 0
               splits:
                  - { var:11, quality:4.0683346557617188e+02,
                      le:2.8118336200714111e-01 }
            -
               depth: 5
               value: 1.
               norm_class_idx: 0
            -
               depth: 5
               value: 4.
               norm_class_idx: 3
            -
               depth: 1
               value: 3.
               norm_class_idx: 2
               splits:
                  - { var:6, quality:2.0265795898437500e+03,
                      le:-7.4163562059402466e-01 }
            -
               depth: 2
               value: 5.
               norm_class_idx: 4
               splits:
                  - { var:11, quality:1.0950000000000000e+02,
                      le:-1.3815592229366302e-01 }
            -
               depth: 3
               value: 3.
               norm_class_idx: 2
               splits:
                  - { var:11, quality:4., le:-1.1450510025024414e+00 }
            -
               depth: 4
               value: 2.
               norm_class_idx: 1
            -
               depth: 4
               value: 3.
               norm_class_idx: 2
            -
               depth: 3
               value: 5.
               norm_class_idx: 4
            -
               depth: 2
               value: 3.
               norm_class_idx: 2
               splits:
                  - { var:1, quality:1.9632938232421875e+03,
                      le:-2.5126582384109497e-01 }
            -
               depth: 3
               value: 10.
               norm_class_idx: 5
               splits:
                  - { var:0, quality:2.5888889312744141e+01,
                      le:1.0001264810562134e+00 }
            -
               depth: 4
               value: 1.
               norm_class_idx: 0
               splits:
                  - { var:5, quality:9., le:9.2098563909530640e-01 }
            -
               depth: 5
               value: 20.
               norm_class_idx: 6
            -
               depth: 5
               value: 1.
               norm_class_idx: 0
            -
               depth: 4
               value: 10.
               norm_class_idx: 5
            -
               depth: 3
               value: 3.
               norm_class_idx: 2
               splits:
                  - { var:5, quality:2.0217917480468750e+03,
                      le:1.4540190696716309e+00 }
            -
               depth: 4
               value: 3.
               norm_class_idx: 2
               splits:
                  - { var:9, quality:2.0459401855468750e+03,
                      le:-1.8024730682373047e+00 }
            -
               depth: 5
               value: 5.
               norm_class_idx: 4
            -
               depth: 5
               value: 3.
               norm_class_idx: 2
            -
               depth: 4
               value: 2.
               norm_class_idx: 1
               splits:
                  - { var:9, quality:4.1428291320800781e+01,
                      le:-6.7261576652526855e-01 }
            -
               depth: 5
               value: 2.
               norm_class_idx: 1
            -
               depth: 5
               value: 4.
               norm_class_idx: 3
      -
         nodes:
            -
               depth: 0
               value: 3.
               norm_class_idx: 2
               splits:
                  - { var:11, quality:3.9746437988281250e+03,
                      le:-5.0601482391357422e-01 }
            -
               depth: 1
               value: 2.
               norm_class_idx: 1
               splits:
                  - { var:9, quality:2.3776489257812500e+03,
                      le:-1.1765243113040924e-01 }
            -
               depth: 2
               value: 2.
               norm_class_idx: 1
               splits:
                  - { var:10, quality:1.9614578857421875e+03,
                      le:-3.6415243148803711e-01 }
            -
               depth: 3
               value: 2.
               norm_class_idx: 1
               splits:
                  - { var:9, quality:2.2051135253906250e+02,
                      le:-7.8455817699432373e-01 }
            -
               depth: 4
               value: 2.
               norm_class_idx: 1
               splits:
                  - { var:11, quality:2.4323152160644531e+02,
                      le:-8.7902420759201050e-01 }
            -
               depth: 5
               value: 2.
               norm_class_idx: 1
            -
               depth: 5
               value: 3.
               norm_class_idx: 2
            -
               depth: 4
               value: 1.
               norm_class_idx: 0
               splits:
                  - { var:8, quality:9.3576202392578125e+01,
                      le:1.7261978983879089e-01 }
            -
               depth: 5
               value: 3.
               norm_class_idx: 2
            -
               depth: 5
               value: 1.
               norm_class_idx: 0
            -
               depth: 3
               value: 2.
               norm_class_idx: 1
               splits:
                  - { var:1, quality:1.8125675048828125e+03,
                      le:1.2449303865432739e+00 }
            -
               depth: 4
               value: 2.
               norm_class_idx: 1
               splits:
                  - { var:3, quality:1.7853994140625000e+03,
                      le:1.3004295825958252e+00 }
            -
               depth: 5
               value: 2.
               norm_class_idx: 1
            -
               depth: 5
               value: 3.
               norm_class_idx: 2
            -
               depth: 4
               value: 2.
               norm_class_idx: 1
               splits:
                  - { var:9, quality:7.9062500000000000e+01,
                      le:-1.0868555307388306e+00 }
            -
               depth: 5
               value: 2.
               norm_class_idx: 1
            -
               depth: 5
               value: 4.
               norm_class_idx: 3
            -
               depth: 2
               value: 1.
               norm_class_idx: 0
               splits:
                  - { var:0, quality:6.6311773681640625e+02,
                      le:5.9047174453735352e-01 }
            -
               depth: 3
               value: 1.
               norm_class_idx: 0
               splits:
                  - { var:10, quality:5.2019854736328125e+02,
                      le:3.1079351902008057e-01 }
            -
               depth: 4
               value: 1.
               norm_class_idx: 0
               splits:
                  - { var:10, quality:4.8084045410156250e+02,
                      le:1.1549556255340576e-01 }
            -
               depth: 5
               value: 1.
               norm_class_idx: 0
            -
               depth: 5
               value: 1.
               norm_class_idx: 0
            -
               depth: 4
               value: 2.
               norm_class_idx: 1
               splits:
                  - { var:3, quality:6.3535018920898438e+01,
                      le:2.2191363573074341e-01 }
            -
               depth: 5
               value: 2.
               norm_class_idx: 1
            -
               depth: 5
               value: 3.
               norm_class_idx: 2
            -
               depth: 3
               value: 2.
               norm_class_idx: 1
               splits:
                  - { var:9, quality:2.5832046508789062e+02,
                      le:3.6941468715667725e-01 }
            -
               depth: 4
               value: 2.
               norm_class_idx: 1
               splits:
                  - { var:3, quality:1.6130081176757812e+02,
                      le:9.1516673564910889e-01 }
            -
               depth: 5
               value: 2.
               norm_class_idx: 1
            -
               depth: 5
               value: 1.
               norm_class_idx: 0
            -
               depth: 4
               value: 1.
               norm_class_idx: 0
               splits:
                  - { var:6, quality:1.5562208557128906e+02,
                      le:-2.7363544702529907e-01 }
            -
               depth: 5
               value: 2.
               norm_class_idx: 1
            -
               depth: 5
               value: 1.
               norm_class_idx: 0
            -
               depth: 1
               value: 3.
               norm_class_idx: 2
               splits:
                  - { var:6, quality:2.9144619140625000e+03,
                      le:-2.8008526563644409e-01 }
            -
               depth: 2
               value: 1.
               norm_class_idx: 0
               splits:
                  - { var:4, quality:1.9527679443359375e+03,
                      le:-5.9726071357727051e-01 }
            -
               depth: 3
               value: 1.
               norm_class_idx: 0
               splits:
                  - { var:10, quality:1.4617690429687500e+03,
                      le:-4.2944702506065369e-01 }
            -
               depth: 4
               value: 20.
               norm_class_idx: 6
               splits:
                  - { var:1, quality:1.7571428298950195e+01,
                      le:3.8692891597747803e-01 }
            -
               depth: 5
               value: 20.
               norm_class_idx: 6
            -
               depth: 5
               value: 3.
               norm_class_idx: 2
            -
               depth: 4
               value: 1.
               norm_class_idx: 0
               splits:
                  - { var:8, quality:1.4612058105468750e+03,
                      le:-3.7967067956924438e-01 }
            -
               depth: 5
               value: 1.
               norm_class_idx: 0
            -
               depth: 5
               value: 1.
               norm_class_idx: 0
            -
               depth: 3
               value: 5.
               norm_class_idx: 4
               splits:
                  - { var:7, quality:8.4619641113281250e+02,
                      le:-1.2697384357452393e+00 }
            -
               depth: 4
               value: 5.
               norm_class_idx: 4
               splits:
                  - { var:11, quality:6.1086236572265625e+02,
                      le:-9.4976983964443207e-02 }
            -
               depth: 5
               value: 3.
               norm_class_idx: 2
            -
               depth: 5
               value: 5.
               norm_class_idx: 4
            -
               depth: 4
               value: 3.
               norm_class_idx: 2
               splits:
                  - { var:3, quality:2.8025524902343750e+02,
                      le:3.1151974201202393e-01 }
            -
               depth: 5
               value: 20.
               norm_class_idx: 6
            -
               depth: 5
               value: 3.
               norm_class_idx: 2
            -
               depth: 2
               value: 3.
               norm_class_idx: 2
               splits:
                  - { var:6, quality:2.4106184082031250e+03,
                      le:9.8302716016769409e-01 }
            -
               depth: 3
               value: 3.
               norm_class_idx: 2
               splits:
                  - { var:4, quality:2.5663374023437500e+03,
                      le:-2.5728577375411987e-01 }
            -
               depth: 4
               value: 1.
               norm_class_idx: 0
               splits:
                  - { var:4, quality:3.5817153930664062e+02,
                      le:-7.9634553194046021e-01 }
            -
               depth: 5
               value: 1.
               norm_class_idx: 0
            -
               depth: 5
               value: 1.
               norm_class_idx: 0
            -
               depth: 4
               value: 3.
               norm_class_idx: 2
               splits:
                  - { var:4, quality:2.3753547363281250e+03,
                      le:7.1409142017364502e-01 }
            -
               depth: 5
               value: 3.
               norm_class_idx: 2
            -
               depth: 5
               value: 3.
               norm_class_idx: 2
            -
               depth: 3
               value: 4.
               norm_class_idx: 3
               splits:
                  - { var:11, quality:4.6665310668945312e+02,
                      le:2.4253821372985840e-01 }
            -
               depth: 4
               value: 1.
               norm_class_idx: 0
               splits:
                  - { var:7, quality:2.5716387939453125e+02,
                      le:3.0400824546813965e-01 }
            -
               depth: 5
               value: 4.
               norm_class_idx: 3
            -
               depth: 5
               value: 1.
               norm_class_idx: 0
            -
               depth: 4
               value: 4.
               norm_class_idx: 3
               splits:
                  - { var:9, quality:3.1229016113281250e+02,
                      le:4.3035984039306641e-01 }
            -
               depth: 5
               value: 4.
               norm_class_idx: 3
            -
               depth: 5
               value: 1.
               norm_class_idx: 0
      -
         nodes:
            -
               depth: 0
               value: 3.
               norm_class_idx: 2
               splits:
                  - { var:4, quality:4.0474631347656250e+03,
                      le:9.0484493970870972e-01 }
            -
               depth: 1
               value: 1.
               norm_class_idx: 0
               splits:
                  - { var:5, quality:2.8522951660156250e+03,
                      le:-4.9472552537918091e-01 }
            -
               depth: 2
               value: 1.
               norm_class_idx: 0
               splits:
                  - { var:7, quality:1.9525952148437500e+03,
                      le:9.6995675563812256e-01 }
            -
               depth: 3
               value: 1.
               norm_class_idx: 0
               splits:
                  - { var:3, quality:1.8889355468750000e+03,
                      le:2.7034249901771545e-01 }
            -
               depth: 4
               value: 1.
               norm_class_idx: 0
               splits:
                  - { var:9, quality:2.6488149414062500e+03,
                      le:-1.1792512238025665e-01 }
            -
               depth: 5
               value: 2.
               norm_class_idx: 1
            -
               depth: 5
               value: 1.
               norm_class_idx: 0
            -
               depth: 4
               value: 5.
               norm_class_idx: 4
               splits:
                  - { var:5, quality:3.6057144165039062e+01,
                      le:-6.1163830757141113e-01 }
            -
               depth: 5
               value: 5.
               norm_class_idx: 4
            -
               depth: 5
               value: 2.
               norm_class_idx: 1
            -
               depth: 3
               value: 2.
               norm_class_idx: 1
               splits:
                  - { var:11, quality:1.5150387573242188e+02,
                      le:-5.8915132284164429e-01 }
            -
               depth: 4
               value: 2.
               norm_class_idx: 1
               splits:
                  - { var:4, quality:1.0475757598876953e+02,
                      le:-1.0263741016387939e+00 }
            -
               depth: 5
               value: 2.
               norm_class_idx: 1
            -
               depth: 5
               value: 2.
               norm_class_idx: 1
            -
               depth: 4
               value: 1.
               norm_class_idx: 0
               splits:
                  - { var:10, quality:5.7551723480224609e+01,
                      le:1.0607995986938477e+00 }
            -
               depth: 5
               value: 1.
               norm_class_idx: 0
            -
               depth: 5
               value: 1.
               norm_class_idx: 0
            -
               depth: 2
               value: 2.
               norm_class_idx: 1
               splits:
                  - { var:8, quality:1.5433096923828125e+03,
                      le:5.8459218591451645e-02 }
            -
               depth: 3
               value: 3.
               norm_class_idx: 2
               splits:
                  - { var:6, quality:9.3069628906250000e+02,
                      le:-1.9402346014976501e-01 }
            -
               depth: 4
               value: 5.
               norm_class_idx: 4
               splits:
                  - { var:11, quality:5.7016198730468750e+02,
                      le:1.4087867736816406e+00 }
            -
               depth: 5
               value: 20.
               norm_class_idx: 6
            -
               depth: 5
               value: 5.
               norm_class_idx: 4
            -
               depth: 4
               value: 3.
               norm_class_idx: 2
               splits:
                  - { var:8, quality:5.8756994628906250e+02,
                      le:-9.4706252217292786e-02 }
            -
               depth: 5
               value: 3.
               norm_class_idx: 2
            -
               depth: 5
               value: 3.
               norm_class_idx: 2
            -
               depth: 3
               value: 2.
               norm_class_idx: 1
               splits:
                  - { var:7, quality:1.0388316650390625e+03,
                      le:4.4802588224411011e-01 }
            -
               depth: 4
               value: 2.
               norm_class_idx: 1
               splits:
                  - { var:5, quality:5.9397070312500000e+02,
                      le:1.0850595235824585e+00 }
            -
               depth: 5
               value: 4.
               norm_class_idx: 3
            -
               depth: 5
               value: 2.
               norm_class_idx: 1
            -
               depth: 4
               value: 1.
               norm_class_idx: 0
               splits:
                  - { var:10, quality:7.2347351074218750e+02,
                      le:6.9827213883399963e-02 }
            -
               depth: 5
               value: 1.
               norm_class_idx: 0
            -
               depth: 5
               value: 2.
               norm_class_idx: 1
            -
               depth: 1
               value: 3.
               norm_class_idx: 2
               splits:
                  - { var:1, quality:1.9117661132812500e+03,
                      le:-2.5126582384109497e-01 }
            -
               depth: 2
               value: 10.
               norm_class_idx: 5
               splits:
                  - { var:7, quality:3.9333332061767578e+01,
                      le:-1.1612323522567749e+00 }
            -
               depth: 3
               value: 10.
               norm_class_idx: 5
            -
               depth: 3
               value: 1.
               norm_class_idx: 0
               splits:
                  - { var:6, quality:6., le:8.6764611303806305e-02 }
            -
               depth: 4
               value: 20.
               norm_class_idx: 6
            -
               depth: 4
               value: 1.
               norm_class_idx: 0
            -
               depth: 2
               value: 3.
               norm_class_idx: 2
               splits:
                  - { var:11, quality:1.9560687255859375e+03,
                      le:1.8463629484176636e+00 }
            -
               depth: 3
               value: 3.
               norm_class_idx: 2
               splits:
                  - { var:8, quality:2.0103398437500000e+03,
                      le:3.2531547546386719e-01 }
            -
               depth: 4
               value: 3.
               norm_class_idx: 2
               splits:
                  - { var:6, quality:2.0472178955078125e+03,
                      le:-7.1395230293273926e-01 }
            -
               depth: 5
               value: 5.
               norm_class_idx: 4
            -
               depth: 5
               value: 3.
               norm_class_idx: 2
            -
               depth: 4
               value: 4.
               norm_class_idx: 3
               splits:
                  - { var:5, quality:5.5451755523681641e+01,
                      le:1.6257861852645874e+00 }
            -
               depth: 5
               value: 4.
               norm_class_idx: 3
            -
               depth: 5
               value: 2.
               norm_class_idx: 1
            -
               depth: 3
               value: 5.
               norm_class_idx: 4
               splits:
                  - { var:7, quality:8.4842102050781250e+01,
                      le:-1.4016383886337280e+00 }
            -
               depth: 4
               value: 5.
               norm_class_idx: 4
            -
               depth: 4
               value: 3.
               norm_class_idx: 2
               splits:
                  - { var:5, quality:2.4153846740722656e+01,
                      le:5.8917534351348877e-01 }
            -
               depth: 5
               value: 3.
               norm_class_idx: 2
            -
               depth: 5
               value: 3.
               norm_class_idx: 2
      -
         nodes:
            -
               depth: 0
               value: 3.
               norm_class_idx: 2
               splits:
                  - { var:3, quality:3.6565622558593750e+03,
                      le:-2.1587651968002319e-01 }
            -
               depth: 1
               value: 1.
               norm_class_idx: 0
               splits:
                  - { var:11, quality:2.5737724609375000e+03,
                      le:-5.0602090358734131e-01 }
            -
               depth: 2
               value: 2.
               norm_class_idx: 1
               splits:
                  - { var:11, quality:1.2621848144531250e+03,
                      le:-1.3033568859100342e+00 }
            -
               depth: 3
               value: 1.
               norm_class_idx: 0
               splits:
                  - { var:4, quality:2.0757249450683594e+02,
                      le:-7.4743139743804932e-01 }
            -
               depth: 4
               value: 1.
               norm_class_idx: 0
               splits:
                  - { var:4, quality:1.9084616088867188e+02,
                      le:-1.8111394643783569e+00 }
            -
               depth: 5
               value: 1.
               norm_class_idx: 0
            -
               depth: 5
               value: 1.
               norm_class_idx: 0
            -
               depth: 4
               value: 3.
               norm_class_idx: 2
               splits:
                  - { var:7, quality:2.6333333969116211e+01,
                      le:-1.9775062799453735e-02 }
            -
               depth: 5
               value: 3.
               norm_class_idx: 2
            -
               depth: 5
               value: 2.
               norm_class_idx: 1
            -
               depth: 3
               value: 2.
               norm_class_idx: 1
               splits:
                  - { var:9, quality:1.3361164550781250e+03,
                      le:-2.3679146543145180e-03 }
            -
               depth: 4
               value: 2.
               norm_class_idx: 1
               splits:
                  - { var:8, quality:1.1568269042968750e+03,
                      le:-5.1834213733673096e-01 }
            -
               depth: 5
               value: 3.
               norm_class_idx: 2
            -
               depth: 5
               value: 2.
               norm_class_idx: 1
            -
               depth: 4
               value: 1.
               norm_class_idx: 0
               splits:
                  - { var:8, quality:5.2470678710937500e+02,
                      le:7.4511015415191650e-01 }
            -
               depth: 5
               value: 2.
               norm_class_idx: 1
            -
               depth: 5
               value: 1.
               norm_class_idx: 0
            -
               depth: 2
               value: 1.
               norm_class_idx: 0
               splits:
                  - { var:8, quality:1.7217213134765625e+03,
                      le:-2.0892547070980072e-01 }
            -
               depth: 3
               value: 3.
               norm_class_idx: 2
               splits:
                  - { var:1, quality:1.3888867187500000e+02,
                      le:3.2028414309024811e-02 }
            -
               depth: 4
               value: 20.
               norm_class_idx: 6
               splits:
                  - { var:4, quality:8.5783332824707031e+01,
                      le:-1.1208568811416626e+00 }
            -
               depth: 5
               value: 1.
               norm_class_idx: 0
            -
               depth: 5
               value: 20.
               norm_class_idx: 6
            -
               depth: 4
               value: 3.
               norm_class_idx: 2
               splits:
                  - { var:7, quality:1.0679640197753906e+02,
                      le:5.2207696437835693e-01 }
            -
               depth: 5
               value: 3.
               norm_class_idx: 2
            -
               depth: 5
               value: 2.
               norm_class_idx: 1
            -
               depth: 3
               value: 1.
               norm_class_idx: 0
               splits:
                  - { var:2, quality:1.7026926269531250e+03,
                      le:1.3392150402069092e+00 }
            -
               depth: 4
               value: 1.
               norm_class_idx: 0
               splits:
                  - { var:9, quality:1.6975490722656250e+03,
                      le:-3.5306829214096069e-01 }
            -
               depth: 5
               value: 2.
               norm_class_idx: 1
            -
               depth: 5
               value: 1.
               norm_class_idx: 0
            -
               depth: 4
               value: 10.
               norm_class_idx: 5
               splits:
                  - { var:10, quality:4.1130435943603516e+01,
                      le:7.1867030858993530e-01 }
            -
               depth: 5
               value: 3.
               norm_class_idx: 2
            -
               depth: 5
               value: 10.
               norm_class_idx: 5
            -
               depth: 1
               value: 3.
               norm_class_idx: 2
               splits:
                  - { var:8, quality:2.9312302246093750e+03,
                      le:1.2777385115623474e-01 }
            -
               depth: 2
               value: 3.
               norm_class_idx: 2
               splits:
                  - { var:1, quality:2.2095300292968750e+03,
                      le:4.6540361642837524e-01 }
            -
               depth: 3
               value: 3.
               norm_class_idx: 2
               splits:
                  - { var:6, quality:5.4190093994140625e+02,
                      le:-6.5182614326477051e-01 }
            -
               depth: 4
               value: 5.
               norm_class_idx: 4
               splits:
                  - { var:5, quality:1.1396896362304688e+02,
                      le:-1.1248399019241333e+00 }
            -
               depth: 5
               value: 1.
               norm_class_idx: 0
            -
               depth: 5
               value: 5.
               norm_class_idx: 4
            -
               depth: 4
               value: 3.
               norm_class_idx: 2
               splits:
                  - { var:2, quality:5.4456890869140625e+02,
                      le:3.4082195162773132e-01 }
            -
               depth: 5
               value: 3.
               norm_class_idx: 2
            -
               depth: 5
               value: 20.
               norm_class_idx: 6
            -
               depth: 3
               value: 3.
               norm_class_idx: 2
               splits:
                  - { var:2, quality:1.8829896240234375e+03,
                      le:3.6455252766609192e-01 }
            -
               depth: 4
               value: 3.
               norm_class_idx: 2
               splits:
                  - { var:0, quality:5.2488409423828125e+02,
                      le:4.8608535528182983e-01 }
            -
               depth: 5
               value: 3.
               norm_class_idx: 2
            -
               depth: 5
               value: 5.
               norm_class_idx: 4
            -
               depth: 4
               value: 3.
               norm_class_idx: 2
               splits:
                  - { var:9, quality:1.4408511962890625e+03,
                      le:-1.3924181461334229e+00 }
            -
               depth: 5
               value: 5.
               norm_class_idx: 4
            -
               depth: 5
               value: 3.
               norm_class_idx: 2
            -
               depth: 2
               value: 2.
               norm_class_idx: 1
               splits:
                  - { var:9, quality:1.3781365966796875e+03,
                      le:-6.4549076557159424e-01 }
            -
               depth: 3
               value: 2.
               norm_class_idx: 1
               splits:
                  - { var:11, quality:7.9315893554687500e+02,
                      le:-3.5489922761917114e-01 }
            -
               depth: 4
               value: 2.
               norm_class_idx: 1
               splits:
                  - { var:9, quality:7.7451800537109375e+02,
                      le:-1.0511476993560791e+00 }
            -
               depth: 5
               value: 2.
               norm_class_idx: 1
            -
               depth: 5
               value: 2.
               norm_class_idx: 1
            -
               depth: 4
               value: 3.
               norm_class_idx: 2
               splits:
                  - { var:7, quality:6.1800903320312500e+01,
                      le:-9.0877646207809448e-01 }
            -
               depth: 5
               value: 3.
               norm_class_idx: 2
            -
               depth: 5
               value: 4.
               norm_class_idx: 3
            -
               depth: 3
               value: 1.
               norm_class_idx: 0
               splits:
                  - { var:11, quality:8.2496545410156250e+02,
                      le:3.0896627902984619e-01 }
            -
               depth: 4
               value: 1.
               norm_class_idx: 0
               splits:
                  - { var:0, quality:5.8970605468750000e+02,
                      le:3.4707894921302795e-01 }
            -
               depth: 5
               value: 1.
               norm_class_idx: 0
            -
               depth: 5
               value: 1.
               norm_class_idx: 0
            -
               depth: 4
               value: 4.
               norm_class_idx: 3
               splits:
                  - { var:0, quality:3.2229162597656250e+02,
                      le:5.6513583660125732e-01 }
            -
               depth: 5
               value: 4.
               norm_class_idx: 3
            -
               depth: 5
               value: 3.
               norm_class_idx: 2
      -
         nodes:
            -
               depth: 0
               value: 3.
               norm_class_idx: 2
               splits:
                  - { var:1, quality:3.8068615722656250e+03,
                      le:5.2943594753742218e-02 }
            -
               depth: 1
               value: 1.
               norm_class_idx: 0
               splits:
                  - { var:11, quality:2.5615776367187500e+03,
                      le:-5.2085781097412109e-01 }
            -
               depth: 2
               value: 2.
               norm_class_idx: 1
               splits:
                  - { var:8, quality:1.8609511718750000e+03,
                      le:1.0994985103607178e+00 }
            -
               depth: 3
               value: 2.
               norm_class_idx: 1
               splits:
                  - { var:10, quality:1.3914622802734375e+03,
                      le:-3.8743790984153748e-01 }
            -
               depth: 4
               value: 1.
               norm_class_idx: 0
               splits:
                  - { var:8, quality:7.8281250000000000e+01,
                      le:-1.2616856396198273e-01 }
            -
               depth: 5
               value: 3.
               norm_class_idx: 2
            -
               depth: 5
               value: 1.
               norm_class_idx: 0
            -
               depth: 4
               value: 2.
               norm_class_idx: 1
               splits:
                  - { var:8, quality:1.3650373535156250e+03,
                      le:8.4301757812500000e-01 }
            -
               depth: 5
               value: 2.
               norm_class_idx: 1
            -
               depth: 5
               value: 2.
               norm_class_idx: 1
            -
               depth: 3
               value: 1.
               norm_class_idx: 0
               splits:
                  - { var:10, quality:5.8327178955078125e+02,
                      le:6.7726039886474609e-01 }
            -
               depth: 4
               value: 1.
               norm_class_idx: 0
               splits:
                  - { var:9, quality:5.8608447265625000e+02,
                      le:-2.8610122203826904e-01 }
            -
               depth: 5
               value: 4.
               norm_class_idx: 3
            -
               depth: 5
               value: 1.
               norm_class_idx: 0
            -
               depth: 4
               value: 2.
               norm_class_idx: 1
            -
               depth: 2
               value: 1.
               norm_class_idx: 0
               splits:
                  - { var:5, quality:1.6824382324218750e+03,
                      le:-5.4885041713714600e-01 }
            -
               depth: 3
               value: 1.
               norm_class_idx: 0
               splits:
                  - { var:10, quality:1.6084965820312500e+03,
                      le:1.2676252983510494e-02 }
            -
               depth: 4
               value: 1.
               norm_class_idx: 0
               splits:
                  - { var:4, quality:9.1263160705566406e+01,
                      le:-8.2560122013092041e-01 }
            -
               depth: 5
               value: 1.
               norm_class_idx: 0
            -
               depth: 5
               value: 20.
               norm_class_idx: 6
            -
               depth: 4
               value: 1.
               norm_class_idx: 0
               splits:
                  - { var:9, quality:1.5626180419921875e+03,
                      le:-1.0561711788177490e+00 }
            -
               depth: 5
               value: 5.
               norm_class_idx: 4
            -
               depth: 5
               value: 1.
               norm_class_idx: 0
            -
               depth: 3
               value: 20.
               norm_class_idx: 6
               splits:
                  - { var:11, quality:1.5175987243652344e+02,
                      le:9.7173309326171875e-01 }
            -
               depth: 4
               value: 20.
               norm_class_idx: 6
               splits:
                  - { var:6, quality:1.4746527099609375e+02,
                      le:1.7895290255546570e-01 }
            -
               depth: 5
               value: 20.
               norm_class_idx: 6
            -
               depth: 5
               value: 1.
               norm_class_idx: 0
            -
               depth: 4
               value: 5.
               norm_class_idx: 4
               splits:
                  - { var:2, quality:8.3775512695312500e+01,
                      le:-2.9337570071220398e-01 }
            -
               depth: 5
               value: 5.
               norm_class_idx: 4
            -
               depth: 5
               value: 3.
               norm_class_idx: 2
            -
               depth: 1
               value: 3.
               norm_class_idx: 2
               splits:
                  - { var:8, quality:2.9500507812500000e+03,
                      le:1.3532252609729767e-01 }
            -
               depth: 2
               value: 3.
               norm_class_idx: 2
               splits:
                  - { var:10, quality:2.3485236816406250e+03,
                      le:6.3215935230255127e-01 }
            -
               depth: 3
               value: 3.
               norm_class_idx: 2
               splits:
                  - { var:7, quality:2.6702419433593750e+03,
                      le:-1.7118196487426758e+00 }
            -
               depth: 4
               value: 5.
               norm_class_idx: 4
               splits:
                  - { var:10, quality:2.9034024047851562e+02,
                      le:-6.1539781093597412e-01 }
            -
               depth: 5
               value: 3.
               norm_class_idx: 2
            -
               depth: 5
               value: 5.
               norm_class_idx: 4
            -
               depth: 4
               value: 3.
               norm_class_idx: 2
               splits:
                  - { var:4, quality:2.5598205566406250e+03,
                      le:7.9428160190582275e-01 }
            -
               depth: 5
               value: 3.
               norm_class_idx: 2
            -
               depth: 5
               value: 3.
               norm_class_idx: 2
            -
               depth: 3
               value: 5.
               norm_class_idx: 4
               splits:
                  - { var:2, quality:1.0361111450195312e+02,
                      le:2.0378679037094116e-01 }
            -
               depth: 4
               value: 5.
               norm_class_idx: 4
               splits:
                  - { var:6, quality:8.0603775024414062e+01,
                      le:-7.3414540290832520e-01 }
            -
               depth: 5
               value: 5.
               norm_class_idx: 4
            -
               depth: 5
               value: 4.
               norm_class_idx: 3
            -
               depth: 4
               value: 3.
               norm_class_idx: 2
               splits:
                  - { var:7, quality:1.1380451202392578e+02,
                      le:-1.4106256961822510e+00 }
            -
               depth: 5
               value: 5.
               norm_class_idx: 4
            -
               depth: 5
               value: 3.
               norm_class_idx: 2
            -
               depth: 2
               value: 2.
               norm_class_idx: 1
               splits:
                  - { var:11, quality:1.0420187988281250e+03,
                      le:-4.8784571886062622e-01 }
            -
               depth: 3
               value: 2.
               norm_class_idx: 1
               splits:
                  - { var:6, quality:7.5697418212890625e+02,
                      le:1.5780020952224731e+00 }
            -
               depth: 4
               value: 2.
               norm_class_idx: 1
               splits:
                  - { var:2, quality:6.7051751708984375e+02,
                      le:1.0134382247924805e+00 }
            -
               depth: 5
               value: 2.
               norm_class_idx: 1
            -
               depth: 5
               value: 3.
               norm_class_idx: 2
            -
               depth: 4
               value: 1.
               norm_class_idx: 0
               splits:
                  - { var:4, quality:1.2255490112304688e+02,
                      le:-5.3430560976266861e-02 }
            -
               depth: 5
               value: 4.
               norm_class_idx: 3
            -
               depth: 5
               value: 1.
               norm_class_idx: 0
            -
               depth: 3
               value: 4.
               norm_class_idx: 3
               splits:
                  - { var:4, quality:5.1669744873046875e+02,
                      le:-4.4196030497550964e-01 }
            -
               depth: 4
               value: 1.
               norm_class_idx: 0
               splits:
                  - { var:10, quality:1.2866667175292969e+02,
                      le:9.9391305446624756e-01 }
            -
               depth: 5
               value: 1.
               norm_class_idx: 0
            -
               depth: 5
               value: 1.
               norm_class_idx: 0
            -
               depth: 4
               value: 4.
               norm_class_idx: 3
               splits:
                  - { var:11, quality:4.7654388427734375e+02,
                      le:8.7614727020263672e-01 }
            -
               depth: 5
               value: 1.
               norm_class_idx: 0
            -
               depth: 5
               value: 4.
               norm_class_idx: 3
      -
         nodes:
            -
               depth: 0
               value: 3.
               norm_class_idx: 2
               splits:
                  - { var:10, quality:3.3677348632812500e+03,
                      le:1.1727144718170166e+00 }
            -
               depth: 1
               value: 3.
               norm_class_idx: 2
               splits:
                  - { var:11, quality:3.6914291992187500e+03,
                      le:-4.6902561187744141e-01 }
            -
               depth: 2
               value: 2.
               norm_class_idx: 1
               splits:
                  - { var:10, quality:2.2818859863281250e+03,
                      le:-9.3400470912456512e-02 }
            -
               depth: 3
               value: 1.
               norm_class_idx: 0
               splits:
                  - { var:4, quality:6.2067584228515625e+02,
                      le:-8.2347643375396729e-01 }
            -
               depth: 4
               value: 1.
               norm_class_idx: 0
               splits:
                  - { var:3, quality:3.6274734497070312e+02,
                      le:-1.3804572820663452e-01 }
            -
               depth: 5
               value: 1.
               norm_class_idx: 0
            -
               depth: 5
               value: 2.
               norm_class_idx: 1
            -
               depth: 4
               value: 1.
               norm_class_idx: 0
               splits:
                  - { var:7, quality:4.5452624511718750e+02,
                      le:5.9546127915382385e-02 }
            -
               depth: 5
               value: 3.
               norm_class_idx: 2
            -
               depth: 5
               value: 1.
               norm_class_idx: 0
            -
               depth: 3
               value: 2.
               norm_class_idx: 1
               splits:
                  - { var:10, quality:1.8108951416015625e+03,
                      le:3.8966393470764160e-01 }
            -
               depth: 4
               value: 2.
               norm_class_idx: 1
               splits:
                  - { var:2, quality:6.0076812744140625e+02,
                      le:-1.2302287817001343e+00 }
            -
               depth: 5
               value: 1.
               norm_class_idx: 0
            -
               depth: 5
               value: 2.
               norm_class_idx: 1
            -
               depth: 4
               value: 2.
               norm_class_idx: 1
               splits:
                  - { var:2, quality:1.2424000244140625e+03,
                      le:1.0227017402648926e+00 }
            -
               depth: 5
               value: 2.
               norm_class_idx: 1
            -
               depth: 5
               value: 3.
               norm_class_idx: 2
            -
               depth: 2
               value: 3.
               norm_class_idx: 2
               splits:
                  - { var:4, quality:2.6717399902343750e+03,
                      le:9.4139945507049561e-01 }
            -
               depth: 3
               value: 1.
               norm_class_idx: 0
               splits:
                  - { var:5, quality:1.1772770996093750e+03,
                      le:-8.8194596767425537e-01 }
            -
               depth: 4
               value: 1.
               norm_class_idx: 0
               splits:
                  - { var:1, quality:5.6575085449218750e+02,
                      le:5.6074762344360352e-01 }
            -
               depth: 5
               value: 1.
               norm_class_idx: 0
            -
               depth: 5
               value: 5.
               norm_class_idx: 4
            -
               depth: 4
               value: 3.
               norm_class_idx: 2
               splits:
                  - { var:7, quality:1.0829655761718750e+03,
                      le:-1.3565809726715088e+00 }
            -
               depth: 5
               value: 5.
               norm_class_idx: 4
            -
               depth: 5
               value: 3.
               norm_class_idx: 2
            -
               depth: 3
               value: 3.
               norm_class_idx: 2
               splits:
                  - { var:6, quality:1.9853106689453125e+03,
                      le:-7.9660183191299438e-01 }
            -
               depth: 4
               value: 5.
               norm_class_idx: 4
            -
               depth: 4
               value: 3.
               norm_class_idx: 2
               splits:
                  - { var:7, quality:1.9581835937500000e+03,
                      le:-1.7123420238494873e+00 }
            -
               depth: 5
               value: 5.
               norm_class_idx: 4
            -
               depth: 5
               value: 3.
               norm_class_idx: 2
            -
               depth: 1
               value: 1.
               norm_class_idx: 0
               splits:
                  - { var:9, quality:1.0713265380859375e+03,
                      le:-6.3864874839782715e-01 }
            -
               depth: 2
               value: 2.
               norm_class_idx: 1
            -
               depth: 2
               value: 1.
               norm_class_idx: 0
               splits:
                  - { var:11, quality:1.1491938476562500e+03,
                      le:-3.7832826375961304e-01 }
            -
               depth: 3
               value: 2.
               norm_class_idx: 1
            -
               depth: 3
               value: 1.
               norm_class_idx: 0
               splits:
                  - { var:11, quality:1.1023309326171875e+03,
                      le:9.9925279617309570e-01 }
            -
               depth: 4
               value: 1.
               norm_class_idx: 0
               splits:
                  - { var:4, quality:1107., le:2.1082493662834167e-01 }
            -
               depth: 5
               value: 1.
               norm_class_idx: 0
            -
               depth: 5
               value: 3.
               norm_class_idx: 2
            -
               depth: 4
               value: 10.
               norm_class_idx: 5
               splits:
                  - { var:3, quality:7., le:9.1766577959060669e-01 }
            -
               depth: 5
               value: 10.
               norm_class_idx: 5
            -
               depth: 5
               value: 3.
               norm_class_idx: 2
      -
         nodes:
            -
               depth: 0
               value: 3.
               norm_class_idx: 2
               splits:
                  - { var:8, quality:4.4209726562500000e+03,
                      le:4.1044116020202637e-02 }
            -
               depth: 1
               value: 3.
               norm_class_idx: 2
               splits:
                  - { var:4, quality:2.5257561035156250e+03,
                      le:4.1570919752120972e-01 }
            -
               depth: 2
               value: 3.
               norm_class_idx: 2
               splits:
                  - { var:7, quality:5.6441589355468750e+02,
                      le:-1.3314732313156128e+00 }
            -
               depth: 3
               value: 5.
               norm_class_idx: 4
               splits:
                  - { var:3, quality:2.5782235717773438e+02,
                      le:-5.0085258483886719e-01 }
            -
               depth: 4
               value: 1.
               norm_class_idx: 0
               splits:
                  - { var:0, quality:3.6933334350585938e+01,
                      le:4.4313609600067139e-01 }
            -
               depth: 5
               value: 20.
               norm_class_idx: 6
            -
               depth: 5
               value: 1.
               norm_class_idx: 0
            -
               depth: 4
               value: 5.
               norm_class_idx: 4
               splits:
                  - { var:6, quality:2.4776628112792969e+02,
                      le:-1.3656239211559296e-01 }
            -
               depth: 5
               value: 5.
               norm_class_idx: 4
            -
               depth: 5
               value: 3.
               norm_class_idx: 2
            -
               depth: 3
               value: 3.
               norm_class_idx: 2
               splits:
                  - { var:4, quality:5.1514904785156250e+02,
                      le:-6.6733449697494507e-01 }
            -
               depth: 4
               value: 2.
               norm_class_idx: 1
               splits:
                  - { var:1, quality:1.6989717102050781e+02,
                      le:-5.2291005849838257e-01 }
            -
               depth: 5
               value: 2.
               norm_class_idx: 1
            -
               depth: 5
               value: 2.
               norm_class_idx: 1
            -
               depth: 4
               value: 3.
               norm_class_idx: 2
               splits:
                  - { var:9, quality:4.0602755737304688e+02,
                      le:-5.4228603839874268e-01 }
            -
               depth: 5
               value: 3.
               norm_class_idx: 2
            -
               depth: 5
               value: 20.
               norm_class_idx: 6
            -
               depth: 2
               value: 3.
               norm_class_idx: 2
               splits:
                  - { var:10, quality:2.2163605957031250e+03,
                      le:5.5679911375045776e-01 }
            -
               depth: 3
               value: 3.
               norm_class_idx: 2
               splits:
                  - { var:9, quality:2.1170424804687500e+03,
                      le:-1.2954870462417603e+00 }
            -
               depth: 4
               value: 5.
               norm_class_idx: 4
               splits:
                  - { var:6, quality:5.5388889312744141e+01,
                      le:-1.5264546871185303e-01 }
            -
               depth: 5
               value: 5.
               norm_class_idx: 4
            -
               depth: 5
               value: 3.
               norm_class_idx: 2
            -
               depth: 4
               value: 3.
               norm_class_idx: 2
               splits:
                  - { var:6, quality:2.2274860839843750e+03,
                      le:-5.6857031583786011e-01 }
            -
               depth: 5
               value: 5.
               norm_class_idx: 4
            -
               depth: 5
               value: 3.
               norm_class_idx: 2
            -
               depth: 3
               value: 3.
               norm_class_idx: 2
               splits:
                  - { var:1, quality:1.5456805419921875e+02,
                      le:1.3068411350250244e+00 }
            -
               depth: 4
               value: 3.
               norm_class_idx: 2
               splits:
                  - { var:0, quality:1.3726228332519531e+02,
                      le:3.3072096109390259e-01 }
            -
               depth: 5
               value: 3.
               norm_class_idx: 2
            -
               depth: 5
               value: 3.
               norm_class_idx: 2
            -
               depth: 4
               value: 5.
               norm_class_idx: 4
               splits:
                  - { var:4, quality:4.7427776336669922e+01,
                      le:1.1346105337142944e+00 }
            -
               depth: 5
               value: 5.
               norm_class_idx: 4
            -
               depth: 5
               value: 3.
               norm_class_idx: 2
            -
               depth: 1
               value: 1.
               norm_class_idx: 0
               splits:
                  - { var:10, quality:2.7082756347656250e+03,
                      le:1.1849994659423828e+00 }
            -
               depth: 2
               value: 2.
               norm_class_idx: 1
               splits:
                  - { var:11, quality:2.3640708007812500e+03,
                      le:-5.1233971118927002e-01 }
            -
               depth: 3
               value: 2.
               norm_class_idx: 1
               splits:
                  - { var:3, quality:1.6378411865234375e+03,
                      le:-2.0319356918334961e+00 }
            -
               depth: 4
               value: 1.
               norm_class_idx: 0
               splits:
                  - { var:3, quality:6.7769233703613281e+01,
                      le:-2.3404812812805176e+00 }
            -
               depth: 5
               value: 1.
               norm_class_idx: 0
            -
               depth: 5
               value: 1.
               norm_class_idx: 0
            -
               depth: 4
               value: 2.
               norm_class_idx: 1
               splits:
                  - { var:10, quality:2.0308442382812500e+03,
                      le:-4.9820500612258911e-01 }
            -
               depth: 5
               value: 1.
               norm_class_idx: 0
            -
               depth: 5
               value: 2.
               norm_class_idx: 1
            -
               depth: 3
               value: 1.
               norm_class_idx: 0
               splits:
                  - { var:4, quality:1.1266772460937500e+03,
                      le:-4.6599775552749634e-01 }
            -
               depth: 4
               value: 1.
               norm_class_idx: 0
               splits:
                  - { var:7, quality:7.2969964599609375e+02,
                      le:9.3624675273895264e-01 }
            -
               depth: 5
               value: 1.
               norm_class_idx: 0
            -
               depth: 5
               value: 1.
               norm_class_idx: 0
            -
               depth: 4
               value: 4.
               norm_class_idx: 3
               splits:
                  - { var:2, quality:5.0570626831054688e+02,
                      le:4.8293429613113403e-01 }
            -
               depth: 5
               value: 4.
               norm_class_idx: 3
            -
               depth: 5
               value: 3.
               norm_class_idx: 2
            -
               depth: 2
               value: 1.
               norm_class_idx: 0
               splits:
                  - { var:4, quality:1.0365662841796875e+03,
                      le:2.2689439356327057e-02 }
            -
               depth: 3
               value: 1.
               norm_class_idx: 0
               splits:
                  - { var:10, quality:1.0140135498046875e+03,
                      le:1.2496957778930664e+00 }
            -
               depth: 4
               value: 1.
               norm_class_idx: 0
               splits:
                  - { var:4, quality:8.3360321044921875e+01,
                      le:-1.8648200035095215e+00 }
            -
               depth: 5
               value: 1.
               norm_class_idx: 0
            -
               depth: 5
               value: 1.
               norm_class_idx: 0
            -
               depth: 4
               value: 1.
               norm_class_idx: 0
               splits:
                  - { var:1, quality:9.3603918457031250e+02,
                      le:5.8851063251495361e-01 }
            -
               depth: 5
               value: 1.
               norm_class_idx: 0
            -
               depth: 5
               value: 1.
               norm_class_idx: 0
            -
               depth: 3
               value: 2.
               norm_class_idx: 1
               splits:
                  - { var:8, quality:3.8076923370361328e+01,
                      le:9.5306032896041870e-01 }
            -
               depth: 4
               value: 10.
               norm_class_idx: 5
               splits:
                  - { var:4, quality:8.4285717010498047e+00,
                      le:1.7764205932617188e+00 }
            -
               depth: 5
               value: 3.
               norm_class_idx: 2
            -
               depth: 5
               value: 10.
               norm_class_idx: 5
            -
               depth: 4
               value: 2.
               norm_class_idx: 1
      -
         nodes:
            -
               depth: 0
               value: 3.
               norm_class_idx: 2
               splits:
                  - { var:1, quality:3.7987172851562500e+03,
                      le:9.0209476649761200e-02 }
            -
               depth: 1
               value: 1.
               norm_class_idx: 0
               splits:
                  - { var:4, quality:2.1758537597656250e+03,
                      le:-6.7915600538253784e-01 }
            -
               depth: 2
               value: 1.
               norm_class_idx: 0
               splits:
                  - { var:10, quality:2.1248630371093750e+03,
                      le:1.1850609779357910e+00 }
            -
               depth: 3
               value: 1.
               norm_class_idx: 0
               splits:
                  - { var:8, quality:1.7596457519531250e+03,
                      le:8.3496117591857910e-01 }
            -
               depth: 4
               value: 2.
               norm_class_idx: 1
               splits:
                  - { var:0, quality:8.7579718017578125e+02,
                      le:-4.9350488185882568e-01 }
            -
               depth: 5
               value: 20.
               norm_class_idx: 6
            -
               depth: 5
               value: 2.
               norm_class_idx: 1
            -
               depth: 4
               value: 1.
               norm_class_idx: 0
               splits:
                  - { var:11, quality:9.1706518554687500e+02,
                      le:-8.1677025556564331e-01 }
            -
               depth: 5
               value: 1.
               norm_class_idx: 0
            -
               depth: 5
               value: 1.
               norm_class_idx: 0
            -
               depth: 3
               value: 1.
               norm_class_idx: 0
               splits:
                  - { var:11, quality:1054., le:-3.9266818761825562e-01 }
            -
               depth: 4
               value: 2.
               norm_class_idx: 1
            -
               depth: 4
               value: 1.
               norm_class_idx: 0
            -
               depth: 2
               value: 2.
               norm_class_idx: 1
               splits:
                  - { var:10, quality:4.3080618286132812e+02,
                      le:3.2019071280956268e-02 }
            -
               depth: 3
               value: 20.
               norm_class_idx: 6
               splits:
                  - { var:7, quality:1.9107389831542969e+02,
                      le:-7.8410118818283081e-02 }
            -
               depth: 4
               value: 3.
               norm_class_idx: 2
               splits:
                  - { var:10, quality:1.1865394592285156e+02,
                      le:-5.2310180664062500e-01 }
            -
               depth: 5
               value: 3.
               norm_class_idx: 2
            -
               depth: 5
               value: 20.
               norm_class_idx: 6
            -
               depth: 4
               value: 1.
               norm_class_idx: 0
               splits:
                  - { var:5, quality:1.3936378479003906e+02,
                      le:2.1422705054283142e-01 }
            -
               depth: 5
               value: 20.
               norm_class_idx: 6
            -
               depth: 5
               value: 1.
               norm_class_idx: 0
            -
               depth: 3
               value: 2.
               norm_class_idx: 1
               splits:
                  - { var:9, quality:4.1084603881835938e+02,
                      le:-3.5738155245780945e-01 }
            -
               depth: 4
               value: 2.
               norm_class_idx: 1
               splits:
                  - { var:6, quality:4.2223669433593750e+02,
                      le:-5.8027380704879761e-01 }
            -
               depth: 5
               value: 5.
               norm_class_idx: 4
            -
               depth: 5
               value: 2.
               norm_class_idx: 1
            -
               depth: 4
               value: 1.
               norm_class_idx: 0
               splits:
                  - { var:11, quality:8.7444381713867188e+01,
                      le:1.7727422714233398e-01 }
            -
               depth: 5
               value: 1.
               norm_class_idx: 0
            -
               depth: 5
               value: 4.
               norm_class_idx: 3
            -
               depth: 1
               value: 3.
               norm_class_idx: 2
               splits:
                  - { var:11, quality:2.5679169921875000e+03,
                      le:-4.5900559425354004e-01 }
            -
               depth: 2
               value: 2.
               norm_class_idx: 1
               splits:
                  - { var:7, quality:6.9014459228515625e+02,
                      le:-7.9140329360961914e-01 }
            -
               depth: 3
               value: 3.
               norm_class_idx: 2
               splits:
                  - { var:8, quality:1.8682168579101562e+02,
                      le:-6.6377088427543640e-02 }
            -
               depth: 4
               value: 3.
               norm_class_idx: 2
               splits:
                  - { var:9, quality:9.8715599060058594e+01,
                      le:-1.9422907829284668e+00 }
            -
               depth: 5
               value: 5.
               norm_class_idx: 4
            -
               depth: 5
               value: 3.
               norm_class_idx: 2
            -
               depth: 4
               value: 2.
               norm_class_idx: 1
               splits:
                  - { var:5, quality:1.1951281738281250e+02,
                      le:9.1562360525131226e-01 }
            -
               depth: 5
               value: 3.
               norm_class_idx: 2
            -
               depth: 5
               value: 2.
               norm_class_idx: 1
            -
               depth: 3
               value: 2.
               norm_class_idx: 1
               splits:
                  - { var:0, quality:6.3123651123046875e+02,
                      le:-1.3212853670120239e-01 }
            -
               depth: 4
               value: 1.
               norm_class_idx: 0
               splits:
                  - { var:10, quality:1.0359349822998047e+02,
                      le:1.0572896897792816e-01 }
            -
               depth: 5
               value: 1.
               norm_class_idx: 0
            -
               depth: 5
               value: 2.
               norm_class_idx: 1
            -
               depth: 4
               value: 2.
               norm_class_idx: 1
               splits:
                  - { var:10, quality:6.1036346435546875e+02,
                      le:-2.0653785765171051e-01 }
            -
               depth: 5
               value: 2.
               norm_class_idx: 1
            -
               depth: 5
               value: 2.
               norm_class_idx: 1
            -
               depth: 2
               value: 3.
               norm_class_idx: 2
               splits:
                  - { var:11, quality:2.2900751953125000e+03,
                      le:1.5056793689727783e+00 }
            -
               depth: 3
               value: 3.
               norm_class_idx: 2
               splits:
                  - { var:10, quality:2.0879694824218750e+03,
                      le:7.6276612281799316e-01 }
            -
               depth: 4
               value: 3.
               norm_class_idx: 2
               splits:
                  - { var:8, quality:2.6299875488281250e+03,
                      le:3.3791545033454895e-01 }
            -
               depth: 5
               value: 3.
               norm_class_idx: 2
            -
               depth: 5
               value: 4.
               norm_class_idx: 3
            -
               depth: 4
               value: 1.
               norm_class_idx: 0
               splits:
                  - { var:4, quality:1.3525047302246094e+02,
                      le:5.7032442092895508e-01 }
            -
               depth: 5
               value: 1.
               norm_class_idx: 0
            -
               depth: 5
               value: 4.
               norm_class_idx: 3
            -
               depth: 3
               value: 5.
               norm_class_idx: 4
               splits:
                  - { var:7, quality:5.4794525146484375e+02,
                      le:-8.1783658266067505e-01 }
            -
               depth: 4
               value: 5.
               norm_class_idx: 4
               splits:
                  - { var:7, quality:4.1790112304687500e+02,
                      le:-1.0167741775512695e+00 }
            -
               depth: 5
               value: 5.
               norm_class_idx: 4
            -
               depth: 5
               value: 5.
               norm_class_idx: 4
            -
               depth: 4
               value: 4.
               norm_class_idx: 3
               splits:
                  - { var:7, quality:1.5369747924804688e+02,
                      le:2.4047711491584778e-01 }
            -
               depth: 5
               value: 3.
               norm_class_idx: 2
            -
               depth: 5
               value: 4.
               norm_class_idx: 3
      -
         nodes:
            -
               depth: 0
               value: 3.
               norm_class_idx: 2
               splits:
                  - { var:11, quality:3.9201049804687500e+03,
                      le:-6.0276663303375244e-01 }
            -
               depth: 1
               value: 2.
               norm_class_idx: 1
               splits:
                  - { var:6, quality:1.8530162353515625e+03,
                      le:1.4166293144226074e+00 }
            -
               depth: 2
               value: 2.
               norm_class_idx: 1
               splits:
                  - { var:9, quality:2.1845175781250000e+03,
                      le:-4.8400208353996277e-02 }
            -
               depth: 3
               value: 2.
               norm_class_idx: 1
               splits:
                  - { var:2, quality:1.7748529052734375e+03,
                      le:-1.4952254295349121e+00 }
            -
               depth: 4
               value: 3.
               norm_class_idx: 2
               splits:
                  - { var:3, quality:2.7571428298950195e+01,
                      le:-2.8589067459106445e+00 }
            -
               depth: 5
               value: 3.
               norm_class_idx: 2
            -
               depth: 5
               value: 1.
               norm_class_idx: 0
            -
               depth: 4
               value: 2.
               norm_class_idx: 1
               splits:
                  - { var:10, quality:1.8502434082031250e+03,
                      le:-5.0296700000762939e-01 }
            -
               depth: 5
               value: 2.
               norm_class_idx: 1
            -
               depth: 5
               value: 2.
               norm_class_idx: 1
            -
               depth: 3
               value: 1.
               norm_class_idx: 0
               splits:
                  - { var:8, quality:7.5557257080078125e+02,
                      le:6.8731522560119629e-01 }
            -
               depth: 4
               value: 2.
               norm_class_idx: 1
               splits:
                  - { var:3, quality:2.3272064208984375e+02,
                      le:1.7407707870006561e-01 }
            -
               depth: 5
               value: 2.
               norm_class_idx: 1
            -
               depth: 5
               value: 3.
               norm_class_idx: 2
            -
               depth: 4
               value: 1.
               norm_class_idx: 0
               splits:
                  - { var:1, quality:5.5908953857421875e+02,
                      le:-4.5546573400497437e-01 }
            -
               depth: 5
               value: 1.
               norm_class_idx: 0
            -
               depth: 5
               value: 1.
               norm_class_idx: 0
            -
               depth: 2
               value: 1.
               norm_class_idx: 0
               splits:
                  - { var:0, quality:1.6174923706054688e+02,
                      le:1.0059833526611328e-01 }
            -
               depth: 3
               value: 1.
               norm_class_idx: 0
               splits:
                  - { var:7, quality:1.5198823547363281e+02,
                      le:-1.8528331816196442e-01 }
            -
               depth: 4
               value: 2.
               norm_class_idx: 1
            -
               depth: 4
               value: 1.
               norm_class_idx: 0
               splits:
                  - { var:2, quality:1.5297590637207031e+02,
                      le:-5.1443266868591309e-01 }
            -
               depth: 5
               value: 4.
               norm_class_idx: 3
            -
               depth: 5
               value: 1.
               norm_class_idx: 0
            -
               depth: 3
               value: 2.
               norm_class_idx: 1
               splits:
                  - { var:10, quality:3.9368419647216797e+01,
                      le:-9.4080127775669098e-02 }
            -
               depth: 4
               value: 4.
               norm_class_idx: 3
               splits:
                  - { var:8, quality:2.6333333969116211e+01,
                      le:6.9485604763031006e-01 }
            -
               depth: 5
               value: 4.
               norm_class_idx: 3
            -
               depth: 5
               value: 1.
               norm_class_idx: 0
            -
               depth: 4
               value: 2.
               norm_class_idx: 1
            -
               depth: 1
               value: 3.
               norm_class_idx: 2
               splits:
                  - { var:8, quality:3.8508542480468750e+03,
                      le:1.3548012077808380e-01 }
            -
               depth: 2
               value: 3.
               norm_class_idx: 2
               splits:
                  - { var:1, quality:2.4146562500000000e+03,
                      le:3.2385185360908508e-02 }
            -
               depth: 3
               value: 20.
               norm_class_idx: 6
               splits:
                  - { var:8, quality:1.9006803894042969e+02,
                      le:-3.6502230167388916e-01 }
            -
               depth: 4
               value: 20.
               norm_class_idx: 6
               splits:
                  - { var:6, quality:1.3665721130371094e+02,
                      le:-6.4222669601440430e-01 }
            -
               depth: 5
               value: 20.
               norm_class_idx: 6
            -
               depth: 5
               value: 20.
               norm_class_idx: 6
            -
               depth: 4
               value: 1.
               norm_class_idx: 0
               splits:
                  - { var:4, quality:1.2608995056152344e+02,
                      le:-7.0877146720886230e-01 }
            -
               depth: 5
               value: 1.
               norm_class_idx: 0
            -
               depth: 5
               value: 20.
               norm_class_idx: 6
            -
               depth: 3
               value: 3.
               norm_class_idx: 2
               splits:
                  - { var:6, quality:2.7629255371093750e+03,
                      le:-2.8478693962097168e-01 }
            -
               depth: 4
               value: 5.
               norm_class_idx: 4
               splits:
                  - { var:7, quality:6.6463452148437500e+02,
                      le:-1.2618687152862549e+00 }
            -
               depth: 5
               value: 5.
               norm_class_idx: 4
            -
               depth: 5
               value: 3.
               norm_class_idx: 2
            -
               depth: 4
               value: 3.
               norm_class_idx: 2
               splits:
                  - { var:7, quality:2.3775559082031250e+03,
                      le:5.3322046995162964e-02 }
            -
               depth: 5
               value: 3.
               norm_class_idx: 2
            -
               depth: 5
               value: 3.
               norm_class_idx: 2
            -
               depth: 2
               value: 1.
               norm_class_idx: 0
               splits:
                  - { var:5, quality:2.0893034667968750e+03,
                      le:-2.3473000526428223e-01 }
            -
               depth: 3
               value: 1.
               norm_class_idx: 0
               splits:
                  - { var:11, quality:1.6903526611328125e+03,
                      le:-4.1232478618621826e-01 }
            -
               depth: 4
               value: 1.
               norm_class_idx: 0
               splits:
                  - { var:3, quality:1.2243618774414062e+02,
                      le:-1.0982675552368164e+00 }
            -
               depth: 5
               value: 1.
               norm_class_idx: 0
            -
               depth: 5
               value: 2.
               norm_class_idx: 1
            -
               depth: 4
               value: 1.
               norm_class_idx: 0
               splits:
                  - { var:6, quality:1.6130883789062500e+03,
                      le:-1.9805778264999390e+00 }
            -
               depth: 5
               value: 5.
               norm_class_idx: 4
            -
               depth: 5
               value: 1.
               norm_class_idx: 0
            -
               depth: 3
               value: 4.
               norm_class_idx: 3
               splits:
                  - { var:7, quality:6.6126873779296875e+02,
                      le:5.3478181362152100e-01 }
            -
               depth: 4
               value: 4.
               norm_class_idx: 3
               splits:
                  - { var:7, quality:4.8050662231445312e+02,
                      le:-7.3506522178649902e-01 }
            -
               depth: 5
               value: 3.
               norm_class_idx: 2
            -
               depth: 5
               value: 4.
               norm_class_idx: 3
            -
               depth: 4
               value: 1.
               norm_class_idx: 0
               splits:
                  - { var:10, quality:3.2554083251953125e+02,
                      le:3.9781525731086731e-01 }
            -
               depth: 5
               value: 1.
               norm_class_idx: 0
            -
               depth: 5
               value: 1.
               norm_class_idx: 0
      -
         nodes:
            -
               depth: 0
               value: 3.
               norm_class_idx: 2
               splits:
                  - { var:11, quality:3.9494357910156250e+03,
                      le:-4.6410948038101196e-01 }
            -
               depth: 1
               value: 2.
               norm_class_idx: 1
               splits:
                  - { var:6, quality:1.9787015380859375e+03,
                      le:1.4215567111968994e+00 }
            -
               depth: 2
               value: 2.
               norm_class_idx: 1
               splits:
                  - { var:7, quality:1.8919031982421875e+03,
                      le:-4.7456991672515869e-01 }
            -
               depth: 3
               value: 2.
               norm_class_idx: 1
               splits:
                  - { var:11, quality:4.9322830200195312e+02,
                      le:-7.6925688982009888e-01 }
            -
               depth: 4
               value: 2.
               norm_class_idx: 1
               splits:
                  - { var:10, quality:4.7922729492187500e+02,
                      le:-8.5448431968688965e-01 }
            -
               depth: 5
               value: 3.
               norm_class_idx: 2
            -
               depth: 5
               value: 2.
               norm_class_idx: 1
            -
               depth: 4
               value: 3.
               norm_class_idx: 2
               splits:
                  - { var:10, quality:1.4489968872070312e+02,
                      le:1.1650200933218002e-02 }
            -
               depth: 5
               value: 3.
               norm_class_idx: 2
            -
               depth: 5
               value: 2.
               norm_class_idx: 1
            -
               depth: 3
               value: 2.
               norm_class_idx: 1
               splits:
                  - { var:10, quality:1.8749091796875000e+03,
                      le:-4.4083096086978912e-02 }
            -
               depth: 4
               value: 1.
               norm_class_idx: 0
               splits:
                  - { var:8, quality:7.1112005615234375e+02,
                      le:1.0891046524047852e+00 }
            -
               depth: 5
               value: 2.
               norm_class_idx: 1
            -
               depth: 5
               value: 1.
               norm_class_idx: 0
            -
               depth: 4
               value: 2.
               norm_class_idx: 1
               splits:
                  - { var:1, quality:1.4595255126953125e+03,
                      le:1.2041981220245361e+00 }
            -
               depth: 5
               value: 2.
               norm_class_idx: 1
            -
               depth: 5
               value: 4.
               norm_class_idx: 3
            -
               depth: 2
               value: 1.
               norm_class_idx: 0
               splits:
                  - { var:1, quality:1.7052760314941406e+02,
                      le:8.4282350540161133e-01 }
            -
               depth: 3
               value: 1.
               norm_class_idx: 0
               splits:
                  - { var:1, quality:1.6665118408203125e+02,
                      le:6.1774820089340210e-01 }
            -
               depth: 4
               value: 1.
               norm_class_idx: 0
               splits:
                  - { var:8, quality:1.8536633300781250e+02,
                      le:9.1967570781707764e-01 }
            -
               depth: 5
               value: 2.
               norm_class_idx: 1
            -
               depth: 5
               value: 1.
               norm_class_idx: 0
            -
               depth: 4
               value: 4.
               norm_class_idx: 3
               splits:
                  - { var:7, quality:28., le:5.0475502014160156e-01 }
            -
               depth: 5
               value: 4.
               norm_class_idx: 3
            -
               depth: 5
               value: 1.
               norm_class_idx: 0
            -
               depth: 3
               value: 2.
               norm_class_idx: 1
               splits:
                  - { var:2, quality:24., le:6.4190191030502319e-01 }
            -
               depth: 4
               value: 2.
               norm_class_idx: 1
            -
               depth: 4
               value: 1.
               norm_class_idx: 0
               splits:
                  - { var:9, quality:9., le:1.5050995349884033e-01 }
            -
               depth: 5
               value: 2.
               norm_class_idx: 1
            -
               depth: 5
               value: 1.
               norm_class_idx: 0
            -
               depth: 1
               value: 3.
               norm_class_idx: 2
               splits:
                  - { var:1, quality:3.3107077636718750e+03,
                      le:3.5141773521900177e-02 }
            -
               depth: 2
               value: 1.
               norm_class_idx: 0
               splits:
                  - { var:11, quality:1.5389263916015625e+03,
                      le:6.5075671672821045e-01 }
            -
               depth: 3
               value: 1.
               norm_class_idx: 0
               splits:
                  - { var:3, quality:1.5895556640625000e+03,
                      le:-2.2065432369709015e-01 }
            -
               depth: 4
               value: 1.
               norm_class_idx: 0
               splits:
                  - { var:4, quality:1.6227271728515625e+03,
                      le:-6.2185323238372803e-01 }
            -
               depth: 5
               value: 1.
               norm_class_idx: 0
            -
               depth: 5
               value: 20.
               norm_class_idx: 6
            -
               depth: 4
               value: 20.
               norm_class_idx: 6
               splits:
                  - { var:1, quality:9.3931167602539062e+01,
                      le:-7.2254133224487305e-01 }
            -
               depth: 5
               value: 2.
               norm_class_idx: 1
            -
               depth: 5
               value: 20.
               norm_class_idx: 6
            -
               depth: 3
               value: 5.
               norm_class_idx: 4
               splits:
                  - { var:7, quality:1.0283474731445312e+02,
                      le:-1.1032826900482178e+00 }
            -
               depth: 4
               value: 5.
               norm_class_idx: 4
               splits:
                  - { var:4, quality:9.5473976135253906e+01,
                      le:1.2744102478027344e+00 }
            -
               depth: 5
               value: 5.
               norm_class_idx: 4
            -
               depth: 5
               value: 10.
               norm_class_idx: 5
            -
               depth: 4
               value: 3.
               norm_class_idx: 2
               splits:
                  - { var:6, quality:5.1441665649414062e+01,
                      le:-8.6094185709953308e-02 }
            -
               depth: 5
               value: 20.
               norm_class_idx: 6
            -
               depth: 5
               value: 3.
               norm_class_idx: 2
            -
               depth: 2
               value: 3.
               norm_class_idx: 2
               splits:
                  - { var:10, quality:2.1216684570312500e+03,
                      le:7.3037660121917725e-01 }
            -
               depth: 3
               value: 3.
               norm_class_idx: 2
               splits:
                  - { var:5, quality:2.1671381835937500e+03,
                      le:-9.5259785652160645e-02 }
            -
               depth: 4
               value: 3.
               norm_class_idx: 2
               splits:
                  - { var:5, quality:1.2417932128906250e+03,
                      le:-9.1604590415954590e-01 }
            -
               depth: 5
               value: 3.
               norm_class_idx: 2
            -
               depth: 5
               value: 3.
               norm_class_idx: 2
            -
               depth: 4
               value: 3.
               norm_class_idx: 2
               splits:
                  - { var:2, quality:1.0686218261718750e+03,
                      le:3.7319350242614746e-01 }
            -
               depth: 5
               value: 3.
               norm_class_idx: 2
            -
               depth: 5
               value: 3.
               norm_class_idx: 2
            -
               depth: 3
               value: 1.
               norm_class_idx: 0
               splits:
                  - { var:3, quality:2.0395315551757812e+02,
                      le:1.9418460130691528e-01 }
            -
               depth: 4
               value: 1.
               norm_class_idx: 0
               splits:
                  - { var:11, quality:1.4677705383300781e+02,
                      le:-2.7793687582015991e-01 }
            -
               depth: 5
               value: 2.
               norm_class_idx: 1
            -
               depth: 5
               value: 1.
               norm_class_idx: 0
            -
               depth: 4
               value: 4.
               norm_class_idx: 3
               splits:
                  - { var:7, quality:1.4744549560546875e+02,
                      le:-1.3319208621978760e+00 }
            -
               depth: 5
               value: 5.
               norm_class_idx: 4
            -
               depth: 5
               value: 4.
               norm_class_idx: 3
      -
         nodes:
            -
               depth: 0
               value: 1.
               norm_class_idx: 0
               splits:
                  - { var:4, quality:4.0067031250000000e+03,
                      le:8.0151546001434326e-01 }
            -
               depth: 1
               value: 1.
               norm_class_idx: 0
               splits:
                  - { var:9, quality:3.4074277343750000e+03,
                      le:-1.7221218347549438e-01 }
            -
               depth: 2
               value: 2.
               norm_class_idx: 1
               splits:
                  - { var:8, quality:1.7783491210937500e+03,
                      le:-1.7398473620414734e-01 }
            -
               depth: 3
               value: 3.
               norm_class_idx: 2
               splits:
                  - { var:10, quality:2.5749099731445312e+02,
                      le:1.0566109418869019e-01 }
            -
               depth: 4
               value: 3.
               norm_class_idx: 2
               splits:
                  - { var:11, quality:2.2943167114257812e+02,
                      le:-4.3482276797294617e-01 }
            -
               depth: 5
               value: 3.
               norm_class_idx: 2
            -
               depth: 5
               value: 20.
               norm_class_idx: 6
            -
               depth: 4
               value: 5.
               norm_class_idx: 4
               splits:
                  - { var:7, quality:1.3993177795410156e+02,
                      le:-1.1006846427917480e+00 }
            -
               depth: 5
               value: 5.
               norm_class_idx: 4
            -
               depth: 5
               value: 3.
               norm_class_idx: 2
            -
               depth: 3
               value: 2.
               norm_class_idx: 1
               splits:
                  - { var:11, quality:1.9026927490234375e+03,
                      le:-1.5857417881488800e-01 }
            -
               depth: 4
               value: 2.
               norm_class_idx: 1
               splits:
                  - { var:11, quality:1.8006406250000000e+03,
                      le:-1.5944707393646240e+00 }
            -
               depth: 5
               value: 1.
               norm_class_idx: 0
            -
               depth: 5
               value: 2.
               norm_class_idx: 1
            -
               depth: 4
               value: 4.
               norm_class_idx: 3
               splits:
                  - { var:8, quality:2.2662174987792969e+02,
                      le:3.9387392997741699e-01 }
            -
               depth: 5
               value: 3.
               norm_class_idx: 2
            -
               depth: 5
               value: 4.
               norm_class_idx: 3
            -
               depth: 2
               value: 1.
               norm_class_idx: 0
               splits:
                  - { var:8, quality:2.8269001464843750e+03,
                      le:5.7833455502986908e-02 }
            -
               depth: 3
               value: 3.
               norm_class_idx: 2
               splits:
                  - { var:4, quality:5.1088000488281250e+02,
                      le:-8.0943119525909424e-01 }
            -
               depth: 4
               value: 1.
               norm_class_idx: 0
               splits:
                  - { var:11, quality:1.3039604187011719e+02,
                      le:-6.0218691825866699e-01 }
            -
               depth: 5
               value: 2.
               norm_class_idx: 1
            -
               depth: 5
               value: 1.
               norm_class_idx: 0
            -
               depth: 4
               value: 3.
               norm_class_idx: 2
               splits:
                  - { var:11, quality:6.1254760742187500e+02,
                      le:1.5532985925674438e+00 }
            -
               depth: 5
               value: 3.
               norm_class_idx: 2
            -
               depth: 5
               value: 5.
               norm_class_idx: 4
            -
               depth: 3
               value: 1.
               norm_class_idx: 0
               splits:
                  - { var:8, quality:2.6098652343750000e+03,
                      le:6.5485405921936035e-01 }
            -
               depth: 4
               value: 1.
               norm_class_idx: 0
               splits:
                  - { var:4, quality:4.8683236694335938e+02,
                      le:-1.1182078719139099e-01 }
            -
               depth: 5
               value: 1.
               norm_class_idx: 0
            -
               depth: 5
               value: 4.
               norm_class_idx: 3
            -
               depth: 4
               value: 1.
               norm_class_idx: 0
               splits:
                  - { var:4, quality:2.3391032714843750e+03,
                      le:-4.9885806441307068e-01 }
            -
               depth: 5
               value: 1.
               norm_class_idx: 0
            -
               depth: 5
               value: 1.
               norm_class_idx: 0
            -
               depth: 1
               value: 3.
               norm_class_idx: 2
               splits:
                  - { var:11, quality:1.9446381835937500e+03,
                      le:1.6838934421539307e+00 }
            -
               depth: 2
               value: 3.
               norm_class_idx: 2
               splits:
                  - { var:5, quality:1.9919744873046875e+03,
                      le:1.0640081167221069e+00 }
            -
               depth: 3
               value: 3.
               norm_class_idx: 2
               splits:
                  - { var:8, quality:2.0118347167968750e+03,
                      le:7.3697197437286377e-01 }
            -
               depth: 4
               value: 3.
               norm_class_idx: 2
               splits:
                  - { var:6, quality:2.0773452148437500e+03,
                      le:-7.4782335758209229e-01 }
            -
               depth: 5
               value: 5.
               norm_class_idx: 4
            -
               depth: 5
               value: 3.
               norm_class_idx: 2
            -
               depth: 4
               value: 4.
               norm_class_idx: 3
               splits:
                  - { var:2, quality:43., le:8.1132256984710693e-01 }
            -
               depth: 5
               value: 4.
               norm_class_idx: 3
            -
               depth: 5
               value: 10.
               norm_class_idx: 5
            -
               depth: 3
               value: 2.
               norm_class_idx: 1
               splits:
